[-0.016905572  ,  0.026896805  ,  0.013514455  ,  0.0012015232 , -0.010503477  ,  0.009795725  , -0.031278364  , -0.022376768  , -0.0071273115 ,  0.029152371  ,  0.034410108  , -0.025209552  , -0.020598043  , -0.024188057  , -0.020012656  , -0.0030561895 , -0.008413696  , -0.036613923  , -0.01255525   ,  0.010274373  , -0.037514843  ,  0.010190255  ,  0.008737045  ,  0.022335257  , -0.012579286  ,  0.035578497  ,  0.016021103  , -0.023415472  ,  0.0065738945 ,  0.004004366  , -0.00016726289,  0.00014430717, -0.026665106  , -0.026837647  , -0.013895624  , -0.03762801   ,  0.0033100387 ,  0.0019632739 , -0.0116553    ,  0.010244536  , -0.021586739  ,  0.036466315  ,  0.027080227  ,  0.00024254927, -0.0032679574 ,  0.010515485  , -0.035640124  ,  0.019331103  , -0.00545206   , -0.009048669  , -0.01779191   ,  0.007084495  , -0.008193312  , -0.025781643  ,  0.041247267  , -0.031004285  ,  0.032687765  ,  0.009654011  , -0.033859413  , -0.027349073  , -0.024242206  , -0.025771756  ,  0.02418413   ,  0.017300112  , -0.02541127   , -0.026163984  ,  0.019910932  ,  0.011503556  ,  0.022989739  ,  0.031479802  ,  0.017229185  ,  0.03708308   ,  0.017802205  ,  0.0025713164 ,  0.038050275  , -0.0315662    , -0.017889775  ,  0.012359691  ,  0.00711611   ,  0.004721674  , -0.020014437  , -0.009650056  ,  0.03508057   , -0.02211251   ,  0.01916401   ,  0.027019452  , -0.027813097  ,  0.0021798105 , -0.020827357  , -0.011797173  ,  0.032049425  ,  0.012721734  , -0.034562137  ,  0.028407725  , -0.00819086   , -0.01618283   , -0.032374542  , -0.038461454  ,  0.018168395  ,  0.022647792  , -0.029366562  ,  0.03151166   ,  0.014835481  ,  0.04262517   ,  0.020484172  , -0.00018256488, -0.03390302   ,  0.013337462  , -0.028574541  ,  0.018790113  ,  0.022295633  ,  0.0054768724 , -0.0063825496 ,  0.033642266  , -0.03866911   , -0.016924256  , -0.011493053  ,  0.012756746  , -0.023052579  , -0.017159123  , -0.018187614  ,  0.00019593886, -0.009918881  , -0.034952603  , -0.03283623   , -0.009865469  ,  0.029214911  , -0.020424379  , -0.02274136   , -0.0038261414 , -0.012972501  ,  0.01559362   ,  0.00707971   , -0.037889197  ,  0.03330891   , -0.04017878   , -0.029969322  ,  0.0035166498 ,  0.032492895  , -0.01711075   , -0.0062459395 , -0.019331884  ,  0.028967975  , -0.0018209578 ,  0.03312073   , -0.003739763  ,  0.022140997  ,  0.0018730356 ,  0.024661357  ,  0.014089888  , -0.00522377   ,  0.0032884865 ,  0.032210357  ,  0.034822054  ,  0.026538068  ,  0.024796769  ,  0.024783356  , -0.024514005  , -0.010229595  ,  0.010962538  , -0.021874081  ,  0.014370008  , -0.0053562154 ,  0.014402251  , -0.028899882  ,  0.022302985  , -0.023256764  ,  0.02182234   , -0.038336784  ,  0.020157998  , -0.017423557  ,  0.01990212   ,  0.00025239217, -0.020541832  ,  0.026935628  , -0.004485145  ,  0.011367846  ,  0.009268799  ,  0.03496141   , -0.023609152  ,  0.014237452  ,  0.009596012  , -0.031319156  ,  0.025603252  ,  0.0042684483 ,  0.017113738  , -0.018409073  ,  0.0061768508 ,  0.034228615  , -0.028542545  ,  0.008785757  , -0.03323085   ,  0.004112851  ,  0.015881328  , -0.0036345785 , -0.025036015  ,  0.027136441  , -0.024606435  ,  0.02434706   ,  0.012804158  ,  0.02109197   , -0.02681784   ,  0.010214743  ,  0.015650699  , -0.004489239  ,  0.029106356  ,  0.034776777  ,  0.03090158   , -0.017558737  , -0.024342254  ,  0.03877081   , -0.019997222  ,  0.00959617   ,  0.03605784   ,  0.023179328  ,  0.030580407  , -0.02629701   ,  0.02493381   ,  0.02626836   ,  0.008610235  , -0.03576868   ,  0.040843166  ,  0.022870218  ,  0.024151944  , -0.01226515   , -0.008869691  ,  0.020464694  ,  0.015594678  ,  0.028387476  ,  0.03134794   , -0.0003092992 ,  0.013205346  , -0.01377431   ,  0.026162347  , -0.022125822  ,  0.03126727   ,  0.006492555  ,  0.018701185  , -0.007192097  , -0.035992134  ,  0.029985715  , -0.020116182  ,  0.03718893   , -0.013150267  , -0.03773532   , -0.014189663  , -0.022862943  ,  0.03520128   , -0.012947536  , -0.015067305  , -0.010132544  , -0.007725872  ,  0.026595153  ,  0.017153615  , -0.017935578  ,  0.01987228   ]