[-0.019195963   ,  0.0047169845  ,  0.019660361   , -0.0055999355  , -0.009491762   ,  0.015024226   ,  0.033061504   , -0.0012032987  , -0.004339292   ,  0.040340222   , -0.0017053701  ,  0.022940587   , -0.010471648   , -0.022484936   , -0.018279692   ,  0.0018645403  , -0.00033975005 , -0.040815547   ,  0.022136096   ,  0.008698478   ,  0.028492287   ,  0.00036665573 , -0.022073895   ,  0.024098389   ,  0.0035513446  , -0.016113041   , -0.019318027   ,  0.014666187   , -0.0014664576  ,  0.014634701   , -0.0059369938  , -0.024979483   , -0.006931301   , -0.001889964   , -0.025795117   , -0.018287066   , -0.0124836     , -0.018421464   ,  0.014533894   ,  0.024479326   ,  0.0131648835  ,  0.011688702   ,  0.029650258   ,  0.022820707   ,  0.022543522   ,  0.018047873   ,  0.0033188153  ,  0.0073107346  ,  0.025458118   ,  0.00017702232 ,  0.012380131   , -0.025770523   , -0.012244109   , -0.00830493    ,  0.023754263   ,  0.014437002   ,  0.018938567   , -0.008253704   , -0.0072147087  ,  0.012799617   ,  0.004133781   , -0.02641367    , -0.011196535   ,  0.011249955   ,  0.02530359    , -0.009223138   , -0.0036226427  , -0.02013379    ,  0.022104256   ,  0.016002135   , -0.02593256    , -0.02074973    , -0.022111801   ,  0.020341      , -0.011942348   , -0.0147043355  ,  0.07148744    ,  0.024154272   , -0.0072546294  , -0.02227586    ,  0.0011334779  , -0.021020766   , -0.0032459677  , -0.007829916   ,  0.008672377   , -0.0016401142  ,  0.016693018   , -0.007745566   , -0.0033677348  ,  0.005094592   , -0.015172984   ,  0.0016868117  ,  0.00049159443 ,  0.018552566   , -0.026279071   , -0.0016899157  , -0.01257471    , -0.006913171   ,  0.024193892   , -0.03147143    ,  0.014862447   , -0.023959162   , -0.0049228375  ,  0.06652982    ,  0.016494228   ,  0.016202662   ,  0.017107354   , -0.000030052981, -0.017912943   , -0.0009625068  ,  0.0013368934  ,  0.012035997   ,  0.019997602   ,  0.005538163   ,  0.014172105   , -0.014189524   ,  0.02720791    , -0.015947048   , -0.017012829   ,  0.019417867   , -0.017151395   , -0.009974507   , -0.0019715186  , -0.0006700269  , -0.0010036106  ,  0.009615639   ,  0.006103469   , -0.007578992   ,  0.024890684   , -0.025015436   , -0.014809642   , -0.017482284   , -0.0015980845  ,  0.020202912   ,  0.02340901    ,  0.020968566   , -0.01443971    ,  0.0035813819  ,  0.0094517805  , -0.015217225   , -0.0067764334  ,  0.008083225   , -0.01446889    ,  0.025610384   ,  0.028392728   , -0.017122937   ,  0.0010045972  ,  0.020323025   , -0.007449481   ,  0.022896698   ,  0.026574772   ,  0.057026967   , -0.02587257    , -0.016842818   , -0.0030751717  ,  0.020758577   ,  0.007303      ,  0.00008780666 ,  0.018982636   , -0.014211415   , -0.023090849   ,  0.027374355   ,  0.027568052   ,  0.024971668   , -0.018874578   ,  0.0109602995  , -0.014473538   ,  0.031274993   ,  0.005074373   , -0.0039654323  ,  0.0010487944  , -0.019530015   ,  0.021859089   ,  0.01607585    ,  0.00424579    , -0.0008353948  ,  0.007260398   , -0.0030612869  ,  0.013720787   ,  0.0018336672  , -0.02355695    , -0.004106379   , -0.016539296   , -0.008217903   , -0.02473954    , -0.00035083646 , -0.028205622   , -0.012586235   ,  0.018459443   ,  0.023587825   ,  0.010860901   ,  0.014822534   , -0.00244114    , -0.009091993   , -0.000018280487,  0.020350628   , -0.0030979805  ,  0.013296397   ,  0.009170417   ,  0.012304876   , -0.006914268   ,  0.004351479   , -0.01646783    , -0.008449084   ,  0.0052851853  ,  0.01362207    , -0.0015909314  ,  0.017890088   ,  0.021558356   ,  0.014011071   , -0.013410056   , -0.016858917   ,  0.0019860975  , -0.0066535003  ,  0.001302183   ,  0.0012850792  ,  0.0119073335  ,  0.0023273253  , -0.013256076   ,  0.015755843   ,  0.017253228   , -0.007846636   , -0.0009849321  ,  0.010134229   , -0.017877106   ,  0.013401794   , -0.016025431   ,  0.040405843   , -0.021831438   ,  0.0054444303  , -0.021548549   , -0.023506844   ,  0.02336362    ,  0.01825332    ,  0.02849567    ,  0.004812763   , -0.010721366   ,  0.021058844   ,  0.0020988572  ,  0.012589364   ,  0.0116881     ,  0.014382509   ,  0.004404229   ,  0.019120269   ,  0.0048913234  , -0.013674994   ,  0.00415583    , -0.010462508   , -0.019998198   , -0.017067138   , -0.0066185985  ,  0.001087026   , -0.014197488   ,  0.024820456   ,  0.015571055   ,  0.023162011   ,  0.0016668695  , -0.024840577   , -0.008313344   , -0.018657908   , -0.02695091    , -0.022025008   , -0.0058483914  ,  0.042602714   , -0.010017138   ,  0.0070504462  ,  0.018689187   , -0.023881178   , -0.0037688694  ,  0.011455188   ,  0.0049136695  ,  0.013214951   , -0.020843154   , -0.011255046   ,  0.029118685   ,  0.019974304   ,  0.023313655   ,  0.018134478   ,  0.021590255   , -0.009850002   , -0.0020031848  ,  0.018176615   , -0.010017912   , -0.026892658   ,  0.015833298   ,  0.0082454765  ,  0.012344351   ,  0.015154481   , -0.003005081   ,  0.030471822   , -0.014849892   , -0.0030882643  , -0.020510655   ,  0.017912228   , -0.0039026744  ,  0.03211543    ,  0.0085733915  ,  0.023794936   ,  0.0023449764  , -0.0061036847  ,  0.02774547    , -0.0344747     ,  0.00976918    , -0.010755821   , -0.015247239   ,  0.019040776   , -0.022439394   ,  0.020719538   ,  0.021461498   , -0.03134076    ,  0.009307684   , -0.01871759    ,  0.0027034762  , -0.0026485503  , -0.018942      , -0.026163653   , -0.020615438   , -0.011351999   ,  0.021549612   , -0.021012807   , -0.006663819   , -0.004191049   , -0.016331697   , -0.00079134444 ,  0.0053589377  ,  0.018224342   ,  0.02693369    ,  0.009149017   ,  0.025331443   ,  0.0019377263  , -0.054373797   ,  0.012760766   , -0.01703753    ,  0.026070323   , -0.024689205   ,  0.01964519    ,  0.0050369403  ,  0.010974081   , -0.012660026   ,  0.011286849   , -0.04794778    ,  0.0119231865  , -0.019792339   , -0.03212571    , -0.009636692   , -0.027274856   , -0.0290832     ,  0.021789726   , -0.008669702   ,  0.01511291    , -0.007217052   ,  0.024435151   ,  0.04893877    ,  0.007846537   ,  0.024021063   , -0.025618434   , -0.012017953   , -0.025643313   ,  0.012025      , -0.013527541   ,  0.012401266   ,  0.01167219    ,  0.01469372    , -0.0012243389  , -0.015697602   , -0.014749389   , -0.016074425   , -0.009096782   , -0.020466732   , -0.014152157   ,  0.010461781   , -0.010206834   ,  0.03212048    ,  0.007898436   ,  0.0135474745  ,  0.0017552084  , -0.00394827    ,  0.015738353   ,  0.0044180085  ,  0.0071848757  ,  0.010490532   , -0.020979322   , -0.01986746    ,  0.016407626   , -0.007916856   , -0.034825504   ,  0.004348992   ,  0.014700323   ,  0.00290934    , -0.014084236   ,  0.0113370605  ,  0.020909904   ,  0.04789539    ,  0.021037633   , -0.025309397   ,  0.010824472   , -0.007916308   ,  0.010301064   ,  0.014744801   , -0.0025531913  ,  0.024548098   , -0.00039023082 ,  0.0041554864  , -0.0018738873  , -0.024161575   , -0.017393513   ,  0.027471893   , -0.014807855   , -0.009114477   ,  0.012157433   ,  0.01832087    ,  0.02242999    ,  0.020992475   , -0.0054932497  ,  0.025117869   , -0.009989975   , -0.0057255575  , -0.02300219    ,  0.0071655507  ,  0.02360104    ,  0.0017131655  ,  0.0073868297  , -0.027082404   ,  0.016346911   ,  0.008558361   , -0.004168598   , -0.02177039    ,  0.012926964   , -0.0030601555  ,  0.0077267764  ,  0.006169089   ,  0.008604479   , -0.024704129   ,  0.021635193   , -0.005484624   , -0.011693251   ,  0.024504077   , -0.027917625   , -0.0078594675  ,  0.02518081    ,  0.023313858   ,  0.012957736   , -0.01734945    ,  0.028046122   , -0.021975268   ,  0.01939333    , -0.029957082   , -0.0013966119  , -0.022039566   , -0.022633953   , -0.02665085    , -0.015112222   , -0.011690713   ,  0.012241314   , -0.023466209   ,  0.014328055   , -0.016557507   ,  0.01787611    ,  0.019360116   ,  0.029794669   ,  0.003327723   , -0.018218217   , -0.020658769   , -0.0116754435  ,  0.0003609986  , -0.022981124   ,  0.018099522   , -0.021075303   ,  0.019281853   ,  0.024045626   ,  0.03167296    ,  0.008315559   ,  0.00036078435 ,  0.0005531718  , -0.013281923   ,  0.015672982   ,  0.009805547   ,  0.005381667   , -0.006576994   ,  0.025171038   ,  0.007713798   , -0.016464112   , -0.0017915377  , -0.009222958   , -0.0014019144  ,  0.0031066875  ,  0.010804494   ,  0.004599742   ,  0.009608696   , -0.002664667   ,  0.01354013    ,  0.0006421914  ,  0.0009357936  , -0.031095333   ,  0.035824224   ,  0.014171682   , -0.025185972   ,  0.011640688   , -0.020230724   ,  0.0022101437  ,  0.018717125   , -0.027889809   ,  0.020612568   , -0.006648294   , -0.0032041098  , -0.01970742    ,  0.012678914   , -0.026222425   ,  0.025227457   ,  0.03244737    ,  0.0035329252  , -0.00519959    ]