[ 0.022332849  , -0.033118464  , -0.07206179   , -0.055987492  , -0.014152284  ,  0.044066     , -0.02245184   ,  0.0385202    , -0.048782922  , -0.092457764  , -0.008199123  , -0.030018631  ,  0.02537668   , -0.06411807   , -0.037246257  , -0.043190148  , -0.037039187  , -0.068232276  ,  0.040029958  ,  0.034404915  ,  0.05534907   , -0.021741003  , -0.03440224   ,  0.017436031  ,  0.021860285  ,  0.045075666  , -0.07089815   ,  0.06665515   , -0.042449523  , -0.009486455  ,  0.093149096  ,  0.015490315  , -0.008540731  , -0.05121683   ,  0.078630395  , -0.048620287  , -0.0030329528 ,  0.08126383   , -0.07130978   ,  0.07422611   ,  0.044845507  ,  0.061094604  ,  0.0058212383 ,  0.08254354   , -0.0121768145 ,  0.030426096  ,  0.00004935853, -0.0027598643 ,  0.07530315   ,  0.00817796   ,  0.07849933   , -0.01541101   ,  0.062080905  ,  0.0078037186 , -0.029869042  , -0.022146884  ,  0.06471383   ,  0.07111967   , -0.062043827  ,  0.014544745  ,  0.09433262   ,  0.0035844725 ,  0.05865081   ,  0.03820927   ,  0.083615735  , -0.0167576    ,  0.086415924  , -0.054691557  , -0.068926156  ,  0.058035366  ,  0.019529773  , -0.08363236   , -0.016345618  , -0.06353777   , -0.039264876  ,  0.031829584  , -0.022211498  ,  0.014343385  , -0.014864579  , -0.064320125  , -0.058203924  , -0.00049994054, -0.004481432  ,  0.045665067  ,  0.041120518  , -0.050725315  ,  0.058192875  , -0.036348898  ,  0.061657924  , -0.005911306  , -0.0493678    , -0.07286222   , -0.06350917   , -0.0087968325 , -0.005257991  ,  0.052864477  ,  0.03311294   ,  0.009691986  ,  0.039503347  ,  0.03674099   , -0.020446006  ,  0.06466033   , -0.009158583  , -0.07083488   , -0.017294638  ,  0.0070556123 , -0.04266108   ,  0.043179624  ,  0.025371686  ,  0.008461171  ,  0.024051756  , -0.05126879   , -0.057262238  , -0.046574738  ,  0.017236188  ,  0.060911987  , -0.019116987  ,  0.07455622   , -0.06136393   , -0.003512555  , -0.05175732   , -0.06440047   , -0.03900982   , -0.03196116   , -0.019803386  , -0.0013233562 , -0.013539254  , -0.07499657   , -0.010880345  ,  0.079945065  ,  0.07909423   , -0.0084985625 , -0.08147351   ,  0.049544796  ,  0.06910983   ,  0.044840727  , -0.014217878  , -0.023038892  ,  0.065793246  ,  0.027075287  , -0.023690501  , -0.06522702   , -0.052759588  ,  0.04377472   ,  0.04563947   , -0.00896303   , -0.029058559  ,  0.0032401017 , -0.062213484  , -0.022269107  ,  0.014484227  ,  0.016836518  , -0.04858169   , -0.008655652  , -0.020881599  , -0.08832238   , -0.059076965  , -0.071072906  , -0.025355456  , -0.020448996  , -0.041766956  , -0.0683893    ,  0.023683053  , -0.08662874   ,  0.011660957  , -0.002013098  , -0.07535228   , -0.020027563  ,  0.04118371   ,  0.02917353   ,  0.080163844  , -0.037196662  , -0.031593785  ,  0.07982419   , -0.057321027  , -0.043997116  ,  0.028115068  , -0.013074188  ,  0.060621068  ,  0.0018585043 , -0.0015300688 ,  0.0063540693 ,  0.05201583   ,  0.05115654   , -0.021388393  ,  0.076389745  , -0.036016952  , -0.043246105  , -0.060783625  , -0.051100276  , -0.0059080874 ,  0.040201288  ,  0.012966073  ,  0.03812527   , -0.066284515  ,  0.006061794  , -0.016360411  ,  0.030206213  ,  0.07117443   , -0.045033146  ,  0.06821678   ,  0.06753042   ,  0.006322071  , -0.004071506  , -0.08673333   ,  0.05181311   ,  0.090063244  ,  0.054405667  ,  0.06158199   ,  0.028011935  , -0.0689804    , -0.038634628  , -0.040851757  , -0.08335861   , -0.07863973   , -0.052654188  ,  0.009404079  ,  0.009977714  , -0.020673446  , -0.018311538  , -0.06760019   ,  0.062512636  , -0.009644487  , -0.022463378  ,  0.062243003  , -0.035584126  ,  0.049539648  ,  0.064394124  ,  0.081911296  , -0.01988012   , -0.0055572577 ,  0.06856103   , -0.009571238  , -0.063028134  , -0.06434991   , -0.001318856  ,  0.016756415  ,  0.0068337694 , -0.022996325  , -0.028844658  , -0.019356174  ,  0.06473518   , -0.0758022    , -0.0048695393 ,  0.022412546  ,  0.040372588  ,  0.013473898  ,  0.07381365   ,  0.07493169   ,  0.0022996203 , -0.020258931  , -0.0281538    ,  0.01904511   ,  0.08952674   , -0.045169335  ,  0.02051319   ]