[ 0.06226867    ,  0.0115466835  , -0.0042534727  , -0.05418494    ,  0.011340528   ,  0.023718072   ,  0.03861689    ,  0.07659764    ,  0.086674646   ,  0.03229981    , -0.019318353   ,  0.03148299    , -0.019128459   ,  0.028098054   , -0.046755612   ,  0.040511567   ,  0.03959006    ,  0.031398322   ,  0.079707935   ,  0.027031435   ,  0.020224039   , -0.04197386    ,  0.015810693   ,  0.040919892   ,  0.019028954   , -0.05233606    , -0.027397223   , -0.028423337   , -0.08014392    ,  0.024410797   , -0.05767337    , -0.0017566818  ,  0.07659109    , -0.053801984   , -0.07443767    , -0.010327017   ,  0.0045150756  , -0.028333806   ,  0.000038180093,  0.052842896   , -0.020270275   ,  0.06274074    , -0.05374562    ,  0.033189427   ,  0.027085112   , -0.06829105    ,  0.019454015   ,  0.014924428   , -0.060700003   ,  0.030691497   ,  0.024909668   , -0.06752608    , -0.065943435   , -0.024816819   ,  0.08688788    , -0.0005074173  ,  0.07229989    , -0.029211266   , -0.08647904    , -0.0034899572  , -0.0018447143  , -0.04442821    , -0.050491773   , -0.046852656   ,  0.055850357   ,  0.011586656   ,  0.056554623   ,  0.010133441   , -0.057415694   ,  0.014178521   , -0.020988826   , -0.07298564    ,  0.0024773842  ,  0.091088474   , -0.09059188    ,  0.0031781548  , -0.006135454   ,  0.010111461   , -0.015081661   ,  0.04030176    , -0.038194638   ,  0.030033631   ,  0.04448278    ,  0.011148954   , -0.003933598   ,  0.037047613   , -0.07766912    , -0.06915059    ,  0.059449885   , -0.055970814   ,  0.06535245    , -0.07471075    ,  0.0679558     , -0.04386199    , -0.0647352     , -0.04477029    ,  0.019506691   ,  0.011853125   , -0.01617005    ,  0.070900574   , -0.042400375   ,  0.00071883306 ,  0.069547094   ,  0.0387194     , -0.021104906   ,  0.08231161    , -0.037909336   ,  0.041322358   , -0.036800247   , -0.061006386   ,  0.024471413   , -0.023976406   ,  0.01648189    , -0.001363455   , -0.014816806   , -0.09482747    ,  0.0091788275  ,  0.03130574    , -0.07991841    ,  0.036217753   , -0.02936225    , -0.014827533   , -0.033133168   , -0.010544603   ,  0.06967472    , -0.0242993     , -0.018358612   , -0.052459847   ]