[-0.007320758     , -0.12068555      , -0.061964557     ,  0.071289726     , -0.00000012827724,  0.113691464     ,  0.057070166     , -0.2421098       ,  0.2039686       , -0.14803548      ,  0.1140615       ,  0.022103708     ,  0.08466383      ,  0.061013054     ,  0.042063504     , -0.10789061      , -0.1740483       ,  0.008652682     , -0.14016314      ,  0.24808781      , -0.18660255      , -0.25126618      , -0.072523035     ,  0.15128832      , -0.20246695      , -0.14040712      ,  0.004322326     , -0.19055079      ,  0.14382115      ,  0.19238709      ,  0.090771385     , -0.15442538      , -0.14451583      , -0.091429934     , -0.17385621      ,  0.2135839       , -0.152006        ,  0.17604628      ,  0.21743602      ,  0.2298406       ,  0.2083692       ,  0.07405233      ,  0.24122378      ,  0.28224054      ,  0.21035556      ,  0.13886788      ,  0.18066482      ,  0.16332267      , -0.23703772      , -0.033773888     , -0.030032417     ,  0.1336115       ,  0.21207543      , -0.18101522      , -0.13681425      ,  0.000011769157  ,  0.13908766      ,  0.16568518      , -0.11553199      , -0.018590456     , -0.036077984     ,  0.09686022      , -0.24883209      ,  0.09864237      ]