[-0.030774103    ,  0.058188107    , -0.04542773     , -0.06266584     , -0.02792029     , -0.002383436    ,  0.114671625    , -0.069509625    , -0.00008094108  ,  0.12140993     ,  0.0953693      ,  0.008468926    , -0.000052819778 ,  0.07676988     , -0.043615624    , -0.07877179     ,  0.022606954    , -0.07859709     ,  0.05923762     , -0.036807965    ,  0.110170946    ,  0.01077237     , -0.08706189     ,  0.015780943    , -0.036699954    , -0.07090456     ,  0.025517048    , -0.0686873      , -0.016791873    ,  0.103044786    , -0.091629855    , -0.052798595    , -0.037140775    ,  0.042332377    , -0.056145094    , -0.013845284    , -0.018727127    , -0.105535604    ,  0.076659516    ,  0.06337978     , -0.029504355    ,  0.03707314     , -0.010638809    ,  0.06594034     , -0.07972947     ,  0.023508126    , -0.10628367     , -0.065667845    , -0.054273006    ,  0.021781193    , -0.0058270977   , -0.07970437     ,  0.050456703    ,  0.04187564     ,  0.004871358    ,  0.011053833    , -0.049371265    , -0.016231446    , -0.052747954    , -0.011937807    , -0.047806364    , -0.017224528    , -0.016038015    , -0.03295757     ,  0.08380237     , -0.08686016     ,  0.052971408    ,  0.02540154     , -0.090398066    , -0.08024379     ,  0.037330423    , -0.061567947    , -0.058524013    , -0.06473682     ,  0.04817072     ,  0.039727982    ,  0.07914717     , -0.04626577     ,  0.013593001    , -0.03564083     ,  0.10121256     , -0.00007743238  ,  0.072132684    , -0.0026165026   ,  0.04819968     ,  0.0073046884   , -0.06790269     , -0.013348582    ,  0.1385394      , -0.03272081     , -0.05043988     , -0.07908565     , -0.05812557     , -0.07104218     , -0.062602855    , -0.14041506     , -0.032998685    ,  0.029286973    ,  0.12210456     , -0.07372017     , -0.028259922    ,  0.088086605    , -0.028153341    ,  0.05541135     ,  0.09548315     ,  0.09066646     ,  0.033635464    , -0.06631709     , -0.014865178    , -0.032541826    , -0.025970658    ,  0.04553901     ,  0.018156223    , -0.0033738255   ,  0.030717967    , -0.08123593     ,  0.031060845    ,  0.051572323    , -0.061190777    , -0.024094574    ,  0.026637921    ,  0.0852045      ,  0.082763       , -0.0009164162   ,  0.04665508     ,  0.097605504    , -0.011579695    ,  0.10700052     , -0.04297578     , -0.050761893    , -0.07672266     , -0.074548915    , -0.054093566    , -0.0026142788   , -0.0033658422   , -0.037219748    , -0.0226185      , -0.035646       , -0.08635584     , -0.07421533     ,  0.1138336      ,  0.07163441     , -0.04581055     ,  0.019361213    ,  0.08091392     ,  0.09278652     ,  0.06035171     ,  0.09146767     ,  0.081383355    ,  0.052812338    ,  0.047627393    ,  0.075191885    , -0.08361767     ,  0.039742567    ,  0.037367065    ,  0.074969344    , -0.057685994    , -0.10582679     , -0.068750165    ,  0.080198765    , -0.009255227    ,  0.045623858    ,  0.09388282     , -0.009963782    , -0.105882704    , -0.025875967    , -0.02163154     ,  0.100962006    ,  0.024250986    , -0.058395974    , -0.06792087     , -0.012794208    ,  0.010587247    , -0.009574478    ,  0.017038401    ,  0.014005066    ,  0.029115954    , -0.025025034    , -0.035061326    ,  0.05168586     ,  0.0647811      , -0.047980953    ,  0.08699841     ,  0.02534058     , -0.09447006     ,  0.10047602     ,  0.03457891     ,  0.09723963     , -0.08504626     ,  0.085230336    ,  0.05039361     , -0.057146315    ,  0.018258989    , -0.05443994     ,  0.13235143     , -0.046021868    , -0.07265889     , -0.069558516    , -0.035545222    , -0.0217126      ,  0.09249701     , -0.032111898    ,  0.017753376    , -0.01912233     , -0.06534995     , -0.08559875     , -0.013127584    , -0.018427558    , -0.03768494     ,  0.005205488    ,  0.04648018     , -0.06275006     ,  0.0062119155   , -0.039964687    , -0.13181877     ,  0.076761924    , -0.091264434    ,  0.0074688103   , -0.014502782    , -0.08891664     ,  0.032500118    ,  0.08965163     , -0.0689173      ,  0.07857961     ,  0.0070470427   , -0.009346582    ,  0.04126589     , -0.026563788    , -0.023491392    ,  0.087389186    ,  0.10084968     ,  0.10266557     ,  0.07628464     , -0.05602261     ,  0.092967086    , -0.1218327      ,  0.05843002     , -0.08467867     ,  0.06878538     , -0.0002626845   ,  0.06826172     , -0.016550293    , -0.064470515    ,  0.091949634    ,  0.033825424    ,  0.013566516    , -0.0026471682   , -0.06378721     ,  0.113354996    ,  0.10142787     , -0.018859694    , -0.05522385     , -0.010209903    ,  0.074970685    , -0.03201011     , -0.078454435    , -0.08208989     ,  0.07686902     , -0.07378467     ,  0.0587872      ,  0.121330634    , -0.021143174    , -0.05045303     ,  0.10912902     , -0.042936508    ,  0.036469087    , -0.069136776    , -0.06739916     ,  0.00888241     , -0.0092665525   , -0.040651415    , -0.036363762    , -0.0033476532   , -0.019968087    ,  0.018597215    , -0.00002338043  , -0.086927816    ,  0.09825728     ,  0.017436892    ,  0.06918178     , -0.029581953    ,  0.043460906    , -0.036154762    , -0.080789134    , -0.053229183    ,  0.13342966     , -0.014549047    ,  0.07646422     , -0.09546342     ,  0.03724343     , -0.05397194     ,  0.038375195    , -0.009307275    , -0.05342906     , -0.08601963     ,  0.07129321     ,  0.02646611     ,  0.08731681     ,  0.07227914     , -0.000061178565 ,  0.07201566     , -0.076148055    , -0.053323757    , -0.07983269     , -0.06516406     ,  0.08667209     , -0.08995726     , -0.046802536    ,  0.014288864    , -0.10651223     ,  0.107684016    ,  0.0327678      , -0.00554754     , -0.0849611      ,  0.03592127     ,  0.014326315    , -0.087084584    ,  0.092183635    ,  0.09170891     , -0.00498969     ,  0.0074372753   , -0.073505774    , -0.06955292     , -0.072975166    ,  0.046849303    , -0.0749573      ,  0.026708104    , -0.07278475     ,  0.038100783    ,  0.111993074    , -0.13110906     ,  0.07657869     , -0.07847942     ,  0.011065338    ,  0.008605557    , -0.0033014242   , -0.014549033    ,  0.07068338     , -0.024980491    , -0.018170081    , -0.058935       ,  0.03888078     , -0.08326554     , -0.017689552    , -0.0669108      , -0.040884957    ,  0.009977163    , -0.0898561      , -0.065442       ,  0.0630405      ,  0.06668217     ,  0.03961467     , -0.000059735634 , -0.07467835     ,  0.10812006     ,  0.05229195     , -0.07814667     ,  0.10017965     ,  0.11604331     , -0.038145877    , -0.10386622     , -0.08133177     , -0.0002448093   ,  0.079788916    ,  0.040158782    , -0.02572709     ,  0.0330042      , -0.019088458    ,  0.08358779     , -0.026298692    , -0.07015361     ,  0.10951652     ,  0.008635923    , -0.043455508    ,  0.096738115    , -0.025978588    , -0.05700732     , -0.04127202     , -0.07102004     , -0.030397044    ,  0.07939468     , -0.012198872    ,  0.064198196    , -0.037706602    ,  0.094042934    , -0.03920141     , -0.059048247    ,  0.008163558    ,  0.020622373    , -0.063617274    , -0.034916308    , -0.063864626    ,  0.101039365    , -0.0443683      , -0.059150506    , -0.08633626     ,  0.06532955     , -0.058147624    , -0.01891937     , -0.003678814    , -0.0028658304   ,  0.028936217    , -0.04515798     ,  0.011296767    , -0.074138835    , -0.09603492     , -0.011324963    ,  0.005231271    , -0.048882663    , -0.094228834    ,  0.11896533     ,  0.02178823     , -0.081031315    ,  0.052317593    ,  0.058562428    ,  0.07703719     ,  0.037337165    ,  0.06783141     , -0.013866586    , -0.026286747    , -0.06607889     , -0.05230443     , -0.07020714     ,  0.027165063    , -0.059511445    ,  0.033110093    ,  0.044407975    ,  0.022023208    , -0.0003170427   , -0.050631046    ,  0.114955164    ,  0.108676344    , -0.0699918      ,  0.03601094     ,  0.12261916     , -0.000020769954 ,  0.005404691    ,  0.034174476    ,  0.07378647     ,  0.088068515    ,  0.10680511     , -0.027651204    , -0.01851867     ,  0.112400986    , -0.03033259     ,  0.08216891     , -0.0854625      , -0.038415864    , -0.010562409    , -0.036281392    , -0.055696413    ,  0.12148692     , -0.0051816436   , -0.000014702744 , -0.07415731     , -0.06619906     ,  0.041858982    , -0.053843416    , -0.06466001     ,  0.040867165    , -0.07616756     ,  0.0270808      , -0.08581174     , -0.05731587     , -0.017780349    ,  0.0800214      ,  0.035298277    , -0.0697813      ,  0.053305484    , -0.040921297    ,  0.077214405    ,  0.05371825     ,  0.013519972    , -0.088954315    ,  0.021933649    ,  0.077279344    , -0.059922304    ,  0.09666833     ,  0.10160306     , -0.0008980467   ,  0.11613614     ,  0.09970203     ,  0.07974466     ,  0.04523815     , -0.0005066645   , -0.010261565    , -0.009410404    , -0.020560747    , -0.07389667     , -0.10458718     , -0.046475355    , -0.06292789     , -0.051309727    ,  0.07447749     ,  0.11134623     ,  0.104586       , -0.017969893    ,  0.07474849     ,  0.05835271     , -0.039475285    , -0.04915358     ,  0.08823039     , -0.037598453    , -0.05093659     , -0.039509583    , -0.083454356    ,  0.048648853    , -0.030689774    ,  0.014387837    ,  0.07082719     , -0.09338528     ,  0.0000069115813]