[ 0.01353243   , -0.05144287   , -0.0055410075 , -0.02826497   ,  0.030959535  , -0.054576837  ,  0.0044144727 , -0.03620992   ,  0.029896414  , -0.0075139394 ,  0.024132093  , -0.021539476  , -0.052139137  , -0.051440693  ,  0.005161472  ,  0.027142484  ,  0.039418425  ,  0.008447256  ,  0.02585255   , -0.0020856126 ,  0.037180644  ,  0.110553764  ,  0.04010115   ,  0.015413312  ,  0.04139845   ,  0.0065542464 ,  0.026588788  ,  0.061404992  , -0.042919144  , -0.022860894  ,  0.014288146  , -0.017201353  , -0.018187148  ,  0.066251494  , -0.020771708  ,  0.02691354   , -0.03323603   ,  0.027757592  ,  0.035043865  , -0.0020022704 , -0.026868729  ,  0.046239898  ,  0.035031427  ,  0.048237506  ,  0.022268761  ,  0.0025093053 ,  0.0071097873 ,  0.00018459298, -0.011576978  ,  0.010266452  ,  0.0132871475 ,  0.056360785  ,  0.0294648    ,  0.032648746  ,  0.0074630133 ,  0.051892538  ,  0.04167665   ,  0.039964583  , -0.037400983  ,  0.005727649  ,  0.044192452  ,  0.0064614555 ,  0.0081822425 ,  0.04427266   ,  0.014625549  , -0.010074159  ,  0.018724745  ,  0.042111743  , -0.04270316   ,  0.010696454  ,  0.049526073  , -0.049143612  , -0.0371826    , -0.0040477198 ,  0.031167142  , -0.050992575  , -0.044554405  ,  0.015525983  , -0.0069275917 , -0.0038523083 ,  0.030168641  , -0.00068031385,  0.045728635  ,  0.026543071  , -0.041768048  , -0.036617327  , -0.03238689   , -0.019052073  , -0.028976979  , -0.029162312  ,  0.00008812335, -0.0036875766 ,  0.038803235  , -0.022745993  , -0.045963     ,  0.04209565   ,  0.028026665  , -0.029520947  ,  0.028079791  , -0.024207938  , -0.008778643  ,  0.028456202  , -0.049170453  , -0.016984677  , -0.043711945  , -0.035280015  ,  0.005298528  ,  0.050094638  ,  0.030395716  , -0.035701547  , -0.044890773  ,  0.0047448524 ,  0.003313612  , -0.031886853  , -0.026781892  , -0.041188356  ,  0.0040842453 , -0.005803081  ,  0.05183842   , -0.037311636  ,  0.041176233  , -0.01115826   , -0.0348542    , -0.04988203   , -0.0049442677 , -0.04539049   , -0.030512433  , -0.00091717165]