[-0.036341      ,  0.0015612153  , -0.008798471   ,  0.0013282538  , -0.0306462     , -0.0031615545  , -0.010668291   ,  0.0709572     ,  0.01859909    , -0.017993055   , -0.002759349   ,  0.047494482   , -0.020597054   ,  0.005391283   ,  0.025548974   ,  0.007622193   ,  0.0031401177  ,  0.023459405   ,  0.011493858   ,  0.008232754   ,  0.009388671   ,  0.01060236    , -0.016546143   , -0.0150199095  ,  0.038601384   ,  0.008527816   , -0.0020300795  , -0.014869186   , -0.020571679   ,  0.018840838   ,  0.021746313   , -0.025050052   , -0.008945488   ,  0.00085652317 ,  0.026199814   , -0.016675396   ,  0.022284592   , -0.0173456     , -0.00041684025 ,  0.0016762768  , -0.031995878   , -0.02378056    , -0.02084756    ,  0.012528897   ,  0.005370647   , -0.004729654   , -0.018925129   , -0.0045331656  , -0.017538711   ,  0.016451051   ,  0.011269894   ,  0.000013506134,  0.0027039817  ,  0.007860876   ,  0.004355444   ,  0.053297184   ,  0.009173908   ,  0.00024072462 ,  0.027384257   , -0.0015331629  ,  0.0009167501  ,  0.016658815   ,  0.061409507   ,  0.01016885    ,  0.03511437    , -0.008491335   , -0.049137503   ,  0.0037197692  , -0.030732417   ,  0.05721366    , -0.010593308   ,  0.014829064   ,  0.010233069   ,  0.033944316   ,  0.008770411   , -0.013996612   , -0.019215263   ,  0.016259274   , -0.0320823     , -0.00890402    ,  0.008336271   ,  0.007962529   ,  0.0061994037  , -0.004753653   ,  0.011707078   , -0.013311442   ,  0.02511913    ,  0.0046339114  ,  0.01798777    ,  0.010695241   , -0.017999435   , -0.009690374   , -0.014202953   ,  0.014714941   ,  0.018239425   ,  0.0065635606  ,  0.03093357    , -0.018477684   ,  0.002651297   ,  0.04643807    , -0.020314652   , -0.007818572   , -0.037575006   , -0.01228152    ,  0.046158534   ,  0.001243952   ,  0.049776126   , -0.008718676   , -0.04706635    , -0.014260084   ,  0.010037553   , -0.008994389   , -0.007380585   , -0.022269147   ,  0.03290339    , -0.013650344   , -0.018766738   , -0.009593056   , -0.0021675779  ,  0.0050906935  ,  0.0066192127  ,  0.025921138   ,  0.026071412   , -0.014724978   ,  0.00942775    ,  0.02655251    , -0.027317883   ,  0.028540157   , -0.001289096   ,  0.015439874   , -0.013390791   , -0.022192247   , -0.020164132   , -0.0053587426  ,  0.018576782   ,  0.040971566   ,  0.011954883   ,  0.0056925165  , -0.020270493   , -0.017599633   , -0.027882216   ,  0.050481      ,  0.0045092916  ,  0.038446203   , -0.03749355    , -0.044886563   ,  0.057503995   ,  0.0108435545  , -0.0071697994  ,  0.044233877   , -0.056416243   ,  0.007009905   , -0.0009759215  ,  0.0010082519  ,  0.020822624   ,  0.05148124    ,  0.033607308   , -0.0042087976  , -0.0016678597  , -0.01120661    , -0.015884744   ,  0.024261747   ,  0.025369685   ,  0.0149975885  , -0.020711614   , -0.019625448   , -0.007082435   , -0.002277154   ,  0.015568432   , -0.005423151   ,  0.003471382   , -0.016139727   , -0.005676349   , -0.027965745   , -0.009753272   ,  0.07919938    ,  0.013670807   , -0.015347898   ,  0.009823897   , -0.013375314   , -0.001813622   ,  0.07832124    , -0.015401184   ,  0.0049852254  , -0.018561652   , -0.027045736   ,  0.009777761   ,  0.05260578    , -0.029603902   ,  0.021451944   , -0.021009812   , -0.011135243   , -0.018734582   ,  0.008640548   ,  0.04523813    , -0.018539974   ,  0.029735893   ,  0.0010147884  ,  0.016813865   ,  0.00239825    ,  0.0083313435  , -0.002976339   ,  0.066111416   , -0.018297188   , -0.0025588302  , -0.009579256   ,  0.030268759   ,  0.008377278   ,  0.0071136095  , -0.013064427   ,  0.01740071    ,  0.012703594   , -0.002461914   , -0.019830147   , -0.02492443    ,  0.0071094437  , -0.007864149   , -0.058299735   ,  0.0047331606  , -0.018842442   , -0.0014999368  ,  0.006160276   ,  0.0049757618  ,  0.01257158    , -0.005276446   , -0.018961085   ,  0.005240681   ,  0.016223345   ,  0.010996623   ,  0.03245524    ,  0.005472005   ,  0.003901757   ,  0.027326144   ,  0.011989161   , -0.02763973    ,  0.010229025   ,  0.056422178   , -0.0039414694  ,  0.028396977   ,  0.008686357   , -0.007217631   ,  0.023988014   ,  0.037201125   ,  0.00006453305 ,  0.06143947    , -0.041642018   ,  0.022422839   ,  0.01601717    ,  0.028956598   ,  0.0709896     ,  0.021186696   ,  0.0073809484  , -0.0179355     ,  0.0054351417  , -0.006133403   , -0.02389895    ,  0.010240096   , -0.014257661   , -0.018766727   , -0.005302076   , -0.017585203   ,  0.06309211    ,  0.00069347606 ,  0.02644346    ,  0.05160824    , -0.011747964   ,  0.02849335    , -0.0076059178  ,  0.04588334    , -0.017512625   ,  0.013412997   ,  0.0061204666  , -0.0026408779  , -0.021925038   ,  0.016334653   , -0.021740975   , -0.028182538   ,  0.024586678   , -0.0017679847  , -0.01665076    ,  0.0061857225  , -0.000763031   , -0.0045493287  , -0.002516167   ,  0.005081308   ,  0.0060784756  ,  0.0011062678  ,  0.0032535312  , -0.012292243   , -0.0039480706  ,  0.0032939895  , -0.012951277   , -0.01370155    , -0.0089236405  ,  0.03669172    ,  0.00009348243 ,  0.007230114   ,  0.010761099   , -0.031132285   , -0.015697105   , -0.00023310144 ,  0.028039753   ,  0.019983923   , -0.0044962624  , -0.0013221143  ,  0.0018951811  ,  0.013722031   ,  0.0047813104  ,  0.012087186   ,  0.0042883204  , -0.0021922605  ,  0.0063119796  , -0.044413902   ,  0.012124063   ,  0.029694084   ,  0.027261162   ,  0.021624403   ,  0.016842524   ,  0.019053675   , -0.007147589   ,  0.019593358   , -0.002042009   ,  0.0042174864  ,  0.016409384   ,  0.020955127   , -0.008828189   , -0.017889641   , -0.03831351    , -0.029769242   , -0.032162283   ,  0.04115764    , -0.00030837505 , -0.01808704    , -0.017558383   , -0.025762929   , -0.00021220889 ,  0.0011079604  , -0.0017666725  ,  0.032725804   ,  0.092748396   , -0.023674395   , -0.01852999    ,  0.017106988   ,  0.0063150283  , -0.007597015   , -0.041184187   ,  0.021111509   ,  0.016081108   ,  0.0016852905  ,  0.0038997538  ,  0.016278561   ,  0.009488303   , -0.02672469    , -0.009778527   ,  0.015644776   , -0.020376746   , -0.005414663   ,  0.015460102   ,  0.0070347968  ,  0.06150127    ,  0.00448048    ,  0.037211966   ,  0.01708612    ,  0.0048224423  , -0.00052476674 ,  0.022930032   ,  0.029581277   ,  0.0072010965  , -0.0045861444  ,  0.0068169907  ,  0.012721831   , -0.014588671   , -0.0033804097  , -0.0068320585  ,  0.019118756   ,  0.014013036   ,  0.0057975836  , -0.009834775   ,  0.036025792   ,  0.003867097   ,  0.0010415182  , -0.018267034   , -0.017819123   , -0.017504888   ,  0.01604249    , -0.030179203   ,  0.0040179724  , -0.028301708   , -0.04291845    ,  0.02466514    ,  0.03483754    , -0.019339504   , -0.0059523424  ,  0.067248896   ,  0.0029976645  , -0.0179452     , -0.0294435     ,  0.030425234   ,  0.028060598   ,  0.007882446   , -0.0077619646  ,  0.008108026   ,  0.028256869   ,  0.0017315523  ,  0.04922503    , -0.013053867   ,  0.010757817   , -0.013110373   ,  0.018938612   ,  0.026906654   , -0.020446852   ,  0.0461735     , -0.0058760513  ,  0.083699994   , -0.008106059   , -0.0032015168  , -0.033207126   ,  0.025659747   , -0.021927344   ,  0.013005946   ,  0.0015506161  , -0.024165198   ,  0.07379162    , -0.0037092275  ,  0.004035564   , -0.012448292   , -0.017467512   ,  0.055966914   , -0.0010777848  ,  0.0037038592  ,  0.014307515   ,  0.00774493    , -0.021140534   ,  0.035323467   ,  0.031626105   , -0.014620248   , -0.034643114   , -0.0017987399  ,  0.025081782   , -0.012318489   , -0.008008452   ,  0.009280633   ,  0.0114860805  ,  0.021541754   , -0.011365241   , -0.004958687   , -0.013869637   , -0.024049576   ,  0.0006010884  , -0.014649367   , -0.019217884   , -0.033570055   , -0.011090035   ,  0.01385085    ,  0.03404936    ,  0.05369806    ,  0.002518149   , -0.017857496   ,  0.01213952    ,  0.023011642   ,  0.00521697    ,  0.013267447   ,  0.018568836   , -0.009890695   , -0.0050145867  , -0.0469271     ,  0.003977526   , -0.002635686   , -0.06254749    , -0.010088983   ,  0.014952809   ,  0.011495196   , -0.008995701   , -0.00717934    ,  0.026920224   ,  0.08688194    , -0.02119528    ,  0.032148816   ,  0.005390443   , -0.009043035   ,  0.009158336   ,  0.013292244   ,  0.03344386    ,  0.015121961   , -0.01362258    ,  0.004759586   , -0.017283276   ,  0.037511814   , -0.006371406   ,  0.0010890813  , -0.0066617127  , -0.015375199   , -0.0007426753  ,  0.045457426   ,  0.009578639   , -0.005834791   ,  0.030499518   , -0.010579357   , -0.049293935   , -0.021430561   , -0.013276512   , -0.009865959   , -0.022268033   ,  0.034254782   , -0.001405981   ,  0.015388982   ,  0.013815621   ,  0.00083982263 ,  0.0098159565  , -0.0018749925  , -0.028849559   , -0.017669786   ]