[-0.02154963     ,  0.028396852    , -0.00021264586  ,  0.038203828    ,  0.055750743    , -0.028377017    , -0.041746486    ,  0.093139865    ,  0.07398217     ,  0.02601095     ,  0.063321404    , -0.014027218    , -0.043401226    ,  0.043819495    ,  0.009671367    , -0.06183537     , -0.08483915     , -0.018010506    ,  0.033856884    , -0.08084834     ,  0.06682321     ,  0.023911055    , -0.06951434     ,  0.0593782      , -0.011319763    , -0.016220879    ,  0.028967509    , -0.0067840572   ,  0.08939741     ,  0.004147817    ,  0.040532228    , -0.042442914    , -0.010021857    , -0.004209303    ,  0.02794055     ,  0.02223079     , -0.061215345    ,  0.07575155     ,  0.058804516    , -0.03960799     , -0.02914777     ,  0.039920676    , -0.037851185    , -0.046337374    ,  0.07287976     , -0.055309325    ,  0.00088592747  , -0.027263338    , -0.05251558     ,  0.015448496    ,  0.039768334    , -0.04995306     , -0.054345936    ,  0.08394468     ,  0.072359785    ,  0.035234533    ,  0.048745487    ,  0.039727196    ,  0.048246246    ,  0.0000024871918,  0.032680623    ,  0.05466126     , -0.07798847     , -0.04340968     ]