[-0.0004884606  ,  0.003089255   ,  0.006875426   , -0.007739107   ,  0.007291083   , -0.0028956095  ,  0.033632047   , -0.013144416   ,  0.003434461   , -0.003015181   , -0.0017900668  ,  0.0103834625  , -0.007848331   ,  0.0145995775  , -0.0059110112  ,  0.013112908   ,  0.005433771   , -0.0034903297  , -0.0041064853  ,  0.0069447965  ,  0.010935581   , -0.006237728   ,  0.013319446   ,  0.0049483087  , -0.017486475   ,  0.0009240597  , -0.0009985329  ,  0.019628718   , -0.0022466495  , -0.0062078335  , -0.00616267    , -0.010684034   ,  0.020466482   ,  0.000048242506, -0.00982017    , -0.012424997   , -0.010048253   , -0.0007297044  , -0.0027910215  ,  0.011540882   , -0.011949453   , -0.010110028   ,  0.0144805135  ,  0.0072186235  , -0.0021655231  , -0.006135902   ,  0.0014629947  , -0.0044759     ,  0.021392806   ,  0.022329416   ,  0.013226613   , -0.009838349   ,  0.0040318253  ,  0.0018105658  , -0.009505597   ,  0.017362747   ,  0.0010567781  , -0.0055630677  , -0.005062062   ,  0.0047849417  ,  0.0032267047  ,  0.011929131   , -0.008696592   , -0.010577627   , -0.0062137116  , -0.007966866   , -0.009268817   , -0.010620698   , -0.010187624   ,  0.0017613088  , -0.0010066553  , -0.013653766   ,  0.0009905252  ,  0.027860217   , -0.0040726135  ,  0.009011834   ,  0.009811897   ,  0.01754567    , -0.0048954044  ,  0.006272906   ,  0.0030517878  ,  0.0117986845  , -0.01533625    ,  0.01024672    ,  0.014144191   ,  0.0135731455  ,  0.002847319   , -0.0031528121  ,  0.017055102   ,  0.0029973418  , -0.010060234   ,  0.0128297     , -0.004563069   ,  0.0038640804  ,  0.012664627   , -0.004356166   , -0.007958264   ,  0.008591925   , -0.016906109   , -0.0043078144  ,  0.0013549997  ,  0.0016931572  , -0.00313341    ,  0.028143164   , -0.00812772    , -0.0077953734  ,  0.0048659905  , -0.0046437387  , -0.007258376   , -0.007181425   ,  0.0042863246  ,  0.002592898   , -0.019763887   ,  0.00024426202 ,  0.0004829534  , -0.00043702702 , -0.007691393   , -0.0034934657  ,  0.0014168181  , -0.0013129968  ,  0.015117563   , -0.019910516   ,  0.011125862   ,  0.00059029466 , -0.00056511    , -0.0091539025  ,  0.0018921103  ,  0.008273092   ,  0.011261466   , -0.0043617487  , -0.004398669   ,  0.008937239   ,  0.0072945384  , -0.005853987   ,  0.00042294408 , -0.002263166   , -0.0073639117  , -0.006089688   , -0.009518174   , -0.0067270147  , -0.0050994605  ,  0.015749471   , -0.00474981    , -0.01467984    ,  0.008105362   ,  0.031002974   ,  0.012937514   , -0.015393909   , -0.00010212806 ,  0.004499857   ,  0.016220707   , -0.013131194   , -0.00798346    ,  0.004400345   ,  0.01574306    ,  0.006047961   , -0.0049227895  , -0.009372827   ,  0.0062367693  ,  0.0012845382  , -0.018907128   , -0.013152965   , -0.0058944956  ,  0.010057473   ,  0.0020239702  ,  0.002980763   ,  0.0051614544  , -0.0021291603  ,  0.0008441948  , -0.004099326   ,  0.0004888736  ,  0.02145733    ,  0.00772157    , -0.00021051322 ,  0.010260784   ,  0.012690322   , -0.0028056263  , -0.010993846   ,  0.005078401   ,  0.018924164   , -0.0022201631  , -0.004794255   ,  0.013081617   ,  0.00081977545 ,  0.003940569   , -0.000165364   , -0.006556848   ,  0.009283757   ,  0.010166341   , -0.0012690031  ,  0.00470546    ,  0.004174045   ,  0.015038716   ,  0.0073135695  ,  0.006260053   , -0.003628141   ,  0.004785749   , -0.0024125879  ,  0.008632431   ,  0.0034271292  ,  0.0100174155  ,  0.0018977742  , -0.0011148927  , -0.005223496   ,  0.01444946    ,  0.009315491   ,  0.007037825   ,  0.020987818   ,  0.028750082   ,  0.0011252755  , -0.0043727728  ,  0.0019470504  ,  0.0077575888  , -0.012529143   , -0.0048734066  ,  0.0024198568  , -0.0089339055  , -0.0034853073  ,  0.0050695213  ,  0.0052611213  ,  0.007514149   , -0.004626658   ,  0.0064227916  , -0.0055804015  , -0.016268034   , -0.0016819058  , -0.004887464   ,  0.002829879   , -0.00019146506 ,  0.0053723976  ,  0.0120236715  ,  0.0030078324  , -0.007800108   , -0.0026625309  ,  0.0017640821  , -0.025032517   ,  0.0036315962  , -0.008289207   , -0.0083622765  ,  0.017340703   ,  0.0038118064  , -0.0014928104  , -0.0057848655  , -0.011088322   , -0.010503133   , -0.012747019   , -0.0016096997  ,  0.009418779   ,  0.0068435585  ,  0.0058229137  , -0.008033064   , -0.01102055    ,  0.004213125   ,  0.014194071   ,  0.010337398   ,  0.00780607    ,  0.02111132    ,  0.0043619876  , -0.0066914503  ,  0.007665369   , -0.013940108   ,  0.0046694     ,  0.016586876   ,  0.0023312382  , -0.0005993664  , -0.000072049465, -0.004407079   , -0.009599515   ,  0.014035108   , -0.014697265   ,  0.02101071    , -0.0028423755  ,  0.0016443307  ,  0.007837252   ,  0.0024692628  , -0.0061639124  , -0.00080918235 , -0.00093219365 ,  0.0053687342  , -0.0016522943  ,  0.0019756535  ,  0.0007522015  ,  0.011075494   , -0.0039562616  , -0.013653821   , -0.0037426632  ,  0.002988987   ,  0.0008476639  ,  0.003288924   ,  0.012118291   ,  0.008300305   ,  0.0017859912  ,  0.009772469   , -0.012635341   ,  0.0013377054  ,  0.01013734    ,  0.00312257    ,  0.008871145   ,  0.0033528022  , -0.016593207   ,  0.01838385    , -0.005525552   , -0.00020214434 ,  0.011161976   ,  0.010808345   ,  0.011263521   , -0.0077966475  ,  0.0018510694  ,  0.0005199186  , -0.0071021975  ,  0.00073308765 ,  0.017403038   ,  0.0002732624  ,  0.014679097   ,  0.017273014   ,  0.006671923   , -0.009940158   , -0.013910523   ,  0.009927517   ,  0.0011292427  , -0.010480439   ,  0.0031901363  ,  0.015205936   ,  0.005749319   , -0.012152222   ,  0.025158487   , -0.00830326    ,  0.0018447877  ,  0.03077384    , -0.009265643   ,  0.022677746   ,  0.009222669   , -0.0077537624  ,  0.022874868   ,  0.01951072    , -0.0060133687  , -0.006640878   ,  0.0030825324  , -0.008415315   , -0.0086235935  ,  0.0012851276  ,  0.0024470012  ,  0.00082995975 ,  0.0054647243  , -0.015423013   , -0.009296104   ,  0.013336724   , -0.0028415574  ,  0.0046067243  , -0.00067576946 ,  0.0028790256  ,  0.007302828   ,  0.013287635   ,  0.00952788    , -0.0034887202  , -0.01054951    ,  0.010016182   ,  0.0009988418  ,  0.019595936   ,  0.002329442   , -0.012964039   , -0.0033488835  , -0.009611722   , -0.0026729363  ,  0.00016200083 ,  0.019792374   ,  0.006761686   ,  0.010683614   , -0.012602604   ,  0.0007029358  ,  0.0043708715  ,  0.010065438   ,  0.0015288761  ,  0.009475779   ,  0.008620016   ,  0.020734299   ,  0.007646714   ,  0.006293559   , -0.012980705   , -0.010031347   , -0.0053552655  ,  0.013807437   , -0.009581404   ,  0.00632949    , -0.007152099   , -0.004943302   ,  0.0022020133  , -0.0070397193  , -0.0144547885  ,  0.0013767647  ,  0.0052765077  ,  0.009520797   ,  0.01694799    ,  0.0017477302  ,  0.00081726    ,  0.018305134   ,  0.018528584   ,  0.010714672   ,  0.006202188   , -0.009862194   , -0.012506629   , -0.0011186192  ,  0.018140044   ,  0.0025186436  , -0.010234291   , -0.0057004676  ,  0.0022934393  ,  0.024816401   ,  0.0015291194  ,  0.010731748   ,  0.004697302   , -0.0042735194  , -0.00014220821 ,  0.006731955   ,  0.011998735   ,  0.008287967   ,  0.010910051   ,  0.013880394   , -0.009664187   , -0.013223376   , -0.004483078   , -0.00854791    , -0.0116566885  ,  0.007930594   , -0.005655441   ,  0.031519637   , -0.0036899126  ,  0.011702157   , -0.009583625   , -0.006616527   , -0.011573081   ,  0.0023132698  ,  0.0045795734  , -0.0024997115  ,  0.007086388   , -0.0089817485  , -0.0030149543  ,  0.006791577   ,  0.00397939    ,  0.0055463845  ,  0.0068421434  ,  0.011377776   , -0.0008595818  ,  0.0074317185  ,  0.0012880707  ,  0.020863466   , -0.0012107227  , -0.0026629176  , -0.008527304   ,  0.0066755153  , -0.00648263    ,  0.024258977   ,  0.009853876   ,  0.018672945   , -0.0046606683  ,  0.0012355071  , -0.001566198   , -0.010208399   , -0.0072900723  , -0.0053791236  , -0.009550391   , -0.012134368   ,  0.00027725723 , -0.003962239   , -0.0019353727  , -0.0037027488  , -0.022231353   , -0.0051624877  ,  0.005157967   ,  0.00002173876 ,  0.0036261596  ,  0.030259388   ,  0.0062192497  ,  0.0267306     ,  0.0075640986  , -0.014640404   , -0.0013352511  ,  0.0075447164  , -0.0042574625  , -0.01926511    , -0.0011197798  ,  0.00896328    ,  0.0011076361  , -0.0010386142  ,  0.0019928003  ,  0.0013264947  , -0.0099170925  , -0.006741319   ,  0.005872151   ,  0.0013180481  ,  0.005580923   ,  0.0063027395  ,  0.009018984   , -0.005899898   ,  0.0011526291  ,  0.000093368224,  0.005350902   , -0.00997537    , -0.014911896   ,  0.012895486   ,  0.016359797   ,  0.013705198   , -0.011662605   ,  0.0056713703  ,  0.0004875619  ,  0.010187441   , -0.0022651006  , -0.008551028   , -0.0071111256  ,  0.010992938   ,  0.0040792315  , -0.007018673   ,  0.0035593032  , -0.007047695   , -0.0076302583  ,  0.023933837   ,  0.015425466   ,  0.0048826425  ,  0.0021271694  , -0.022549752   , -0.013821561   , -0.011293082   ,  0.0031090751  , -0.0052083815  ,  0.022405412   , -0.0051100194  ,  0.027085928   ,  0.014032077   ,  0.0038460935  , -0.015971353   ,  0.016893161   ,  0.009827566   , -0.0068467367  ,  0.0039299317  , -0.005062447   ,  0.0055741565  ,  0.007852146   ,  0.035521634   , -0.017616082   , -0.003167218   ,  0.002237332   ,  0.009260254   ,  0.006038638   ,  0.00024318122 ,  0.00059351156 , -0.008095788   ,  0.021476112   ,  0.006037368   ,  0.0018060715  ,  0.005832847   ,  0.0076113474  , -0.011928698   , -0.006065829   ,  0.002452087   , -0.006085816   ,  0.011505878   , -0.0022461072  , -0.009957841   ,  0.0014482235  ,  0.011014057   , -0.002921117   ,  0.0022445763  , -0.0039223977  ,  0.0030390406  ,  0.0055720764  , -0.012701824   , -0.004230938   , -0.0038027738  ,  0.006798745   ,  0.0031488077  , -0.0012082503  ,  0.03836391    ,  0.0037864095  ,  0.012513922   ,  0.00210806    , -0.0029740985  , -0.0120912595  , -0.001024611   , -0.015438969   , -0.0067413505  ,  0.0034423254  , -0.010115738   ,  0.00575438    ,  0.0012250242  , -0.009619131   , -0.028872047   ,  0.0024317522  , -0.006958017   , -0.0030693002  , -0.006093491   ,  0.008127806   ,  0.013006862   ,  0.007900376   , -0.005936121   ,  0.00811349    , -0.008024774   , -0.008661017   , -0.014634521   , -0.014682332   ,  0.0070877587  ,  0.001176104   , -0.0042251726  ,  0.003682525   ,  0.0034861492  , -0.00696108    ,  0.016285602   ,  0.0073650214  ,  0.0032720147  ,  0.017034845   , -0.0026042247  , -0.0070553212  , -0.003197317   ,  0.009175957   ,  0.017623976   , -0.0035215563  , -0.0014115267  , -0.014130951   , -0.00287381    ,  0.012667934   , -0.0077789095  , -0.009987807   , -0.011263269   , -0.017995305   ,  0.0009338506  ,  0.00033800871 , -0.010036403   ,  0.0032963946  ,  0.008902154   , -0.0101156775  , -0.0057637203  , -0.002468487   , -0.009434118   ,  0.0051155933  , -0.011073826   ,  0.014890388   ,  0.00056602556 ,  0.0043260125  , -0.003922202   , -0.008501628   ,  0.006673038   , -0.0048388815  , -0.0043517905  , -0.0072637205  , -0.0002220143  , -0.000025467247, -0.020046053   , -0.018291526   ,  0.00562374    , -0.0011650603  , -0.0024256064  , -0.002345913   , -0.000010208103, -0.014674821   ,  0.014140972   , -0.009441937   ,  0.0039084493  , -0.0054198005  , -0.01317884    ,  0.006627844   , -0.0015691422  , -0.0034361202  ,  0.01064904    , -0.019096099   , -0.0039971108  ,  0.00354184    ,  0.0014654717  , -0.024156963   , -0.00031353807 ,  0.0056506456  ,  0.0038864433  , -0.011575154   , -0.006161206   ,  0.0077355327  , -0.0013457822  ,  0.025985787   ,  0.00088398816 ,  0.00937561    ,  0.009072744   ,  0.007402007   , -0.0071263066  ,  0.0043201465  ,  0.0007936648  ,  0.005650786   ,  0.009954651   ,  0.013343153   , -0.0041839643  , -0.004037856   , -0.0073175346  ,  0.0012353609  ,  0.0013344355  ,  0.028578656   , -0.0040768334  ,  0.0034073354  ,  0.0049437294  ,  0.00037162067 ,  0.0107342275  ,  0.009071137   ,  0.009890838   ,  0.0193767     ,  0.013639      , -0.009447108   , -0.00390112    , -0.0015188655  ,  0.007837074   , -0.017591069   ,  0.013506538   ,  0.00014494176 , -0.0112651475  , -0.009915496   , -0.0035993285  ,  0.012918335   ,  0.004001335   , -0.0019144742  , -0.0053054905  ,  0.004363324   , -0.019577516   ,  0.029836547   ,  0.002972965   ,  0.0022001842  ,  0.0060181445  ,  0.0016520881  ,  0.010247201   , -0.005930512   ,  0.0028152687  ,  0.020346414   ,  0.011847808   ,  0.02498174    ,  0.028495973   , -0.007296608   ,  0.0010630265  ,  0.032415286   ,  0.0018560356  ,  0.011643172   ,  0.006327508   ,  0.017670136   ,  0.009357016   , -0.0014620881  , -0.00550227    ,  0.03236981    ,  0.004903144   ,  0.0023957745  , -0.009447704   , -0.014381148   ,  0.0077410745  , -0.007993854   ,  0.009990976   ,  0.007476911   ,  0.022479689   , -0.016559793   , -0.0028405476  ,  0.0019495853  , -0.008033818   ,  0.008217939   ,  0.007464006   , -0.00047024517 ,  0.0017080185  ,  0.006012209   ,  0.025034618   ,  0.0076188585  ,  0.013743881   , -0.018029593   , -0.007420958   , -0.0069543896  ,  0.012219391   ,  0.0010795245  ,  0.006101509   , -0.0009650268  , -0.0037980748  ,  0.004687605   , -0.0001072609  ,  0.028522907   , -0.011235733   , -0.00568273    , -0.01425016    ,  0.0037502798  ,  0.0070013353  ,  0.006830899   , -0.0028151998  ,  0.012261916   , -0.009600587   ,  0.013357312   , -0.009456924   , -0.0031529658  , -0.011019312   ,  0.0009327789  ,  0.004434314   , -0.006717056   , -0.0018285529  ,  0.0074021406  , -0.0006408171  , -0.0056672236  ,  0.012590952   , -0.004092262   , -0.008681368   ,  0.003911454   , -0.0133462185  , -0.00040263182 , -0.0019346703  , -0.008974106   , -0.010326748   ,  0.00435089    , -0.010346099   ,  0.0037780341  , -0.0038963603  , -0.004144147   ,  0.013927797   ,  0.0047288784  , -0.001544121   ,  0.003887885   , -0.008152346   ,  0.016640734   , -0.017440427   , -0.018831942   , -0.0071516256  , -0.006075542   , -0.015977727   ,  0.011991064   ,  0.0031493155  , -0.016182832   , -0.02095621    , -0.0005902524  , -0.016635349   ,  0.010455648   , -0.0082870275  , -0.016366173   ,  0.003414754   ,  0.0045948518  , -0.0076720505  , -0.009406012   ,  0.007382077   , -0.0070274165  ,  0.002057015   ,  0.013847341   , -0.009067423   , -0.010123      ,  0.0026075281  , -0.004695779   ,  0.011731688   ,  0.002204764   ,  0.0053051757  , -0.0036541678  , -0.002923717   , -0.0005329226  ,  0.021083664   , -0.013432414   ,  0.020209784   , -0.0008016404  ,  0.0029466795  ,  0.0048331884  ,  0.014192365   ,  0.002331293   ,  0.022157807   , -0.005754217   ,  0.00096639735 , -0.00207762    ,  0.014362754   , -0.0037026703  ,  0.008738438   ,  0.017904826   , -0.011555693   , -0.01074601    , -0.0027336753  , -0.0041474425  ,  0.024310194   ,  0.0022435456  ,  0.000022743905, -0.01816014    ,  0.03212586    ,  0.024873072   , -0.0067437286  , -0.00032738654 , -0.009287721   , -0.0020178324  , -0.015850553   ,  0.006300226   ,  0.019388586   , -0.0003343354  , -0.0053929654  ,  0.012796276   ,  0.013307944   , -0.012441344   , -0.008048459   , -0.0049134376  ,  0.014690385   ,  0.0006667419  , -0.010471416   ,  0.026657054   ,  0.018002829   ,  0.019544555   , -0.00015594094 , -0.011893769   , -0.014584952   , -0.0056629344  ,  0.014799605   ,  0.015306383   , -0.0022502835  ,  0.0033608794  , -0.013182195   , -0.025492981   ,  0.011967705   ,  0.005701442   , -0.017333934   ,  0.00035483192 , -0.009526845   ,  0.017118601   ,  0.0011062226  ,  0.0018116132  ,  0.0070534083  ,  0.01295882    , -0.006439216   , -0.010568989   ,  0.014456948   ,  0.005258332   , -0.0017919814  , -0.009651934   ,  0.003909715   , -0.010691881   , -0.0032071695  , -0.0014749514  , -0.00795048    , -0.0032202916  , -0.015070946   ,  0.0061367396  ,  0.020074097   , -0.005299442   ,  0.003509692   ,  0.01851067    ,  0.0032707357  ,  0.004971595   , -0.012431561   , -0.0045105997  ,  0.0069317617  , -0.014880968   ,  0.0072840564  , -0.0017140894  , -0.0049190605  ,  0.0014308627  , -0.018548343   , -0.0031093366  , -0.00961111    , -0.005388346   ,  0.01283094    ,  0.0075962553  , -0.009684513   ,  0.009232133   ,  0.012785919   ,  0.00046896984 , -0.012517878   , -0.003935586   ,  0.009553742   ,  0.0042709545  , -0.009012948   , -0.0073041185  , -0.00474906    , -0.013661199   ,  0.006069201   ,  0.009086024   , -0.0020903405  , -0.006904808   ,  0.0019448331  ,  0.01594438    ,  0.004075885   , -0.013655635   , -0.004584962   , -0.00006656876 ,  0.010871764   ,  0.006289207   , -0.0074804267  ,  0.00860397    , -0.008142892   , -0.010273458   ,  0.007910954   , -0.002927523   , -0.003395639   , -0.0013261546  , -0.0069773174  ,  0.0051658656  , -0.0023870848  ,  0.0013773324  ,  0.004256655   , -0.018641463   , -0.012082348   ,  0.019468846   ,  0.016100453   ,  0.0016961175  ,  0.003306947   ,  0.0053227386  , -0.007370027   , -0.00028057836 , -0.000054040735,  0.015438122   ,  0.0028414165  , -0.014472572   , -0.005248766   ,  0.0063331644  ,  0.004722325   , -0.005966303   , -0.010491868   , -0.0010125351  ,  0.011195164   , -0.008799213   ,  0.007774066   , -0.0054163677  ,  0.003642443   ,  0.009079325   ,  0.01283695    , -0.009224075   ,  0.010604981   , -0.024054864   , -0.006403488   ,  0.00854532    ,  0.014777195   ,  0.0057974174  ,  0.012800975   ,  0.015402304   ,  0.000331528   ,  0.0008851758  , -0.0037632312  ,  0.014717338   , -0.0046026693  , -0.0001329621  ,  0.012442482   ,  0.0045452793  , -0.011649301   ,  0.012457658   , -0.007915747   , -0.007753116   ,  0.031950124   , -0.010683953   ,  0.008602852   , -0.01097327    ,  0.02395396    ,  0.00045415878 , -0.0014401891  , -0.0013697812  ,  0.011929013   ,  0.03047982    ,  0.0062437593  , -0.010813607   ,  0.006070915   , -0.0001831281  ,  0.0019154359  ,  0.013216525   ,  0.020687247   , -0.009215556   , -0.011214434   , -0.0037472595  , -0.0066109095  , -0.013928999   , -0.0054697334  ,  0.009304127   , -0.008584641   ,  0.00082836684 ,  0.008714199   ,  0.021797128   ,  0.009808896   , -0.0050021447  ,  0.008983989   , -0.0055401004  ,  0.00017821479 ,  0.017899843   , -0.010154282   , -0.010283426   ,  0.008119684   , -0.007628112   ,  0.0017114007  ,  0.012196647   ,  0.01009245    , -0.0031044455  , -0.0008870258  , -0.008247193   ,  0.0017888073  , -0.009146677   ,  0.006429054   , -0.001824644   ,  0.00809329    ,  0.0026856058  ,  0.00012746867 , -0.01137076    , -0.011189176   , -0.011144305   , -0.00039449317 ,  0.013546823   , -0.008019483   ,  0.010578019   ,  0.013098716   ,  0.017632445   , -0.009577211   ,  0.012309041   ,  0.015755167   ,  0.0015517194  , -0.0018263246  , -0.009907672   , -0.013551878   , -0.012468423   , -0.017785084   ,  0.011148848   , -0.010761693   , -0.001966023   ,  0.021409119   , -0.0044643413  ,  0.0040024687  , -0.011410694   , -0.0061745886  ,  0.012266107   , -0.014543554   ,  0.019701501   , -0.00959097    , -0.0013714521  , -0.0053822063  ,  0.008772967   , -0.011002771   ,  0.020529116   , -0.0064806985  ,  0.0075633484  , -0.00033732603 ,  0.003492437   ,  0.023759186   , -0.008376109   ,  0.0021220485  ,  0.008070653   , -0.0035677722  , -0.0060792128  , -0.00041571216 ,  0.009264124   ,  0.004015791   , -0.002862169   ,  0.011167537   ,  0.004956944   ,  0.008430195   ,  0.006528156   , -0.012268124   ,  0.008888285   ,  0.005183371   ,  0.017079111   , -0.0029306118  , -0.0020999545  , -0.014200509   ,  0.004557729   ,  0.0030827154  ,  0.012457289   ,  0.015504012   ,  0.0181378     , -0.0095738685  ,  0.0030947824  , -0.007132316   ,  0.0057510445  , -0.007902934   ,  0.0006060295  ,  0.011869637   ,  0.009020557   , -0.0076879896  ,  0.002247373   , -0.000104683764, -0.0051013487  , -0.003178932   ,  0.0031887384  ,  0.0047030123  ,  0.008142387   , -0.0047322526  , -0.012453587   ,  0.0038484517  , -0.007859853   ,  0.001147941   , -0.0036229938  ,  0.006148351   ,  0.0054816236  , -0.014441086   ,  0.002183576   , -0.0036982268  , -0.00140439    , -0.0021897622  ,  0.0003299175  , -0.0018015435  , -0.006670051   , -0.0029075737  ,  0.002364144   , -0.0075974595  ,  0.010811395   ,  0.0048625115  , -0.0029557394  , -0.007180937   , -0.0046766354  , -0.0048842784  ,  0.0095149595  ,  0.007592176   ,  0.023317058   , -0.004066495   , -0.0082075335  ,  0.012970016   , -0.0072450596  , -0.013306255   , -0.0017654026  ,  0.027976371   ,  0.0059304936  ,  0.019095436   , -0.0064416844  ,  0.018250683   ,  0.006974714   , -0.001048066   , -0.010302971   ,  0.002634638   ,  0.0085146185  ,  0.010933671   , -0.0011501167  ,  0.0064478456  , -0.0004381888  ,  0.00035423928 ,  0.00782661    ,  0.016522607   ,  0.008581213   ,  0.019225871   ,  0.0070551625  , -0.004364323   , -0.010050469   , -0.009113866   ,  0.013938719   , -0.009994144   ,  0.0024137779  ,  0.010867449   , -0.014032657   ,  0.0027109496  , -0.0019250469  ,  0.0049057445  ,  0.0042189467  , -0.01676532    ,  0.0050098635  , -0.0019689656  , -0.0022804432  , -0.002670243   , -0.0011763396  ,  0.0073217857  , -0.00260801    , -0.013835369   ,  0.031242127   ,  0.009421687   , -0.00838827    , -0.0028599326  , -0.0046122563  ,  0.032000232   ,  0.013940507   ,  0.010030142   ,  0.0035165476  ,  0.010834103   , -0.0021379138  , -0.009782654   ,  0.0019168319  , -0.005762462   ,  0.0075683673  , -0.00063638965 , -0.0019190601  ,  0.0045338324  , -0.016445799   ,  0.006132624   , -0.014105979   ,  0.0057544764  ,  0.01943885    ,  0.0011149908  ,  0.013103859   ,  0.005322949   , -0.00052424456 , -0.0025226467  , -0.006583427   , -0.0017211549  ,  0.008796758   ,  0.0061824545  ,  0.016664628   ,  0.004887873   ,  0.0030436479  ,  0.0036865252  ,  0.00050152274 , -0.0060727727  , -0.004029061   , -0.0024351599  ,  0.0023439892  ,  0.0020347508  ,  0.0049565523  , -0.004784903   , -0.01728039    ,  0.013923068   , -0.0030332156  , -0.002270715   ,  0.011699152   ,  0.017936267   ,  0.0016844096  , -0.02367066    ,  0.0017279417  , -0.0064401166  ,  0.0066530015  ,  0.009766932   , -0.0032293831  , -0.00074338465 , -0.005467589   ,  0.007283388   , -0.006375945   , -0.017283592   ,  0.014995508   , -0.0077651544  , -0.012883025   , -0.0084150145  , -0.0064652036  ,  0.0019686092  ,  0.008415118   , -0.0031247754  ,  0.00929141    , -0.008224461   ,  0.017229732   , -0.0015147212  , -0.014335571   ,  0.010657898   , -0.0022740955  , -0.0037499485  ,  0.01364784    , -0.0069799866  ,  0.020837953   , -0.018457793   , -0.00057914696 ,  0.0026443556  ,  0.0044712783  , -0.0035089196  , -0.008425055   ,  0.0017731444  , -0.011393272   ,  0.008698048   ,  0.004693822   , -0.0008593707  ,  0.0025872686  ,  0.00038100235 , -0.012930384   , -0.015448361   , -0.00083355856 , -0.00836402    ,  0.03325413    , -0.015211115   ,  0.00075449713 , -0.010179456   , -0.009372801   , -0.020938886   , -0.005539379   , -0.009493178   , -0.012390694   , -0.0026041341  , -0.0018822087  , -0.008217546   , -0.0018479464  , -0.013502072   ,  0.009485232   , -0.012188557   , -0.00011193772 , -0.0023202936  , -0.01936479    , -0.004371285   , -0.0079199895  , -0.022487553   ,  0.027027627   , -0.0027433354  ,  0.0013143086  ,  0.018166872   , -0.008699068   ,  0.008525586   ,  0.017669754   , -0.014246501   ,  0.010605143   ,  0.008067092   , -0.0039984756  ,  0.019688984   ,  0.0053634257  ,  0.003855734   ,  0.008371784   ,  0.0030435538  , -0.0041227685  ,  0.011858142   ,  0.010652583   , -0.010900692   ,  0.008459042   ,  0.012154802   , -0.0063954354  , -0.002069095   , -0.016593829   , -0.0049112556  ,  0.0034584433  ,  0.006863758   , -0.007291205   ,  0.0051356964  ,  0.0053123534  , -0.0029975493  , -0.004184361   ,  0.009401417   , -0.0019451623  ,  0.0121961925  , -0.0037336631  ,  0.0012313734  ,  0.007880987   , -0.009402588   , -0.014534006   ,  0.02525044    , -0.0027267174  , -0.016934477   , -0.0050832727  , -0.00499961    ,  0.0056557166  ,  0.013577574   ,  0.011166293   ,  0.007475508   , -0.008274336   , -0.008224781   ,  0.003131864   , -0.005519867   ,  0.0018949616  ,  0.023973247   , -0.0040231384  , -0.020826459   ,  0.014633123   ,  0.007250003   ,  0.0007257642  ,  0.016140696   , -0.009973196   , -0.009526225   , -0.0033703952  , -0.0007173558  ,  0.0008217744  ,  0.004277116   , -0.00685884    ,  0.0037200756  ,  0.030386604   , -0.0063265385  , -0.0009947502  , -0.0025008477  ,  0.022999719   , -0.008602587   ,  0.011878511   ,  0.011141391   ,  0.028662186   ,  0.015015767   , -0.0076835174  ,  0.01059636    ,  0.023352724   ,  0.005799963   ,  0.0072047017  ,  0.0018778659  , -0.007012311   , -0.0033595013  , -0.009956103   , -0.01884385    ,  0.002834488   , -0.0072002625  ,  0.0038740106  , -0.004468079   ,  0.0019046416  , -0.020625912   ,  0.002519487   ,  0.0000751042  , -0.013209479   ,  0.010776556   ,  0.005207646   ,  0.004326412   ,  0.0011249925  ,  0.007835169   , -0.000744789   , -0.004191237   ,  0.009346954   , -0.0150489975  ,  0.0032318113  , -0.009563642   ,  0.008536051   ,  0.0026950443  , -0.007312203   ,  0.023340054   , -0.0005094215  , -0.010930949   , -0.014113789   ,  0.009349258   ,  0.0072863954  , -0.007548791   , -0.0022674182  ,  0.004194756   , -0.01117998    , -0.00017981874 ,  0.009482611   ,  0.007746562   ,  0.00585145    , -0.0071364953  ,  0.0012278087  ,  0.009661217   , -0.0031534503  , -0.0035308225  ,  0.02637065    , -0.0066400794  ,  0.0049436335  , -0.009756963   ,  0.005506004   , -0.002764919   ,  0.0018386627  ,  0.00066863385 , -0.011055383   , -0.00023466274 , -0.0042110574  ,  0.0012703658  , -0.010533723   ,  0.013228176   , -0.0007248095  , -0.01612314    ,  0.0025105777  , -0.0016324021  , -0.00034331644 ,  0.007454231   , -0.00329355    , -0.0011156106  ,  0.0049247555  , -0.0025108429  ,  0.010628989   ,  0.026550366   ,  0.004762721   , -0.01503807    ,  0.010657081   , -0.00415847    ,  0.0046665226  ,  0.009882647   ,  0.01436309    , -0.004199638   ,  0.0022075628  ,  0.018657215   ,  0.0026314976  , -0.005476824   ,  0.00020755958 ,  0.0167844     ,  0.0005406983  ,  0.0029144136  , -0.007806787   ,  0.013333578   ,  0.013373585   ,  0.005907879   ,  0.0057064453  ,  0.0011825864  ,  0.009440428   ,  0.00572854    ,  0.006879839   ,  0.009876635   , -0.00036789323 , -0.013788409   ,  0.013131301   , -0.0078264     ,  0.008069034   , -0.012672852   , -0.010200795   , -0.0037332536  , -0.0051484397  ,  0.001429599   , -0.00055048807 ,  0.00205781    , -0.0023221958  , -0.009439043   ,  0.0020917424  ,  0.011824093   ,  0.003947004   ,  0.0007654335  , -0.00019631155 ,  0.006099797   , -0.007004146   ,  0.036957588   ,  0.0023995542  , -0.0016126158  ,  0.011532438   , -0.004922665   ,  0.0067718783  , -0.002637457   , -0.0062143416  , -0.0049633877  ,  0.0045416933  , -0.009560213   , -0.002693282   , -0.01409472    , -0.006292475   ,  0.0102808885  , -0.009971061   ,  0.0001813596  ,  0.010548362   ,  0.004497296   , -0.0073584397  ,  0.010662512   ,  0.010808089   , -0.000040181938, -0.0020145162  ,  0.006233598   ,  0.005682887   ,  0.008038178   , -0.004140818   , -0.0061452063  , -0.0031865085  ,  0.004380769   , -0.0027184265  , -0.0068996875  , -0.0049210717  , -0.004151912   , -0.0050850855  , -0.0086571295  , -0.01827675    , -0.010567897   , -0.0017762991  , -0.0008055914  ,  0.006646839   , -0.005773906   ,  0.02119851    ,  0.00777736    , -0.012533253   , -0.01974473    , -0.0017414769  ,  0.006394851   , -0.0069803586  ,  0.008506196   , -0.00015086029 ,  0.0050709755  , -0.008673055   , -0.014813894   , -0.0015871989  ,  0.0039740163  ,  0.00049521576 ,  0.005169739   , -0.0029084568  , -0.0049352543  , -0.011542479   ,  0.0032352188  , -0.009262775   , -0.0011454389  ,  0.019548554   , -0.002000399   ,  0.0035021922  , -0.0121824145  , -0.0027486135  ,  0.009030656   , -0.001428044   ,  0.0009910107  , -0.012053312   ,  0.0040527955  , -0.0030541127  , -0.0005918378  ,  0.0097032385  ,  0.006279899   ,  0.00029150813 ,  0.010949466   , -0.0045009926  ,  0.016581506   ,  0.008089386   ,  0.0018747661  ,  0.018582614   ,  0.005511913   ,  0.004858623   ,  0.0073056887  ,  0.0035293947  , -0.0051579     ,  0.008462162   , -0.0030509166  ,  0.00063488696 , -0.022067307   , -0.010090874   ,  0.0027610466  , -0.004642698   , -0.0017720475  , -0.017967558   , -0.0103364     ,  0.02612476    , -0.004612875   ,  0.007900351   ,  0.0074468707  ,  0.009489914   ,  0.012556511   , -0.006365      ,  0.017095184   , -0.01780132    ,  0.0005068729  ,  0.02211442    , -0.0011325536  ,  0.017853513   ,  0.0033942442  ,  0.016061958   , -0.01423198    , -0.007994754   , -0.0060718874  , -0.013858342   ,  0.0041671484  ,  0.004689925   ,  0.00999425    ,  0.007952324   , -0.0026376275  ,  0.00426675    ,  0.012386824   ,  0.017043667   , -0.02022704    , -0.0011993119  , -0.016313957   , -0.00036211254 ,  0.003111522   , -0.0060307854  ,  0.01369771    ,  0.0044503594  , -0.00054085953 ,  0.0014923936  ,  0.00797421    ,  0.007901655   , -0.02380754    , -0.0054992987  , -0.01772302    ,  0.007636454   , -0.014013118   ,  0.0029851901  ,  0.001234739   , -0.0108511215  , -0.0023193136  , -0.007677377   ,  0.016887933   ,  0.001235368   ,  0.0116771925  , -0.017590914   , -0.0014162399  , -0.0063853785  ,  0.021136014   , -0.0055116527  ,  0.003924109   ,  0.0033293932  , -0.0064330893  , -0.0048727733  ,  0.010845895   ,  0.022349978   , -0.011356398   ,  0.016274476   ,  0.00091192324 ,  0.010563196   , -0.017437624   ,  0.001936451   , -0.004300037   ,  0.00021494369 , -0.011400118   ,  0.038735665   , -0.0015499616  ,  0.017439855   ,  0.011055025   ,  0.020322891   ,  0.024416616   ,  0.009055822   ,  0.006654603   ,  0.0014432794  ,  0.0047998377  ,  0.021229029   , -0.010063226   , -0.00044298836 ,  0.017747931   , -0.0018933616  , -0.004908109   , -0.0073284586  , -0.01635968    , -0.0033453784  ,  0.005466406   , -0.0016434083  , -0.0036827722  ,  0.008884367   ,  0.008697534   , -0.0025302612  ,  0.008794697   , -0.009769378   , -0.00012633008 ,  0.0030025067  , -0.00027291078 , -0.0052927756  ,  0.01268733    , -0.004280348   ,  0.010885482   ,  0.0120764775  ,  0.0015363316  , -0.00354023    ,  0.010064826   ,  0.00734934    ,  0.017514108   , -0.0046208757  ,  0.0015264342  ,  0.017045831   ,  0.0024074423  ,  0.0014518813  ,  0.0035177083  ,  0.007525366   ,  0.008203054   ,  0.0011906546  ,  0.010386752   , -0.009688307   , -0.0219985     ,  0.0040841675  , -0.009991928   , -0.013603557   ,  0.012021921   ,  0.030814014   , -0.008170347   ,  0.008434938   , -0.02553967    , -0.006106258   , -0.006243424   ,  0.0020196     ,  0.007836249   ,  0.0027424004  ,  0.00253067    ,  0.008742774   , -0.014261036   ,  0.0046985545  ,  0.0031988306  , -0.014729235   , -0.007656231   , -0.0010468472  ,  0.0051521766  , -0.0012324888  , -0.018578283   , -0.003103641   , -0.0014310793  ,  0.011690611   ,  0.014777743   , -0.007856074   , -0.010046946   , -0.010114788   , -0.00305059    ,  0.013163922   , -0.003011043   ,  0.0016771915  , -0.010103176   , -0.012150187   , -0.012142508   , -0.0119430395  ,  0.0020816107  , -0.00806875    ,  0.0023355794  ,  0.024695043   , -0.0110303     ,  0.012646414   , -0.00030853922 , -0.0055069793  , -0.0019099404  ,  0.0104477415  , -0.014149428   , -0.002090921   ,  0.006812037   ,  0.0028104698  , -0.0043340656  , -0.022710808   ,  0.0020949123  , -0.0038777073  ,  0.0129440315  , -0.011551319   ,  0.004858461   ,  0.011503376   ,  0.0008891617  , -0.010775876   ,  0.00048264893 , -0.004361885   , -0.0016054184  , -0.0012917153  , -0.017116776   , -0.009982781   , -0.015390266   ,  0.008454526   ,  0.03240562    ,  0.0034181813  , -0.0016868025  ,  0.0015088579  ,  0.0079934485  ,  0.011584164   , -0.0004099248  , -0.0079561155  ,  0.0023017447  ,  0.012457055   , -0.0031064572  ,  0.0021054223  ,  0.010011639   ,  0.010828372   ,  0.022497531   , -0.011177943   ,  0.012266948   , -0.008083915   ,  0.009537819   ,  0.0058624432  , -0.0061659776  ,  0.0037063009  , -0.0098179635  ,  0.0061087166  ,  0.011557028   , -0.010368446   , -0.0070171957  , -0.012324559   ,  0.008714883   , -0.002435692   , -0.010399877   ,  0.0064673726  , -0.006827699   , -0.014535812   ,  0.01717444    ,  0.004581604   , -0.0017482833  ,  0.0040618693  ,  0.015022482   ,  0.0019872168  ,  0.0017869895  , -0.0038096858  ,  0.010423575   ,  0.000016215165, -0.0010008937  ,  0.0028629913  , -0.00276066    ,  0.015635287   ,  0.006210799   , -0.005591556   ,  0.007475395   , -0.0056415824  ,  0.0020855973  , -0.0033993693  , -0.004583046   , -0.004365549   ,  0.03063443    , -0.0061083008  ,  0.0038060113  , -0.0077140173  ,  0.005488681   ,  0.013550119   , -0.0064357547  , -0.015071846   , -0.0011619983  , -0.014078186   , -0.013593107   ,  0.0043318556  ,  0.017522218   , -0.012865594   , -0.0037952082  ,  0.00030440695 ,  0.0063187657  , -0.010269164   ,  0.0066825515  ,  0.033882916   , -0.0010409636  , -0.00788113    ,  0.0070647374  , -0.0067734686  ,  0.028590728   , -0.0077779945  ,  0.012763632   , -0.010595327   ,  0.0033986394  , -0.010763119   ,  0.008145215   ,  0.024223015   , -0.0015433974  , -0.013975407   , -0.011665019   , -0.0045948476  , -0.00466686    ,  0.0013144601  ,  0.0015780301  , -0.0136092575  , -0.008605982   ,  0.011112611   ,  0.00029448382 , -0.009376385   ,  0.019206388   ,  0.00045594486 ,  0.0008388284  , -0.008106844   ,  0.0062125167  , -0.0069809416  , -0.0075661065  ,  0.02129735    , -0.009753193   , -0.007872053   , -0.0032254388  ,  0.008316677   ,  0.0036943827  , -0.0041860975  ,  0.0009983595  ,  0.002239376   , -0.0009026125  , -0.0018384443  ,  0.045237266   ,  0.01297977    , -0.0021769055  , -0.00790761    , -0.009336049   , -0.013717838   , -0.010251961   ,  0.0025249212  , -0.007244654   , -0.017978216   ,  0.009864614   ,  0.016169295   ,  0.0005968665  ,  0.009642352   , -0.007220607   ,  0.003938167   , -0.008980332   , -0.014716983   , -0.0009431019  , -0.0059653637  ,  0.016748782   ,  0.0078028026  ,  0.012209969   ,  0.0062345047  ,  0.0007421798  , -0.00007928456 ,  0.0118841315  , -0.015334589   ,  0.006934391   , -0.005704178   ,  0.0027012476  , -0.0004351833  , -0.007668207   , -0.0076298444  , -0.0007793434  ,  0.008005109   , -0.01119245    , -0.0012435428  , -0.008832769   , -0.0014686602  , -0.009651967   , -0.0046502333  ,  0.011130098   , -0.008408962   ,  0.007967183   , -0.015468897   ,  0.0138466     ,  0.007010258   ,  0.0032727644  ,  0.004826074   ,  0.0037842998  ,  0.027108902   , -0.0042632553  ,  0.007040597   , -0.003192834   ,  0.001856707   ,  0.02222162    , -0.012792848   , -0.020428741   , -0.009550743   , -0.0126635     ,  0.00038300658 ,  0.0073117665  ,  0.0035029806  , -0.0032433388  , -0.0062572733  ,  0.0069046444  ,  0.017657915   , -0.0067569944  ,  0.010757305   , -0.011598092   ,  0.0074053523  , -0.0016301114  ,  0.0052967793  ,  0.009163894   ]