[-0.027850622 , -0.015095007 ,  0.012934114 ,  0.013144452 , -0.0126353735, -0.13185468  ,  0.13931422  ,  0.1033809   , -0.035789482 , -0.019903831 ,  0.016536787 ,  0.04890634  , -0.086590245 , -0.08289004  ,  0.007445546 , -0.08791123  , -0.060162522 ,  0.021182878 , -0.019655861 , -0.011009439 , -0.03846486  ,  0.030947959 , -0.0008485618,  0.027305003 ,  0.0012024312,  0.2334376   , -0.010572945 , -0.07593658  ,  0.01248855  , -0.028837472 , -0.039288085 ,  0.091979906 ,  0.02158578  , -0.027687028 ,  0.058991875 ,  0.033180777 , -0.015334117 , -0.108271725 , -0.027970798 , -0.0778239   ,  0.20094696  ,  0.24721116  , -0.15660013  , -0.16305633  , -0.05681387  , -0.14830205  , -0.019269437 , -0.027458897 ,  0.12176088  , -0.08251049  , -0.017665645 , -0.075012386 ,  0.047943186 , -0.059115525 , -0.17368966  , -0.0893944   ,  0.0022447456, -0.13576798  ,  0.02341265  , -0.023161806 , -0.04030175  , -0.0747402   ,  0.061557394 , -0.016671713 , -0.01952384  ,  0.022175804 , -0.07035543  ,  0.034441493 , -0.027128939 , -0.014966664 ,  0.04191841  , -0.07784143  , -0.12661707  ,  0.44575527  , -0.047958173 ,  0.2718549   , -0.10051199  , -0.05267545  ,  0.06486432  , -0.048151728 ,  0.010991621 ,  0.056852996 , -0.06043781  , -0.04085542  ,  0.05173056  ,  0.057680096 , -0.10116388  ,  0.11981922  , -0.0686848   ,  0.020486822 , -0.0056183725,  0.045391947 ,  0.1911773   ,  0.026077107 , -0.073759444 , -0.060168084 ,  0.049959555 , -0.08766267  , -0.020636363 ,  0.16985816  ,  0.0032505533]