0.06226867064833641
0.011546683497726917
-0.004253472667187452
-0.054184939712285995
0.011340527795255184
0.02371807210147381
0.03861688822507858
0.07659763842821121
0.08667464554309845
0.03229980915784836
-0.0193183533847332
0.031482990831136703
-0.019128458574414253
0.028098054230213165
-0.04675561189651489
0.040511567145586014
0.03959006071090698
0.03139832243323326
0.07970793545246124
0.027031434699892998
0.020224038511514664
-0.04197385907173157
0.015810692682862282
0.040919892489910126
0.019028954207897186
-0.052336059510707855
-0.027397222816944122
-0.028423337265849113
-0.08014392107725143
0.024410797283053398
-0.057673368602991104
-0.001756681827828288
0.07659108936786652
-0.05380198359489441
-0.07443767040967941
-0.010327016934752464
0.0045150755904614925
-0.02833380550146103
3.818009281530976e-05
0.052842896431684494
-0.020270274952054024
0.0627407431602478
-0.05374561995267868
0.033189427107572556
0.027085112407803535
-0.06829105317592621
0.01945401541888714
0.014924428425729275
-0.06070000305771828
0.030691497027873993
0.024909667670726776
-0.06752607971429825
-0.06594343483448029
-0.02481681853532791
0.08688788115978241
-0.000507417309563607
0.07229989022016525
-0.029211265966296196
-0.08647903800010681
-0.0034899571910500526
-0.0018447142792865634
-0.04442821070551872
-0.05049177259206772
-0.046852655708789825
0.05585035681724548
0.011586655862629414
0.05655462294816971
0.010133440606296062
-0.05741569399833679
0.014178520999848843
-0.0209888257086277
-0.07298564165830612
0.0024773841723799706
0.09108847379684448
-0.09059187769889832
0.00317815481685102
-0.006135453935712576
0.010111461393535137
-0.015081660822033882
0.04030175879597664
-0.03819463774561882
0.03003363125026226
0.04448277875781059
0.011148953810334206
-0.003933597821742296
0.0370476134121418
-0.07766912132501602
-0.06915058940649033
0.05944988504052162
-0.05597081407904625
0.06535244733095169
-0.07471074908971786
0.06795579940080643
-0.0438619889318943
-0.06473519653081894
-0.044770289212465286
0.01950669102370739
0.01185312494635582
-0.016170049086213112
0.0709005743265152
-0.04240037500858307
0.0007188330637291074
0.06954709440469742
0.03871940076351166
-0.021104905754327774
0.08231160789728165
-0.037909336388111115
0.04132235795259476
-0.03680024668574333
-0.06100638583302498
0.02447141334414482
-0.023976406082510948
0.01648188941180706
-0.0013634549686685205
-0.014816805720329285
-0.09482747316360474
0.0091788275167346
0.031305741518735886
-0.07991840690374374
0.03621775284409523
-0.029362250119447708
-0.014827532693743706
-0.033133167773485184
-0.010544602759182453
0.06967472285032272
-0.024299299344420433
-0.018358612433075905
-0.052459847182035446
