-0.021549630910158157
0.0283968523144722
-0.0002126458566635847
0.038203828036785126
0.05575074255466461
-0.028377017006278038
-0.041746485978364944
0.09313986450433731
0.07398217171430588
0.026010949164628983
0.06332140415906906
-0.014027218334376812
-0.04340122640132904
0.04381949454545975
0.009671366773545742
-0.06183537095785141
-0.08483915030956268
-0.01801050640642643
0.03385688364505768
-0.0808483436703682
0.06682320684194565
0.02391105517745018
-0.06951434165239334
0.05937819927930832
-0.011319763027131557
-0.016220878809690475
0.028967509046196938
-0.00678405724465847
0.08939740806818008
0.00414781691506505
0.040532227605581284
-0.042442914098501205
-0.010021856985986233
-0.004209302831441164
0.027940550819039345
0.022230790928006172
-0.061215344816446304
0.07575155049562454
0.05880451574921608
-0.03960799053311348
-0.029147770255804062
0.03992067649960518
-0.037851184606552124
-0.046337373554706573
0.07287976145744324
-0.05530932545661926
0.0008859274676069617
-0.02726333774626255
-0.052515581250190735
0.015448495745658875
0.03976833447813988
-0.04995305836200714
-0.054345935583114624
0.08394467830657959
0.07235978543758392
0.03523453325033188
0.04874548688530922
0.03972719609737396
0.048246245831251144
2.487191750333295e-06
0.03268062323331833
0.054661259055137634
-0.07798846811056137
-0.04340967908501625
