0.013532429933547974
-0.05144286900758743
-0.005541007500141859
-0.02826496958732605
0.030959535390138626
-0.05457683652639389
0.004414472728967667
-0.036209918558597565
0.029896413907408714
-0.007513939402997494
0.02413209341466427
-0.02153947576880455
-0.05213913694024086
-0.05144069343805313
0.005161472130566835
0.027142483741044998
0.03941842541098595
0.008447255939245224
0.025852549821138382
-0.0020856126211583614
0.037180643528699875
0.11055376380681992
0.040101148188114166
0.015413312241435051
0.04139845073223114
0.006554246414452791
0.026588788256049156
0.0614049918949604
-0.04291914403438568
-0.022860893979668617
0.014288146048784256
-0.01720135286450386
-0.0181871484965086
0.0662514939904213
-0.020771708339452744
0.026913540437817574
-0.033236030489206314
0.027757592499256134
0.035043865442276
-0.0020022704266011715
-0.026868728920817375
0.04623989760875702
0.03503142669796944
0.04823750630021095
0.022268760949373245
0.002509305253624916
0.007109787315130234
0.0001845929800765589
-0.01157697755843401
0.010266452096402645
0.013287147507071495
0.05636078491806984
0.029464799910783768
0.03264874592423439
0.0074630132876336575
0.051892537623643875
0.04167665168642998
0.03996458277106285
-0.037400983273983
0.005727649200707674
0.04419245198369026
0.00646145548671484
0.008182242512702942
0.044272661209106445
0.01462554931640625
-0.010074159130454063
0.018724745139479637
0.04211174324154854
-0.042703159153461456
0.010696453973650932
0.04952607303857803
-0.04914361238479614
-0.03718259930610657
-0.00404771976172924
0.03116714209318161
-0.05099257454276085
-0.04455440491437912
0.015525982715189457
-0.006927591748535633
-0.003852308262139559
0.030168641358613968
-0.0006803138530813158
0.04572863504290581
0.02654307149350643
-0.04176804795861244
-0.036617327481508255
-0.032386891543865204
-0.01905207335948944
-0.028976978734135628
-0.029162311926484108
8.812334999674931e-05
-0.003687576623633504
0.038803234696388245
-0.022745992988348007
-0.04596300050616264
0.04209564998745918
0.02802666462957859
-0.029520947486162186
0.028079790994524956
-0.024207938462495804
-0.008778642863035202
0.028456201776862144
-0.04917045310139656
-0.01698467694222927
-0.04371194541454315
-0.0352800153195858
0.005298527888953686
0.050094638019800186
0.030395716428756714
-0.03570154681801796
-0.04489077255129814
0.004744852427393198
0.0033136119600385427
-0.03188685327768326
-0.026781892403960228
-0.041188355535268784
0.004084245301783085
-0.005803081206977367
0.05183842033147812
-0.03731163591146469
0.04117623344063759
-0.011158259585499763
-0.03485419973731041
-0.04988202825188637
-0.004944267682731152
-0.04539049044251442
-0.030512433499097824
-0.0009171716519631445
