10
13
-30
-24
7
10
-5
-7
7
23
10
-30
-12
10
6
-15
-3
14
19
-7
-36
-19
25
22
-16
-5
3
3
-7
3
4
-7
-5
4
3
-7
-4
-1
-3
-5
-2
1
-2
-4
6
-3
2
-4
-2
9
-6
10
1
4
-1
-2
-1
0
-8
-7
-13
-9
-9
-4
6
-1
12
4
5
-10
5
5
15
11
24
29
24
30
22
12
7
-2
25
-9
2
-17
7
7
-23
10
-11
2
8
-45
12
36
-33
6
35
7
-19
-3
50
-6
-41
24
20
-44
-8
-2
-21
-18
-17
-19
0
-7
-3
-29
36
-5
-5
41
15
4
-5
-12
-16
-9
-10
13
42
-18
-5
6
-8
-8
16
23
8
-7
7
-2
-21
-17
4
-24
-17
3
11
22
21
29
22
0
8
-11
-9
-5
-24
-18
-6
-4
-11
7
1
-2
31
14
-26
-22
-16
-10
22
6
10
62
32
-9
2
-10
-8
20
15
2
13
6
-13
-7
-20
-6
-4
8
10
-5
-8
13
-2
7
3
-4
5
-6
-5
4
-2
-5
-7
-1
9
5
-8
12
1
-5
-7
0
-5
-7
7
-1
0
4
3
-4
-7
5
-2
8
11
5
6
1
2
3
-7
7
4
-8
-6
-5
-5
-2
0
8
10
1
-9
-14
-9
-18
-19
1
0
-12
-2
28
35
23
27
35
13
-6
3
1
-24
-26
-8
-5
-13
-19
-8
-5
-5
-6
-4
-2
-1
2
-7
-7
0
-7
-4
-4
5
-7
-2
4
-2
7
11
12
9
4
3
9
-2
6
-6
8
5
5
-8
-6
5
-4
-4
7
-8
-7
7
6
-5
2
4
-8
0
-3
-7
4
-5
0
4
5
7
-2
-6
-2
2
5
-8
-10
2
-30
-41
-15
-27
-22
-7
-3
13
15
23
46
20
33
27
0
2
-7
-18
-5
0
-10
-10
-11
-5
-6
1
8
-9
-11
-6
-3
-5
-9
-1
-4
8
-8
6
0
5
3
-2
14
14
5
-8
7
-7
-6
-10
-4
2
14
16
-3
4
-1
-13
-12
3
1
3
18
-9
9
-6
-5
-16
-6
0
15
5
6
5
-4
8
0
-7
3
-4
-5
6
0
-1
3
4
6
8
-5
7
-4
3
-1
0
-2
-4
2
8
1
0
2
-1
-8
6
6
4
2
-4
-2
-8
-5
8
4
6
1
-7
-2
-3
2
-3
-3
0
6
-1
-2
7
-14
-28
-5
22
30
-12
3
35
-21
-1
-9
-19
-9
20
21
-5
4
-3
-1
13
12
-1
-16
-10
-6
7
-14
-3
-5
5
8
4
7
-3
-4
3
8
-1
-7
-7
-5
-1
-1
7
-3
-7
-6
-4
-6
-1
0
-6
-1
3
-7
-3
2
-4
-2
8
-5
-5
-3
6
1
8
12
10
8
-3
11
8
2
9
2
8
-2
-3
2
6
-4
12
9
-20
30
-17
-11
27
-23
-3
-1
18
-17
25
-5
-18
27
-25
-2
-1
12
-13
14
-5
-9
14
-24
3
-5
-5
3
-1
3
-7
-5
-5
7
0
6
1
-7
-6
0
-4
-5
-7
12
-4
12
10
-2
-1
13
-1
11
-13
-10
-7
-7
-11
-9
-9
-6
-8
-3
-2
5
-5
7
5
1
10
0
15
5
19
17
10
15
14
13
16
1
-3
2
-18
6
14
-25
18
7
5
-8
7
-19
-2
19
-23
7
23
7
-15
5
-15
2
15
-26
10
7
4
15
-7
-2
21
-6
5
0
8
9
4
-7
13
31
-3
-3
22
-1
-10
9
-21
-2
18
1
-4
-3
-13
0
2
0
0
-5
2
-1
2
0
0
0
-2
0
-2
5
-2
3
-1
19
23
23
11
16
11
24
20
24
-9
-10
-27
14
18
21
-5
-2
12
-5
-6
8
1
0
-16
2
9
2
-9
-1
4
-10
12
30
0
-9
-33
-33
24
18
-30
12
20
-10
9
1
-25
16
11
-25
8
17
-2
2
-1
-25
19
3
-15
5
6
-3
7
-10
-5
-18
-13
-10
-22
-6
28
12
5
-1
-7
-8
-11
-10
-13
16
1
9
-8
-17
-16
-4
-13
-10
17
18
26
15
13
15
23
26
27
15
9
20
-6
-7
-9
1
10
-7
-1
-8
-10
-6
-14
-4
0
5
7
-14
-11
-11
1
-5
7
-13
-8
16
-6
5
-1
38
-3
-42
50
-6
-40
4
-4
-4
-35
6
32
-35
14
23
-1
-5
3
14
11
16
15
18
15
6
16
6
-4
-2
-9
-1
-4
4
-2
-5
1
2
-2
4
-1
8
-2
4
-2
2
-3
11
6
5
13
13
4
1
9
-1
11
5
12
11
10
-4
10
2
0
5
0
0
2
3
-4
-1
9
-7
-16
-13
-2
-2
-9
0
22
18
26
48
19
2
4
21
-20
-40
-39
-10
-16
-6
6
6
0
-2
3
1
13
20
18
1
2
8
2
-7
-8
8
-2
-1
-6
7
0
0
2
11
-9
-6
-3
5
7
4
2
14
9
-3
1
-7
-4
8
-2
2
-6
6
0
-9
4
-5
-5
6
5
0
8
0
1
-2
-3
-1
4
-7
-6
0
10
9
10
11
13
14
9
12
9
-4
-9
2
-4
-17
-1
-5
-17
4
-2
-14
-5
-15
-11
-7
-6
-14
4
-12
-10
-14
8
10
-9
-5
7
-12
-8
4
-7
26
41
18
13
32
-5
-6
-2
-19
29
28
1
17
28
-6
0
-5
-4
4
-2
0
6
3
-5
-3
5
5
-1
-6
-2
-6
-7
6
-6
6
-5
-3
2
-2
6
0
8
-3
-22
13
3
-35
33
8
-34
16
-16
-16
28
-5
-37
40
-5
-27
23
-3
-23
31
1
-37
37
-1
-35
30
-5
-8
-2
7
7
-1
-3
-5
-2
0
6
2
4
-1
0
-7
-6
3
-7
-3
5
4
0
-6
7
3
2
5
-6
0
7
-12
-2
-6
-3
1
12
-8
-11
7
-17
10
-1
-13
7
32
-14
-13
30
-14
-8
-4
1
-5
-2
4
-4
5
3
-1
3
6
3
-5
-4
-6
-8
-6
4
-4
6
-1
-8
3
7
6
6
4
-1
-5
-2
7
2
2
6
9
8
10
6
8
4
6
2
15
10
13
2
17
6
12
10
16
16
7
12
16
2
11
-5
-1
7
-1
-5
2
-8
6
-4
0
7
3
5
0
-3
3
-3
7
2
-6
1
-1
-2
-8
-6
1
8
-1
1
-5
5
9
10
0
10
12
9
2
-3
-1
5
-9
-8
-9
-14
6
-1
6
6
1
10
1
5
14
-22
7
1
45
-17
3
-2
-34
17
-2
-3
3
-4
19
-7
-12
21
-16
-30
20
-36
-39
123
-31
-20
4
-22
0
10
1
4
-9
-13
16
-10
-10
10
-5
4
15
-19
-12
18
-17
-3
-1
1
-1
-1
-11
-8
3
-3
-5
4
6
-7
-8
-3
-3
5
-8
0
7
-6
-4
8
-5
7
-3
-8
-1
5
-5
-3
-5
2
-6
-1
-8
5
6
2
1
-7
-15
-9
-8
-11
-8
-7
-12
-8
-9
-7
-16
-14
-16
-12
14
16
18
7
10
18
14
19
15
2
-2
6
1
8
-4
-7
-4
-6
-7
0
-1
-1
-1
6
3
-8
1
-4
0
-8
8
-3
-4
1
-5
0
-5
26
0
1
18
0
3
-3
11
2
50
-7
-7
15
-5
2
13
0
2
21
-7
-3
-6
-15
4
-9
2
14
17
12
14
14
4
4
14
6
6
6
6
16
-2
1
8
11
13
10
17
23
11
11
20
12
20
13
-3
-3
-6
1
5
0
0
-3
-5
2
-6
-5
3
-5
5
-3
-1
-1
-8
-2
-6
-1
3
-4
-1
2
-3
10
3
2
20
-5
-3
-26
0
-3
-21
-27
9
-15
2
-9
40
33
-11
2
5
0
4
-6
-6
-6
0
6
-1
-8
-8
7
20
22
-8
-11
-14
3
1
1
19
8
19
-24
-23
-25
3
6
6
18
25
15
-8
-25
-21
4
14
-29
19
14
-7
24
18
-13
-4
8
-25
29
9
-5
15
38
-18
-4
4
-18
21
15
-8
14
27
-11
12
15
3
-20
-25
-7
11
7
5
33
25
19
-24
-22
-16
-9
1
-7
24
11
11
-14
-20
-11
-7
-1
-2
0
1
2
-7
-4
-6
-6
-4
4
8
12
18
6
8
15
10
7
19
3
11
13
-1
-5
8
-1
6
11
-12
3
-3
28
28
0
9
-2
3
-7
16
14
19
5
-9
18
-5
5
2
-10
-12
17
10
23
-4
-12
-7
9
11
-9
27
-7
-22
30
-2
-25
-12
3
6
-6
-2
15
-13
-4
14
-1
-9
1
-21
9
7
-12
3
14
-8
-6
6
-4
-4
-1
-1
-2
4
-8
-3
-8
4
1
1
-6
-2
8
-4
-1
-3
-6
-6
-2
5
-5
5
4
-4
5
-6
-7
2
-7
8
7
-4
-4
-5
8
8
0
8
-7
-6
2
-1
5
3
-6
5
4
-8
6
-4
3
2
1
2
-1
-1
-6
-3
0
2
-8
-8
-8
3
-4
-3
-5
0
-3
-7
3
6
8
2
2
-4
