-0.036341000348329544
0.0015612152637913823
-0.008798470720648766
0.0013282537693157792
-0.030646199360489845
-0.0031615544576197863
-0.01066829077899456
0.07095719873905182
0.018599089235067368
-0.017993055284023285
-0.0027593490667641163
0.04749448224902153
-0.020597053691744804
0.005391282960772514
0.02554897405207157
0.007622193079441786
0.0031401177402585745
0.023459404706954956
0.011493857949972153
0.008232753723859787
0.00938867125660181
0.010602359659969807
-0.01654614321887493
-0.015019909478724003
0.038601383566856384
0.008527816273272038
-0.002030079485848546
-0.014869186095893383
-0.02057167887687683
0.018840838223695755
0.021746313199400902
-0.025050051510334015
-0.00894548837095499
0.0008565231692045927
0.026199813932180405
-0.016675395891070366
0.02228459157049656
-0.017345599830150604
-0.0004168402520008385
0.0016762767918407917
-0.031995877623558044
-0.02378056012094021
-0.020847560837864876
0.012528897263109684
0.005370647180825472
-0.004729654174298048
-0.018925128504633904
-0.004533165600150824
-0.017538711428642273
0.016451051458716393
0.011269894428551197
1.3506133655027952e-05
0.0027039817068725824
0.007860875688493252
0.004355444107204676
0.05329718440771103
0.009173908270895481
0.0002407246211078018
0.027384256944060326
-0.0015331628965213895
0.0009167501120828092
0.016658814623951912
0.06140950694680214
0.010168850421905518
0.03511437028646469
-0.008491335436701775
-0.049137502908706665
0.00371976918540895
-0.030732417479157448
0.05721366032958031
-0.010593308135867119
0.014829063788056374
0.010233068838715553
0.03394431620836258
0.008770410902798176
-0.013996612280607224
-0.019215263426303864
0.016259273514151573
-0.03208230063319206
-0.008904020301997662
0.008336271159350872
0.007962528616189957
0.006199403665959835
-0.004753652960062027
0.011707077734172344
-0.013311441987752914
0.025119129568338394
0.004633911419659853
0.017987769097089767
0.010695241391658783
-0.0179994348436594
-0.00969037413597107
-0.014202953316271305
0.014714941382408142
0.018239425495266914
0.006563560571521521
0.030933570116758347
-0.018477683886885643
0.0026512970216572285
0.046438068151474
-0.02031465247273445
-0.007818572223186493
-0.03757500648498535
-0.012281520292162895
0.04615853354334831
0.0012439519632607698
0.04977612569928169
-0.008718675933778286
-0.047066349536180496
-0.014260084368288517
0.010037552565336227
-0.008994389325380325
-0.007380585186183453
-0.022269146516919136
0.032903388142585754
-0.013650343753397465
-0.01876673847436905
-0.009593055583536625
-0.0021675778552889824
0.005090693477541208
0.006619212683290243
0.025921138003468513
0.02607141248881817
-0.014724978245794773
0.009427749551832676
0.026552509516477585
-0.02731788344681263
0.02854015678167343
-0.001289095962420106
0.015439873561263084
-0.013390790671110153
-0.022192247211933136
-0.020164132118225098
-0.0053587425500154495
0.018576782196760178
0.04097156599164009
0.011954883113503456
0.005692516453564167
-0.020270492881536484
-0.01759963296353817
-0.02788221649825573
0.05048099905252457
0.004509291611611843
0.038446202874183655
-0.03749354928731918
-0.04488656297326088
0.057503994554281235
0.010843554511666298
-0.007169799413532019
0.04423387721180916
-0.05641624331474304
0.007009904831647873
-0.0009759215172380209
0.00100825191475451
0.020822623744606972
0.05148123949766159
0.03360730782151222
-0.004208797588944435
-0.0016678597312420607
-0.0112066101282835
-0.015884744003415108
0.024261746555566788
0.025369685143232346
0.014997588470578194
-0.020711613819003105
-0.019625447690486908
-0.0070824348367750645
-0.0022771540097892284
0.01556843239814043
-0.005423150956630707
0.003471381962299347
-0.01613972708582878
-0.00567634915933013
-0.027965744957327843
-0.0097532719373703
0.07919938117265701
0.013670806773006916
-0.015347898006439209
0.009823896922171116
-0.013375313952565193
-0.0018136219587177038
0.07832124084234238
-0.015401183627545834
0.004985225386917591
-0.018561651930212975
-0.027045736089348793
0.009777761064469814
0.05260578170418739
-0.029603902250528336
0.02145194448530674
-0.021009812131524086
-0.011135242879390717
-0.018734581768512726
0.008640548214316368
0.045238129794597626
-0.018539974465966225
0.02973589301109314
0.0010147884022444487
0.016813864931464195
0.002398249926045537
0.008331343531608582
-0.002976339077576995
0.06611141562461853
-0.018297187983989716
-0.0025588301941752434
-0.009579256176948547
0.030268758535385132
0.008377278223633766
0.007113609462976456
-0.013064427301287651
0.0174007099121809
0.01270359382033348
-0.002461913973093033
-0.019830146804451942
-0.02492442913353443
0.007109443657100201
-0.007864149287343025
-0.05829973518848419
0.004733160603791475
-0.018842441961169243
-0.001499936799518764
0.006160276010632515
0.004975761752575636
0.012571579776704311
-0.005276446230709553
-0.018961085006594658
0.005240681115537882
0.016223344951868057
0.0109966229647398
0.032455239444971085
0.005472004879266024
0.0039017570670694113
0.02732614427804947
0.011989161372184753
-0.027639729902148247
0.010229025036096573
0.05642217770218849
-0.003941469360142946
0.028396977111697197
0.00868635717779398
-0.007217631209641695
0.023988014087080956
0.03720112517476082
6.453305104514584e-05
0.06143946945667267
-0.04164201766252518
0.02242283895611763
0.016017170622944832
0.028956597670912743
0.07098960131406784
0.021186696365475655
0.007380948401987553
-0.01793549954891205
0.005435141734778881
-0.006133403163403273
-0.023898949846625328
0.010240095667541027
-0.014257661066949368
-0.018766727298498154
-0.005302076227962971
-0.017585203051567078
0.06309211254119873
0.0006934760604053736
0.02644345909357071
0.051608238369226456
-0.011747963726520538
0.028493350371718407
-0.007605917751789093
0.045883338898420334
-0.017512625083327293
0.013412997126579285
0.006120466627180576
-0.002640877850353718
-0.02192503772675991
0.0163346529006958
-0.021740974858403206
-0.028182538226246834
0.02458667755126953
-0.001767984707839787
-0.016650760546326637
0.006185722537338734
-0.0007630310137756169
-0.004549328703433275
-0.0025161670055240393
0.005081308074295521
0.006078475620597601
0.0011062677949666977
0.00325353117659688
-0.012292242608964443
-0.003948070574551821
0.003293989459052682
-0.012951277196407318
-0.013701549731194973
-0.008923640474677086
0.03669172152876854
9.348242747364566e-05
0.007230114191770554
0.010761098936200142
-0.031132284551858902
-0.01569710485637188
-0.0002331014402443543
0.028039753437042236
0.019983923062682152
-0.0044962624087929726
-0.0013221142580732703
0.0018951811362057924
0.013722031377255917
0.004781310446560383
0.012087185867130756
0.004288320429623127
-0.0021922604646533728
0.0063119796104729176
-0.04441390186548233
0.012124063447117805
0.0296940840780735
0.02726116217672825
0.021624403074383736
0.016842523589730263
0.01905367523431778
-0.007147589232772589
0.019593358039855957
-0.0020420090295374393
0.00421748636290431
0.016409384086728096
0.020955126732587814
-0.008828189224004745
-0.017889641225337982
-0.03831351175904274
-0.02976924180984497
-0.03216228261590004
0.041157640516757965
-0.0003083750489167869
-0.01808704063296318
-0.0175583828240633
-0.025762928649783134
-0.0002122088917531073
0.0011079603573307395
-0.0017666724743321538
0.032725803554058075
0.09274839609861374
-0.02367439493536949
-0.018529990687966347
0.01710698753595352
0.006315028294920921
-0.007597014773637056
-0.041184186935424805
0.021111508831381798
0.016081107780337334
0.0016852904809638858
0.0038997537922114134
0.01627856120467186
0.0094883032143116
-0.026724690571427345
-0.009778526611626148
0.015644775703549385
-0.020376745611429214
-0.005414662882685661
0.015460101887583733
0.007034796755760908
0.06150126829743385
0.004480480216443539
0.03721196576952934
0.017086120322346687
0.0048224423080682755
-0.000524766743183136
0.022930031642317772
0.029581276699900627
0.007201096508651972
-0.004586144350469112
0.006816990673542023
0.012721830978989601
-0.014588670805096626
-0.003380409674718976
-0.0068320585414767265
0.01911875605583191
0.014013036154210567
0.005797583609819412
-0.009834774769842625
0.036025792360305786
0.0038670969661325216
0.0010415181750431657
-0.018267033621668816
-0.017819123342633247
-0.017504887655377388
0.016042489558458328
-0.030179202556610107
0.004017972387373447
-0.02830170840024948
-0.04291845113039017
0.024665139615535736
0.03483754023909569
-0.019339503720402718
-0.005952342413365841
0.06724889576435089
0.00299766450189054
-0.017945200204849243
-0.02944350056350231
0.030425233766436577
0.02806059829890728
0.007882446050643921
-0.007761964574456215
0.008108026348054409
0.028256868943572044
0.001731552300043404
0.04922502860426903
-0.013053867034614086
0.010757816955447197
-0.013110373169183731
0.018938612192869186
0.026906654238700867
-0.02044685184955597
0.04617350175976753
-0.005876051262021065
0.08369999378919601
-0.008106059394776821
-0.0032015168108046055
-0.03320712596178055
0.025659747421741486
-0.02192734368145466
0.013005945831537247
0.0015506161144003272
-0.02416519820690155
0.07379162311553955
-0.0037092275451868773
0.004035564139485359
-0.012448292225599289
-0.01746751181781292
0.05596691370010376
-0.001077784807421267
0.00370385916903615
0.014307514764368534
0.0077449302189052105
-0.021140534430742264
0.03532346710562706
0.031626105308532715
-0.014620248228311539
-0.03464311361312866
-0.0017987398896366358
0.025081781670451164
-0.012318489141762257
-0.008008452132344246
0.009280633181333542
0.011486080475151539
0.02154175378382206
-0.01136524137109518
-0.004958686884492636
-0.013869636692106724
-0.024049576371908188
0.0006010883953422308
-0.014649366959929466
-0.01921788416802883
-0.0335700549185276
-0.011090034618973732
0.01385085005313158
0.03404935821890831
0.05369805917143822
0.0025181490927934647
-0.017857495695352554
0.012139519676566124
0.023011641576886177
0.005216970108449459
0.013267447240650654
0.01856883615255356
-0.009890695102512836
-0.005014586728066206
-0.04692709818482399
0.003977525979280472
-0.00263568595983088
-0.06254749000072479
-0.010088982991874218
0.014952808618545532
0.011495196260511875
-0.008995700627565384
-0.00717933988198638
0.026920223608613014
0.08688194304704666
-0.02119527943432331
0.0321488156914711
0.005390442907810211
-0.009043035097420216
0.009158335626125336
0.013292243704199791
0.033443860709667206
0.015121961012482643
-0.013622580096125603
0.004759585950523615
-0.017283275723457336
0.03751181438565254
-0.006371405906975269
0.0010890812845900655
-0.006661712657660246
-0.015375198796391487
-0.00074267532909289
0.04545742645859718
0.009578638710081577
-0.005834790877997875
0.030499517917633057
-0.010579356923699379
-0.04929393529891968
-0.02143056131899357
-0.013276511803269386
-0.00986595917493105
-0.022268032655119896
0.034254781901836395
-0.0014059810200706124
0.015388982370495796
0.0138156209141016
0.000839822634588927
0.009815956465899944
-0.0018749925075098872
-0.028849558904767036
-0.017669785767793655
