-0.019195962697267532
0.004716984461992979
0.019660361111164093
-0.0055999355390667915
-0.009491762146353722
0.015024226158857346
0.03306150436401367
-0.0012032986851409078
-0.004339292179793119
0.04034022241830826
-0.001705370144918561
0.022940587252378464
-0.01047164760529995
-0.02248493582010269
-0.01827969215810299
0.0018645402742549777
-0.00033975005499087274
-0.04081554710865021
0.02213609591126442
0.0086984783411026
0.028492286801338196
0.00036665573134087026
-0.022073894739151
0.024098388850688934
0.003551344620063901
-0.01611304096877575
-0.019318027421832085
0.014666186645627022
-0.0014664576156064868
0.014634701423346996
-0.0059369937516748905
-0.02497948333621025
-0.0069313012063503265
-0.0018899639835581183
-0.025795117020606995
-0.018287066370248795
-0.012483599595725536
-0.018421463668346405
0.014533894136548042
0.024479325860738754
0.013164883479475975
0.011688701808452606
0.029650257900357246
0.02282070741057396
0.022543521597981453
0.018047872930765152
0.0033188152592629194
0.00731073459610343
0.025458117946982384
0.00017702231707517058
0.012380130589008331
-0.02577052265405655
-0.012244109064340591
-0.008304930292069912
0.023754263296723366
0.014437002129852772
0.018938567489385605
-0.008253703825175762
-0.007214708719402552
0.012799616903066635
0.00413378095254302
-0.02641366980969906
-0.01119653508067131
0.01124995481222868
0.025303589180111885
-0.009223137982189655
-0.00362264271825552
-0.020133789628744125
0.022104255855083466
0.01600213535130024
-0.025932559743523598
-0.020749729126691818
-0.022111801430583
0.020340999588370323
-0.011942348442971706
-0.014704335480928421
0.0714874416589737
0.02415427193045616
-0.007254629395902157
-0.022275859490036964
0.0011334778973832726
-0.021020766347646713
-0.003245967673137784
-0.00782991573214531
0.008672377094626427
-0.0016401142347604036
0.01669301837682724
-0.0077455658465623856
-0.0033677348401397467
0.005094591993838549
-0.015172984451055527
0.0016868116799741983
0.0004915944300591946
0.018552565947175026
-0.02627907134592533
-0.00168991566170007
-0.012574709951877594
-0.006913171149790287
0.024193892255425453
-0.031471431255340576
0.014862447045743465
-0.023959161713719368
-0.004922837484627962
0.06652981787919998
0.016494227573275566
0.016202662140130997
0.01710735447704792
-3.0052980946493335e-05
-0.01791294291615486
-0.0009625068050809205
0.0013368934160098433
0.012035996653139591
0.019997602328658104
0.005538162775337696
0.014172105118632317
-0.01418952364474535
0.027207909151911736
-0.015947047621011734
-0.017012828961014748
0.019417867064476013
-0.017151394858956337
-0.009974506683647633
-0.0019715186208486557
-0.0006700268713757396
-0.0010036105522885919
0.009615639224648476
0.006103469058871269
-0.007578991819173098
0.024890683591365814
-0.025015436112880707
-0.014809641987085342
-0.01748228445649147
-0.0015980844618752599
0.020202912390232086
0.023409010842442513
0.020968565717339516
-0.014439710415899754
0.003581381868571043
0.009451780468225479
-0.015217225067317486
-0.006776433438062668
0.008083225227892399
-0.014468889683485031
0.025610383599996567
0.0283927284181118
-0.017122937366366386
0.0010045971721410751
0.020323025062680244
-0.0074494811706244946
0.022896697744727135
0.026574771851301193
0.05702696740627289
-0.025872569531202316
-0.01684281788766384
-0.0030751717276871204
0.020758576691150665
0.007302999962121248
8.780665666563436e-05
0.01898263581097126
-0.014211415313184261
-0.023090848699212074
0.027374355122447014
0.02756805159151554
0.024971667677164078
-0.018874578177928925
0.010960299521684647
-0.014473537914454937
0.03127499297261238
0.005074372980743647
-0.0039654322899878025
0.0010487943654879928
-0.01953001506626606
0.02185908891260624
0.016075849533081055
0.004245790187269449
-0.0008353947778232396
0.007260398007929325
-0.003061286872252822
0.01372078713029623
0.0018336671637371182
-0.023556949570775032
-0.004106379114091396
-0.01653929613530636
-0.008217902854084969
-0.024739539250731468
-0.0003508364607114345
-0.028205621987581253
-0.01258623506873846
0.018459443002939224
0.023587824776768684
0.010860901325941086
0.014822534285485744
-0.00244113989174366
-0.009091992862522602
-1.8280486983712763e-05
0.020350627601146698
-0.0030979805160313845
0.013296397402882576
0.009170416742563248
0.012304875999689102
-0.006914267782121897
0.00435147900134325
-0.016467830166220665
-0.008449084125459194
0.005285185296088457
0.013622069731354713
-0.0015909314388409257
0.017890088260173798
0.021558355540037155
0.014011071063578129
-0.013410056009888649
-0.016858916729688644
0.0019860975444316864
-0.006653500255197287
0.0013021830236539245
0.0012850791681557894
0.011907333508133888
0.002327325288206339
-0.013256075792014599
0.015755843371152878
0.017253227531909943
-0.007846635766327381
-0.0009849320631474257
0.010134229436516762
-0.017877105623483658
0.013401794247329235
-0.01602543145418167
0.040405843406915665
-0.021831437945365906
0.0054444302804768085
-0.021548548713326454
-0.02350684441626072
0.023363620042800903
0.018253320828080177
0.0284956693649292
0.004812763072550297
-0.010721365921199322
0.02105884440243244
0.002098857192322612
0.012589364312589169
0.011688100174069405
0.014382508583366871
0.004404229111969471
0.019120268523693085
0.0048913233913481236
-0.013674993999302387
0.004155830014497042
-0.010462507605552673
-0.019998198375105858
-0.017067138105630875
-0.006618598476052284
0.001087025972083211
-0.014197488315403461
0.02482045628130436
0.015571055002510548
0.023162011057138443
0.0016668695025146008
-0.024840576574206352
-0.008313343860208988
-0.018657907843589783
-0.026950910687446594
-0.022025007754564285
-0.005848391447216272
0.04260271415114403
-0.010017137974500656
0.007050446234643459
0.018689187243580818
-0.023881178349256516
-0.0037688694428652525
0.011455187574028969
0.004913669545203447
0.013214951381087303
-0.020843153819441795
-0.011255046352744102
0.02911868505179882
0.019974304363131523
0.023313654586672783
0.018134478479623795
0.021590255200862885
-0.009850001893937588
-0.0020031847525388002
0.018176615238189697
-0.010017911903560162
-0.026892658323049545
0.01583329774439335
0.008245476521551609
0.012344351038336754
0.015154480934143066
-0.0030050810892134905
0.03047182224690914
-0.014849891886115074
-0.003088264260441065
-0.020510654896497726
0.017912227660417557
-0.0039026744198054075
0.032115429639816284
0.00857339147478342
0.023794936016201973
0.0023449764121323824
-0.006103684660047293
0.02774547040462494
-0.034474700689315796
0.009769179858267307
-0.010755821131169796
-0.015247238799929619
0.019040776416659355
-0.022439394146203995
0.020719537511467934
0.021461497992277145
-0.03134075924754143
0.009307684376835823
-0.01871759071946144
0.00270347623154521
-0.0026485503185540438
-0.018942000344395638
-0.026163652539253235
-0.020615437999367714
-0.011351998895406723
0.021549612283706665
-0.02101280726492405
-0.006663818843662739
-0.004191048908978701
-0.01633169688284397
-0.0007913444424048066
0.0053589376620948315
0.018224341794848442
0.026933690533041954
0.009149016812443733
0.025331443175673485
0.001937726279720664
-0.05437379702925682
0.012760765850543976
-0.0170375294983387
0.02607032284140587
-0.0246892049908638
0.019645189866423607
0.005036940332502127
0.010974081233143806
-0.012660025618970394
0.011286849156022072
-0.047947779297828674
0.011923186480998993
-0.019792338833212852
-0.03212571144104004
-0.009636691771447659
-0.027274856343865395
-0.02908319979906082
0.021789725869894028
-0.008669702336192131
0.01511291041970253
-0.007217051927000284
0.024435151368379593
0.04893876984715462
0.007846537046134472
0.02402106299996376
-0.025618433952331543
-0.012017953209578991
-0.02564331330358982
0.012024999596178532
-0.013527541421353817
0.012401266023516655
0.011672190390527248
0.014693720266222954
-0.001224338891915977
-0.015697602182626724
-0.01474938914179802
-0.016074424609541893
-0.009096781723201275
-0.02046673186123371
-0.014152157120406628
0.010461781173944473
-0.01020683441311121
0.032120481133461
0.007898435927927494
0.013547474518418312
0.0017552083590999246
-0.0039482698775827885
0.0157383531332016
0.004418008495122194
0.007184875663369894
0.010490532033145428
-0.020979322493076324
-0.019867459312081337
0.016407625749707222
-0.007916855625808239
-0.03482550382614136
0.00434899190440774
0.014700323343276978
0.002909339964389801
-0.01408423576503992
0.01133706048130989
0.020909903571009636
0.047895390540361404
0.021037632599473
-0.025309396907687187
0.010824471712112427
-0.007916308008134365
0.010301063768565655
0.014744801446795464
-0.0025531912688165903
0.02454809844493866
-0.0003902308235410601
0.004155486356467009
-0.0018738872604444623
-0.024161575362086296
-0.017393512651324272
0.027471892535686493
-0.014807854779064655
-0.009114476852118969
0.012157432734966278
0.018320869654417038
0.022429989650845528
0.020992474630475044
-0.005493249744176865
0.025117868557572365
-0.009989975020289421
-0.005725557450205088
-0.02300219051539898
0.007165550719946623
0.023601040244102478
0.0017131655476987362
0.007386829704046249
-0.027082404121756554
0.01634691096842289
0.008558360859751701
-0.004168597981333733
-0.02177038975059986
0.012926964089274406
-0.0030601555481553078
0.007726776413619518
0.006169089116156101
0.008604479022324085
-0.02470412850379944
0.02163519337773323
-0.005484623834490776
-0.011693251319229603
0.024504076689481735
-0.02791762538254261
-0.007859467528760433
0.025180809199810028
0.02331385761499405
0.012957735918462276
-0.017349449917674065
0.028046121820807457
-0.021975267678499222
0.019393330439925194
-0.029957082122564316
-0.0013966119149699807
-0.022039566189050674
-0.022633953019976616
-0.026650849729776382
-0.015112222172319889
-0.011690713465213776
0.01224131416529417
-0.023466208949685097
0.014328055083751678
-0.01655750721693039
0.01787610910832882
0.019360115751624107
0.029794668778777122
0.003327722894027829
-0.01821821741759777
-0.020658768713474274
-0.01167544350028038
0.0003609985869843513
-0.022981123998761177
0.018099522218108177
-0.021075302734971046
0.01928185299038887
0.02404562570154667
0.03167295828461647
0.008315558545291424
0.00036078435368835926
0.0005531717906706035
-0.013281922787427902
0.01567298173904419
0.009805547073483467
0.0053816670551896095
-0.006576993968337774
0.025171037763357162
0.007713797967880964
-0.0164641123265028
-0.0017915377393364906
-0.009222958236932755
-0.001401914400048554
0.0031066874507814646
0.01080449391156435
0.004599742125719786
0.009608696214854717
-0.0026646670885384083
0.013540130108594894
0.0006421913858503103
0.0009357936214655638
-0.031095333397388458
0.03582422435283661
0.014171682298183441
-0.025185972452163696
0.01164068840444088
-0.020230723544955254
0.002210143720731139
0.018717125058174133
-0.027889808639883995
0.02061256766319275
-0.006648294162005186
-0.0032041098456829786
-0.019707420840859413
0.01267891377210617
-0.02622242458164692
0.025227457284927368
0.03244737163186073
0.0035329251550137997
-0.005199590232223272
