0.022332848981022835
-0.033118464052677155
-0.07206179201602936
-0.05598749220371246
-0.014152283780276775
0.04406600072979927
-0.022451840341091156
0.038520198315382004
-0.04878292232751846
-0.09245776385068893
-0.008199122734367847
-0.030018631368875504
0.025376679375767708
-0.06411807239055634
-0.037246257066726685
-0.04319014772772789
-0.03703918680548668
-0.06823227554559708
0.04002995789051056
0.03440491482615471
0.05534907057881355
-0.021741002798080444
-0.03440224006772041
0.017436031252145767
0.021860284730792046
0.0450756661593914
-0.0708981528878212
0.06665515154600143
-0.04244952276349068
-0.009486454539000988
0.0931490957736969
0.015490314923226833
-0.00854073092341423
-0.05121682956814766
0.07863039523363113
-0.04862028732895851
-0.003032952779904008
0.08126383274793625
-0.07130978256464005
0.07422611117362976
0.04484550654888153
0.061094604432582855
0.005821238271892071
0.08254353702068329
-0.0121768144890666
0.03042609617114067
4.9358528485754505e-05
-0.0027598643209785223
0.07530315220355988
0.00817796029150486
0.07849933207035065
-0.015411010012030602
0.062080904841423035
0.007803718559443951
-0.029869042336940765
-0.022146884351968765
0.06471382826566696
0.07111967355012894
-0.06204382702708244
0.014544744975864887
0.09433262050151825
0.0035844724625349045
0.05865081027150154
0.03820927068591118
0.0836157351732254
-0.016757600009441376
0.08641592413187027
-0.054691556841135025
-0.06892615556716919
0.058035366237163544
0.01952977292239666
-0.08363235741853714
-0.016345618292689323
-0.06353776901960373
-0.039264876395463943
0.031829584389925
-0.022211497649550438
0.01434338465332985
-0.01486457884311676
-0.06432012468576431
-0.05820392444729805
-0.0004999405355192721
-0.004481432028114796
0.04566506668925285
0.04112051799893379
-0.050725314766168594
0.05819287523627281
-0.03634889796376228
0.061657924205064774
-0.005911306012421846
-0.04936780035495758
-0.07286222279071808
-0.06350917369127274
-0.008796832524240017
-0.0052579911425709724
0.052864477038383484
0.033112939447164536
0.009691986255347729
0.039503347128629684
0.0367409884929657
-0.02044600620865822
0.06466033309698105
-0.009158583357930183
-0.07083488255739212
-0.017294637858867645
0.007055612280964851
-0.04266107827425003
0.043179623782634735
0.02537168562412262
0.008461170829832554
0.024051755666732788
-0.051268789917230606
-0.05726223811507225
-0.04657473787665367
0.017236188054084778
0.060911986976861954
-0.01911698654294014
0.07455621659755707
-0.061363931745290756
-0.0035125550348311663
-0.0517573207616806
-0.06440047174692154
-0.03900982066988945
-0.03196116164326668
-0.01980338618159294
-0.00132335617672652
-0.013539253734052181
-0.07499656826257706
-0.010880344547331333
0.07994506508111954
0.07909423112869263
-0.00849856249988079
-0.08147350698709488
0.0495447963476181
0.06910982728004456
0.044840727001428604
-0.014217877760529518
-0.023038892075419426
0.0657932460308075
0.027075286954641342
-0.02369050122797489
-0.06522701680660248
-0.05275958776473999
0.043774720281362534
0.04563947021961212
-0.008963029831647873
-0.029058558866381645
0.0032401017379015684
-0.062213484197854996
-0.022269107401371002
0.014484226703643799
0.016836518421769142
-0.04858168959617615
-0.008655652403831482
-0.020881598815321922
-0.08832237869501114
-0.05907696485519409
-0.07107290625572205
-0.02535545639693737
-0.020448995754122734
-0.04176695644855499
-0.06838929653167725
0.023683052510023117
-0.0866287425160408
0.011660956777632236
-0.002013097982853651
-0.07535228133201599
-0.020027562975883484
0.0411837100982666
0.029173530638217926
0.08016384392976761
-0.03719666227698326
-0.03159378468990326
0.07982418686151505
-0.05732102692127228
-0.04399711638689041
0.02811506763100624
-0.013074187561869621
0.06062106788158417
0.001858504256233573
-0.0015300688100978732
0.006354069337248802
0.05201582983136177
0.05115653946995735
-0.02138839289546013
0.07638974487781525
-0.036016952246427536
-0.043246105313301086
-0.06078362464904785
-0.05110027641057968
-0.005908087361603975
0.04020128771662712
0.012966073118150234
0.03812526911497116
-0.06628451496362686
0.0060617937706410885
-0.016360411420464516
0.030206212773919106
0.07117442786693573
-0.04503314569592476
0.06821677833795547
0.06753042340278625
0.006322070956230164
-0.004071506205946207
-0.08673332631587982
0.05181311070919037
0.09006324410438538
0.05440566688776016
0.061581991612911224
0.028011934831738472
-0.06898040324449539
-0.03863462805747986
-0.04085175693035126
-0.08335860818624496
-0.07863973081111908
-0.05265418812632561
0.009404079057276249
0.009977714158594608
-0.020673446357250214
-0.01831153780221939
-0.06760019063949585
0.06251263618469238
-0.00964448694139719
-0.022463377565145493
0.06224300339818001
-0.03558412566781044
0.04953964799642563
0.06439412385225296
0.08191129565238953
-0.01988011971116066
-0.005557257682085037
0.06856103241443634
-0.009571238420903683
-0.06302813440561295
-0.06434991210699081
-0.001318856026045978
0.016756415367126465
0.006833769381046295
-0.02299632504582405
-0.02884465828537941
-0.019356174394488335
0.06473518162965775
-0.07580219954252243
-0.00486953929066658
0.02241254597902298
0.040372587740421295
0.01347389817237854
0.07381364703178406
0.07493168860673904
0.0022996203042566776
-0.020258931443095207
-0.02815379947423935
0.019045110791921616
0.08952674269676208
-0.04516933485865593
0.02051318995654583
