-0.01690557226538658
0.026896804571151733
0.013514455407857895
0.0012015232350677252
-0.010503477416932583
0.009795725345611572
-0.03127836436033249
-0.02237676829099655
-0.007127311546355486
0.029152370989322662
0.034410107880830765
-0.02520955167710781
-0.020598042756319046
-0.024188056588172913
-0.02001265622675419
-0.0030561895109713078
-0.008413695730268955
-0.03661392256617546
-0.012555249966681004
0.01027437299489975
-0.03751484304666519
0.010190255008637905
0.008737045340240002
0.02233525738120079
-0.01257928553968668
0.035578496754169464
0.01602110266685486
-0.023415472358465195
0.006573894526809454
0.004004366230219603
-0.00016726288595236838
0.00014430716692004353
-0.026665106415748596
-0.026837646961212158
-0.013895624317228794
-0.03762800991535187
0.003310038708150387
0.0019632738549262285
-0.011655299924314022
0.010244536213576794
-0.021586738526821136
0.036466315388679504
0.027080226689577103
0.00024254927120637149
-0.0032679573632776737
0.0105154849588871
-0.03564012423157692
0.019331103190779686
-0.005452060140669346
-0.009048668667674065
-0.017791910097002983
0.007084494922310114
-0.008193312212824821
-0.025781642645597458
0.04124726727604866
-0.0310042854398489
0.03268776461482048
0.009654010646045208
-0.033859413117170334
-0.027349073439836502
-0.024242205545306206
-0.02577175572514534
0.024184130132198334
0.017300112172961235
-0.025411270558834076
-0.026163984090089798
0.01991093158721924
0.011503555811941624
0.02298973873257637
0.03147980198264122
0.01722918450832367
0.03708307817578316
0.017802204936742783
0.002571316435933113
0.038050275295972824
-0.03156619891524315
-0.017889775335788727
0.012359690852463245
0.007116110064089298
0.004721674136817455
-0.020014436915516853
-0.00965005625039339
0.035080570727586746
-0.022112509235739708
0.019164010882377625
0.027019452303647995
-0.027813097462058067
0.002179810544475913
-0.020827356725931168
-0.011797172948718071
0.032049424946308136
0.012721734121441841
-0.034562136977910995
0.02840772457420826
-0.008190860040485859
-0.016182830557227135
-0.0323745422065258
-0.03846145421266556
0.01816839538514614
0.022647792473435402
-0.029366562142968178
0.031511660665273666
0.014835480600595474
0.042625170201063156
0.02048417180776596
-0.0001825648796511814
-0.03390302136540413
0.013337462209165096
-0.028574541211128235
0.01879011280834675
0.0222956333309412
0.0054768724367022514
-0.006382549647241831
0.03364226594567299
-0.03866910934448242
-0.016924256458878517
-0.011493053287267685
0.012756746262311935
-0.023052578791975975
-0.017159122973680496
-0.018187614157795906
0.00019593886099755764
-0.009918880648911
-0.03495260328054428
-0.03283622860908508
-0.009865469299256802
0.02921491116285324
-0.020424379035830498
-0.02274136058986187
-0.003826141357421875
-0.01297250110656023
0.015593620017170906
0.00707970978692174
-0.03788919746875763
0.033308908343315125
-0.040178779512643814
-0.029969321563839912
0.003516649827361107
0.03249289467930794
-0.017110750079154968
-0.006245939526706934
-0.019331883639097214
0.028967974707484245
-0.0018209577538073063
0.03312072902917862
-0.0037397630512714386
0.022140996530652046
0.0018730355659499764
0.024661356583237648
0.014089887961745262
-0.005223770160228014
0.0032884865067899227
0.03221035748720169
0.03482205420732498
0.026538068428635597
0.02479676902294159
0.024783356115221977
-0.024514004588127136
-0.010229595005512238
0.010962538421154022
-0.0218740813434124
0.014370008371770382
-0.00535621540620923
0.01440225075930357
-0.02889988198876381
0.022302985191345215
-0.023256763815879822
0.021822340786457062
-0.03833678364753723
0.02015799842774868
-0.017423557117581367
0.019902119413018227
0.0002523921721149236
-0.020541831851005554
0.026935627683997154
-0.004485145211219788
0.01136784628033638
0.009268798865377903
0.034961409866809845
-0.02360915206372738
0.014237452298402786
0.009596011601388454
-0.03131915628910065
0.02560325153172016
0.004268448334187269
0.017113737761974335
-0.01840907335281372
0.006176850758492947
0.03422861546278
-0.028542544692754745
0.00878575723618269
-0.033230848610401154
0.004112850874662399
0.015881327912211418
-0.003634578548371792
-0.02503601461648941
0.027136441320180893
-0.024606434628367424
0.024347059428691864
0.01280415803194046
0.021091969683766365
-0.026817839592695236
0.010214743204414845
0.01565069891512394
-0.00448923883959651
0.02910635620355606
0.034776777029037476
0.030901579186320305
-0.017558736726641655
-0.024342253804206848
0.03877080976963043
-0.01999722234904766
0.009596169926226139
0.036057841032743454
0.023179328069090843
0.03058040700852871
-0.026297010481357574
0.02493380941450596
0.026268359273672104
0.008610234595835209
-0.03576868027448654
0.040843166410923004
0.022870218381285667
0.024151943624019623
-0.012265150435268879
-0.00886969082057476
0.020464694127440453
0.01559467799961567
0.02838747575879097
0.03134794160723686
-0.00030929921194911003
0.013205345720052719
-0.013774310238659382
0.026162346825003624
-0.02212582156062126
0.03126727044582367
0.006492555141448975
0.018701184540987015
-0.0071920971386134624
-0.03599213436245918
0.029985714703798294
-0.020116182044148445
0.037188928574323654
-0.01315026730298996
-0.03773532062768936
-0.014189663343131542
-0.02286294288933277
0.03520128130912781
-0.012947536073625088
-0.01506730541586876
-0.010132543742656708
-0.007725872099399567
0.02659515291452408
0.01715361513197422
-0.017935577780008316
0.019872279837727547
