-0.030774103477597237
0.05818810686469078
-0.045427728444337845
-0.06266584247350693
-0.02792029082775116
-0.0023834360763430595
0.11467162519693375
-0.06950962543487549
-8.094107761280611e-05
0.12140993028879166
0.09536930173635483
0.008468925952911377
-5.281977792037651e-05
0.0767698809504509
-0.04361562430858612
-0.07877179235219955
0.022606953978538513
-0.07859709113836288
0.05923762172460556
-0.036807965487241745
0.11017094552516937
0.010772369801998138
-0.08706188946962357
0.015780942514538765
-0.03669995442032814
-0.07090456038713455
0.025517048314213753
-0.06868729740381241
-0.016791872680187225
0.1030447855591774
-0.09162985533475876
-0.052798595279455185
-0.037140775471925735
0.042332377284765244
-0.05614509433507919
-0.013845283538103104
-0.018727127462625504
-0.1055356040596962
0.07665951550006866
0.06337977945804596
-0.029504355043172836
0.03707313910126686
-0.010638808831572533
0.06594034284353256
-0.07972946763038635
0.02350812591612339
-0.10628367215394974
-0.06566784530878067
-0.054273005574941635
0.0217811930924654
-0.005827097687870264
-0.07970436662435532
0.050456702709198
0.04187564179301262
0.004871358163654804
0.011053833179175854
-0.04937126487493515
-0.016231445595622063
-0.052747953683137894
-0.011937807314097881
-0.04780636355280876
-0.017224527895450592
-0.016038015484809875
-0.032957568764686584
0.08380237221717834
-0.08686015754938126
0.052971407771110535
0.025401540100574493
-0.09039806574583054
-0.0802437886595726
0.037330422550439835
-0.06156794726848602
-0.05852401256561279
-0.06473682075738907
0.04817071929574013
0.03972798213362694
0.07914716750383377
-0.04626576974987984
0.013593001291155815
-0.03564082831144333
0.10121256113052368
-7.743237802060321e-05
0.07213268429040909
-0.0026165025774389505
0.04819967970252037
0.007304688449949026
-0.06790269166231155
-0.013348582200706005
0.1385394036769867
-0.032720811665058136
-0.050439879298210144
-0.07908564805984497
-0.0581255704164505
-0.07104218006134033
-0.06260285526514053
-0.14041505753993988
-0.03299868479371071
0.029286973178386688
0.12210456281900406
-0.07372017204761505
-0.028259921818971634
0.08808660507202148
-0.02815334126353264
0.05541134998202324
0.09548314660787582
0.09066645801067352
0.033635463565588
-0.06631708890199661
-0.014865177683532238
-0.032541826367378235
-0.025970658287405968
0.0455390103161335
0.018156222999095917
-0.0033738254569470882
0.030717967078089714
-0.08123593032360077
0.031060844659805298
0.051572322845458984
-0.06119077652692795
-0.02409457415342331
0.02663792110979557
0.08520449697971344
0.08276300132274628
-0.0009164161747321486
0.0466550812125206
0.09760550409555435
-0.011579695157706738
0.10700052231550217
-0.0429757796227932
-0.05076189339160919
-0.0767226591706276
-0.07454891502857208
-0.05409356579184532
-0.0026142788119614124
-0.0033658421598374844
-0.03721974790096283
-0.022618500515818596
-0.035645999014377594
-0.08635584264993668
-0.07421533018350601
0.11383359879255295
0.07163441181182861
-0.045810550451278687
0.019361212849617004
0.08091392368078232
0.0927865207195282
0.06035171076655388
0.09146767109632492
0.0813833549618721
0.05281233787536621
0.047627393156290054
0.07519188523292542
-0.0836176723241806
0.039742566645145416
0.037367064505815506
0.0749693438410759
-0.05768599361181259
-0.10582678765058517
-0.06875016540288925
0.08019876480102539
-0.009255226701498032
0.04562385752797127
0.09388282150030136
-0.00996378157287836
-0.10588270425796509
-0.025875966995954514
-0.02163154073059559
0.10096200555562973
0.02425098605453968
-0.05839597433805466
-0.06792087107896805
-0.012794207781553268
0.010587247088551521
-0.009574477560818195
0.01703840121626854
0.014005065895617008
0.029115954414010048
-0.025025034323334694
-0.03506132587790489
0.05168585851788521
0.06478109955787659
-0.04798095300793648
0.08699841052293777
0.025340579450130463
-0.0944700613617897
0.10047601908445358
0.03457890823483467
0.09723962843418121
-0.08504626154899597
0.08523033559322357
0.05039361119270325
-0.05714631453156471
0.018258988857269287
-0.05443993955850601
0.13235142827033997
-0.04602186754345894
-0.07265888899564743
-0.0695585161447525
-0.0355452224612236
-0.02171259932219982
0.09249701350927353
-0.03211189806461334
0.017753375694155693
-0.019122330471873283
-0.06534995138645172
-0.08559875190258026
-0.013127584010362625
-0.01842755824327469
-0.03768493980169296
0.005205487832427025
0.04648017883300781
-0.06275005638599396
0.006211915519088507
-0.03996468707919121
-0.1318187713623047
0.07676192373037338
-0.09126443415880203
0.0074688103049993515
-0.014502782374620438
-0.08891663700342178
0.032500118017196655
0.08965162932872772
-0.06891729682683945
0.0785796120762825
0.007047042716294527
-0.009346581995487213
0.04126589000225067
-0.02656378783285618
-0.0234913919121027
0.08738918602466583
0.1008496806025505
0.10266557335853577
0.07628463953733444
-0.056022610515356064
0.09296708554029465
-0.1218326985836029
0.0584300197660923
-0.08467867225408554
0.06878537684679031
-0.0002626845089253038
0.06826172024011612
-0.016550293192267418
-0.06447051465511322
0.09194963425397873
0.03382542356848717
0.0135665163397789
-0.0026471682358533144
-0.06378720700740814
0.11335499584674835
0.10142786800861359
-0.01885969378054142
-0.055223848670721054
-0.010209903120994568
0.07497068494558334
-0.03201010823249817
-0.07845443487167358
-0.08208989351987839
0.07686901837587357
-0.07378467172384262
0.05878720059990883
0.1213306337594986
-0.021143173798918724
-0.050453029572963715
0.10912901908159256
-0.04293650761246681
0.03646908700466156
-0.06913677603006363
-0.06739915907382965
0.008882409892976284
-0.00926655251532793
-0.040651414543390274
-0.036363761872053146
-0.0033476531971246004
-0.01996808685362339
0.01859721541404724
-2.3380429411190562e-05
-0.08692781627178192
0.09825728088617325
0.017436891794204712
0.06918177753686905
-0.029581952840089798
0.0434609055519104
-0.03615476191043854
-0.08078913390636444
-0.053229182958602905
0.1334296613931656
-0.014549046754837036
0.0764642208814621
-0.09546341747045517
0.03724342957139015
-0.05397193878889084
0.03837519511580467
-0.009307274594902992
-0.05342905968427658
-0.08601962774991989
0.07129321247339249
0.026466110721230507
0.08731681108474731
0.07227914035320282
-6.117856537457556e-05
0.0720156580209732
-0.07614805549383163
-0.05332375690340996
-0.07983268797397614
-0.06516405940055847
0.0866720899939537
-0.08995725959539413
-0.04680253565311432
0.014288864098489285
-0.10651223361492157
0.10768401622772217
0.032767798751592636
-0.005547539796680212
-0.08496110141277313
0.03592126816511154
0.014326315373182297
-0.0870845839381218
0.09218363463878632
0.09170891344547272
-0.004989690147340298
0.007437275256961584
-0.07350577414035797
-0.06955292075872421
-0.07297516614198685
0.04684930294752121
-0.07495730370283127
0.026708103716373444
-0.07278475165367126
0.03810078278183937
0.11199307441711426
-0.1311090588569641
0.07657869160175323
-0.07847941666841507
0.011065337806940079
0.008605556562542915
-0.0033014242071658373
-0.014549032784998417
0.07068338245153427
-0.024980491027235985
-0.018170081079006195
-0.058935001492500305
0.03888078033924103
-0.08326554298400879
-0.017689552158117294
-0.06691080331802368
-0.04088495671749115
0.009977162815630436
-0.0898561030626297
-0.06544200330972672
0.06304050236940384
0.06668216735124588
0.03961466997861862
-5.973563384031877e-05
-0.07467834651470184
0.10812006145715714
0.05229194834828377
-0.07814666628837585
0.10017964988946915
0.11604330688714981
-0.03814587742090225
-0.10386621952056885
-0.081331767141819
-0.00024480928550474346
0.07978891581296921
0.04015878215432167
-0.02572708949446678
0.03300419822335243
-0.01908845826983452
0.08358778804540634
-0.02629869244992733
-0.07015360891819
0.10951651632785797
0.008635923266410828
-0.04345550760626793
0.09673811495304108
-0.025978587567806244
-0.0570073202252388
-0.04127202183008194
-0.07102003693580627
-0.030397044494748116
0.07939468324184418
-0.012198871932923794
0.06419819593429565
-0.03770660236477852
0.09404293447732925
-0.03920140862464905
-0.05904824659228325
0.008163558319211006
0.0206223726272583
-0.0636172741651535
-0.03491630777716637
-0.06386462599039078
0.10103936493396759
-0.04436830058693886
-0.05915050581097603
-0.08633626252412796
0.06532955169677734
-0.058147624135017395
-0.01891936920583248
-0.0036788140423595905
-0.002865830436348915
0.028936216607689857
-0.04515798017382622
0.011296766810119152
-0.0741388350725174
-0.09603492170572281
-0.011324962601065636
0.005231271032243967
-0.04888266324996948
-0.0942288339138031
0.11896532773971558
0.021788230165839195
-0.08103131502866745
0.05231759324669838
0.05856242775917053
0.07703719288110733
0.03733716532588005
0.06783141195774078
-0.013866585679352283
-0.026286747306585312
-0.06607888638973236
-0.052304431796073914
-0.0702071413397789
0.027165062725543976
-0.059511445462703705
0.03311009332537651
0.04440797492861748
0.022023208439350128
-0.00031704269349575043
-0.050631046295166016
0.11495516449213028
0.10867634415626526
-0.06999179720878601
0.03601093962788582
0.1226191595196724
-2.0769954062416218e-05
0.005404691211879253
0.03417447581887245
0.07378646731376648
0.08806851506233215
0.10680510848760605
-0.02765120379626751
-0.01851866953074932
0.11240098625421524
-0.030332589522004128
0.08216890692710876
-0.08546250313520432
-0.03841586410999298
-0.010562408715486526
-0.036281391978263855
-0.05569641292095184
0.12148691713809967
-0.005181643646210432
-1.470274401071947e-05
-0.07415731251239777
-0.06619905680418015
0.0418589822947979
-0.0538434162735939
-0.06466001272201538
0.040867164731025696
-0.07616756111383438
0.027080800384283066
-0.08581174165010452
-0.05731587111949921
-0.017780348658561707
0.08002139627933502
0.03529827669262886
-0.06978130340576172
0.053305484354496
-0.040921296924352646
0.07721440494060516
0.05371825024485588
0.013519971631467342
-0.08895431458950043
0.021933648735284805
0.07727934420108795
-0.05992230400443077
0.09666833281517029
0.10160306096076965
-0.000898046710062772
0.11613614112138748
0.09970203042030334
0.07974465936422348
0.04523814842104912
-0.0005066645098850131
-0.010261565446853638
-0.009410403668880463
-0.020560747012495995
-0.07389666885137558
-0.10458718240261078
-0.046475354582071304
-0.06292788684368134
-0.051309727132320404
0.07447748631238937
0.11134622991085052
0.10458599776029587
-0.017969893291592598
0.07474848628044128
0.05835270881652832
-0.03947528451681137
-0.04915358126163483
0.08823038637638092
-0.03759845346212387
-0.05093659088015556
-0.03950958326458931
-0.08345435559749603
0.04864885285496712
-0.030689774081110954
0.014387836679816246
0.0708271935582161
-0.09338527917861938
6.911581294843927e-06
