26
21
15
16
29
-7
37
51
18
-1
18
4
30
1
-3
23
36
17
8
31
9
15
23
-6
15
27
8
5
15
24
-14
10
13
-17
21
-14
-3
6
-3
22
-3
26
-25
-2
4
4
-21
11
-10
17
17
10
-19
9
19
-12
-21
3
-14
26
0
-12
1
-8
-13
-10
-25
-10
-19
1
-14
-11
-10
-20
7
25
-18
-21
19
-12
2
-14
-12
18
23
41
38
6
40
15
4
-21
-16
-4
3
-9
29
3
12
18
-20
29
20
2
34
32
14
-1
-21
17
-18
-15
20
-16
-2
-6
-23
2
1
-12
21
-13
-1
-12
2
12
9
-3
-7
-10
-21
-16
-10
-20
-2
17
-18
-14
3
-13
-9
26
-25
-19
-2
14
-5
-12
-2
2
-24
-2
-12
-7
-5
-1
-24
1
-25
18
6
-13
22
-10
1
-24
2
25
14
-13
-14
14
-4
17
11
-15
-9
17
-17
26
-13
-26
5
23
-8
-16
-16
0
-18
-4
-10
19
17
11
16
-12
6
1
23
-14
-8
-9
-15
-10
-11
8
25
2
-17
-3
20
19
-14
11
29
-19
20
40
65
56
62
54
3
-17
-34
8
23
16
1
16
34
-4
-9
-11
18
8
8
15
28
4
-2
-33
-4
-10
28
52
15
58
23
12
46
8
36
11
49
-1
15
47
19
33
43
28
44
65
44
74
50
28
74
33
26
-10
16
-10
10
-17
-17
-3
-26
-16
-14
12
-16
22
-6
18
11
19
-8
4
-12
-11
13
25
-21
-19
17
22
17
1
23
-10
11
34
37
4
-17
9
27
-22
-10
-3
37
30
29
1
-5
-18
25
21
-7
2
18
-5
22
-13
7
26
-5
-9
33
11
-6
-22
-10
18
15
-3
-7
-13
-1
25
-23
26
0
9
7
-15
-19
28
13
-33
-33
0
0
-16
-13
-22
16
-24
52
31
55
45
60
56
63
54
84
10
-12
-25
-12
-8
18
51
17
47
-28
23
-13
27
28
9
-8
28
-1
-21
-2
-5
-14
27
6
-16
19
33
5
15
-26
-10
14
18
10
-5
19
23
5
7
19
-1
12
-9
7
-4
-19
7
-17
28
10
24
33
4
29
17
-3
-23
29
10
-16
-19
-11
-13
23
8
26
30
66
-2
60
62
28
43
12
7
76
25
19
46
3
19
29
14
-12
46
4
-9
27
19
12
5
-18
-54
52
77
39
21
-17
-16
-23
-45
-40
17
48
26
-16
-38
-50
-14
-45
-40
79
16
48
22
-22
-40
80
46
75
41
-29
35
62
36
103
31
-3
51
-9
-19
-23
46
5
16
39
-6
23
-6
-15
-6
0
-8
29
-10
2
8
-13
-3
0
-18
-11
5
1
29
-12
25
-23
-19
20
-2
-1
23
9
11
-21
-20
23
-20
16
-10
-25
17
3
-25
2
3
-8
16
-7
-15
-18
-4
-14
-2
4
17
-18
-10
21
-23
-18
-16
8
-17
-15
-15
5
-1
17
-13
73
50
35
26
41
26
10
15
-14
61
18
34
39
51
4
12
2
22
51
50
31
81
30
23
-13
-17
-15
16
15
-16
-6
-19
-24
-8
5
25
-14
-18
-22
7
3
24
-4
9
-11
-2
-8
25
9
-8
-7
42
-57
14
67
-43
-27
58
-37
-38
99
-50
-54
106
-32
-83
63
-12
-58
25
-21
-6
45
-30
-17
20
3
-33
-2
19
-6
18
-9
-9
-13
-26
0
24
-25
-3
-26
17
2
20
9
-18
-17
-20
-1
1
-24
-19
-7
-25
15
-16
1
9
2
-3
-25
-15
24
-4
-8
6
-20
-17
-8
-13
-15
0
-16
-21
-18
11
22
11
-16
-5
-19
-18
-4
14
-6
-25
4
-16
-16
-22
-14
-19
-2
-30
-24
-13
11
-7
15
-24
10
10
12
15
13
-15
20
32
36
23
99
20
41
122
64
-13
106
13
28
14
18
53
19
-2
-3
39
13
24
24
36
45
84
50
43
27
28
-3
-6
-8
24
20
-4
23
-21
6
-25
-14
-9
-17
-7
29
-7
-6
4
15
-17
28
-21
-14
-5
-9
21
8
11
20
12
-2
-15
-26
-8
9
-10
-2
10
-26
4
6
3
-21
-20
-19
-7
-1
-26
-3
-3
13
-13
14
-12
-6
9
-14
-15
-17
13
-21
18
-10
16
17
-22
5
-12
25
4
24
4
14
-13
-9
-26
-3
-7
-4
7
-17
51
39
21
28
54
33
115
14
45
35
5
-5
55
30
-24
52
32
-21
-16
3
-26
15
-22
10
-16
18
4
25
-13
2
-21
25
1
-26
-25
12
15
2
-12
-25
-18
-1
-23
22
-8
-4
3
3
-12
3
-13
-10
-1
-11
10
13
17
13
-27
9
-49
-8
7
84
40
32
31
32
30
89
26
69
-66
-94
-91
-53
-99
-83
-76
-70
-56
-31
-31
5
16
24
-2
2
-19
7
-39
-39
-26
19
15
19
37
33
27
-16
-14
-24
-18
27
12
-8
18
13
1
-8
-8
4
-16
-6
-8
14
-20
0
15
10
8
4
2
3
-17
-21
-10
23
-13
-22
13
8
15
0
10
44
41
69
6
20
67
14
28
28
-24
-17
-17
-19
-48
-10
-8
-49
-31
-37
-38
-14
-14
-25
-36
-42
-20
-13
24
-16
-22
-12
5
16
9
-22
8
-26
14
-10
-1
14
-18
-25
-21
-7
-22
1
-19
-20
-4
8
-24
4
-11
3
4
49
6
53
30
-10
50
50
1
18
49
5
19
38
-14
15
32
29
40
-7
9
-7
9
25
11
5
57
20
-23
35
-15
-8
47
-23
-9
26
5
8
33
-20
-9
34
-18
8
54
-14
-12
27
16
-17
13
4
-12
16
24
40
-8
-20
-3
-25
-20
15
4
28
35
16
-37
-29
-28
15
-9
9
40
16
-9
-5
-31
-4
0
-24
-3
27
2
-1
1
20
26
-25
3
23
26
-23
6
16
23
28
19
-24
8
11
25
20
-9
-2
-14
21
22
-1
32
12
15
21
-10
-41
-40
-20
61
68
46
45
36
22
-43
-40
-25
13
14
-5
10
17
-19
-24
7
-13
44
48
-35
37
55
-33
5
28
-1
35
5
-35
9
-1
-12
-12
9
16
13
3
-15
-2
12
-26
-6
-14
11
24
-22
-18
-3
15
-17
-5
-24
10
-17
48
43
-1
55
17
-18
48
48
13
-3
19
-7
-12
-21
-9
15
-21
-25
-8
-7
3
-24
0
-10
4
22
25
12
-4
0
15
-20
-1
6
-6
15
14
12
14
-19
22
18
-10
20
25
-3
11
1
41
23
-14
8
-8
-6
47
45
9
26
-4
-15
11
5
58
90
82
50
77
45
35
39
9
-21
-4
-25
41
-11
36
-11
14
25
-15
-24
6
43
40
44
4
-9
-6
-16
18
-7
13
2
13
4
22
28
58
21
43
70
-8
33
8
76
-5
57
51
11
12
33
62
80
-4
30
48
35
40
26
47
6
37
18
38
35
-3
0
-17
4
-32
2
-17
-7
-4
47
27
-21
13
6
-16
7
-9
-14
-26
40
-35
-18
41
-44
-22
17
-48
-62
-69
10
48
34
15
52
55
-51
-74
-51
9
57
55
31
43
37
-43
-36
-27
-18
48
24
1
-15
-8
-9
-9
23
27
-19
4
4
-1
26
-6
-5
11
-6
22
0
48
46
58
1
23
-14
-16
12
-19
25
35
34
37
46
2
52
46
38
41
39
36
36
32
7
32
25
30
-2
-3
15
19
38
19
40
10
7
-7
21
-4
-7
-2
-13
-1
1
-1
17
0
-17
-19
19
22
-13
10
-21
-11
-10
4
20
-3
6
15
6
17
-23
-8
-23
8
-3
24
-6
30
-18
29
13
-17
-14
28
-10
29
5
-14
22
0
-8
-2
18
4
25
-20
23
-19
10
-16
-26
2
-15
-21
1
-17
0
-33
-11
63
91
2
19
71
0
-17
26
9
19
87
1
29
73
23
24
20
6
-3
-34
-12
24
-17
-21
-30
-43
-30
-19
25
43
35
28
20
-55
-15
-19
4
26
19
24
17
59
-1
-34
-34
20
-3
24
7
-8
3
-8
-11
-21
-26
23
0
-6
9
-26
-2
18
24
-15
-1
12
-10
15
8
17
-1
-19
25
32
27
27
12
34
-19
-24
24
23
-7
-4
28
19
29
15
10
6
-21
9
-15
13
29
10
9
-17
6
15
4
21
-4
-17
-1
11
-9
-19
20
-9
0
40
11
-23
29
-14
-11
-19
-8
-23
-5
-7
-17
21
-27
19
-38
-31
-21
7
10
-22
-29
-31
-7
41
25
-7
65
35
25
35
43
24
12
-17
-23
29
-1
-1
34
29
-6
19
-9
11
21
4
-14
26
5
18
-10
32
30
3
5
-5
31
-2
-11
8
-21
4
23
28
13
17
23
-12
-2
-21
4
40
34
40
35
17
42
-26
9
4
34
52
37
40
19
39
-7
-20
-25
38
21
24
7
31
37
-19
9
-8
-9
9
18
-10
3
-21
11
15
-12
-19
20
-22
0
2
-18
-24
16
-17
18
-25
-7
13
-3
-1
-1
-9
-5
13
3
4
2
11
-13
-5
-17
-2
7
-4
14
-4
25
-4
-6
5
-19
1
-24
-11
10
-23
2
-13
-19
27
1
30
3
13
18
0
-25
-22
-6
-3
-10
23
-17
-22
13
29
4
32
-17
5
27
26
30
8
7
25
-3
-21
-26
3
-11
-10
-11
-2
20
-23
18
2
-12
-1
24
-17
-10
-24
21
8
-22
-22
-1
11
4
-32
-4
-24
31
5
20
12
0
27
10
-2
-3
3
3
15
43
-13
10
-36
-33
-9
18
-20
-25
-14
0
4
37
5
17
-4
24
-20
-12
-26
5
7
65
49
-7
39
3
-13
-16
-25
29
44
22
11
17
12
-21
22
-32
-3
-24
0
36
7
-19
-22
-22
22
19
6
-22
13
-7
6
26
16
-24
87
38
59
90
50
63
94
56
38
9
11
-2
19
41
53
48
81
86
-3
-8
-4
16
1
2
-5
52
56
-8
-5
14
-12
-16
4
-12
8
-5
9
-8
11
-1
23
-7
17
37
7
-15
21
0
16
6
4
-1
0
0
-7
7
-22
-16
-22
-12
-7
-26
17
1
-6
0
-40
29
3
-6
-14
20
8
30
-19
2
25
-14
-3
31
40
-31
25
28
-21
45
21
8
49
46
-1
10
-5
12
-8
14
13
3
19
-5
-13
-15
18
21
19
-23
-16
-3
9
4
-7
3
19
18
16
-1
-17
-4
-18
13
-13
-14
15
-26
-8
16
-16
31
49
-5
-3
37
-1
-5
31
0
8
55
-21
-20
44
15
18
38
89
-74
-39
101
-73
-37
59
-41
0
65
-88
-29
61
-87
-61
68
-85
-30
72
-43
12
95
-61
-47
77
-47
-20
6
-14
-24
-25
9
23
16
-14
5
21
-24
-16
17
15
-2
-26
11
-22
5
-11
-15
23
-15
-26
21
5
7
20
22
18
-9
-2
21
-21
-9
19
-20
25
-23
17
13
-21
25
-6
-6
20
18
-25
-25
-12
-17
-18
-17
8
-25
3
26
25
43
51
19
-13
16
-20
10
-2
-2
36
18
-3
-8
22
-1
7
-29
-1
6
8
-15
30
13
11
16
-18
-15
4
12
3
-21
3
16
-3
-23
0
-8
2
27
-16
-21
10
25
-14
3
-21
11
-24
-4
-11
47
36
31
-14
64
51
37
60
61
16
7
54
9
67
33
36
9
50
19
0
77
65
13
-24
-3
-5
45
-23
18
-18
30
-5
-14
11
1
-3
-14
-21
-4
16
-11
-8
21
16
-5
22
19
2
4
-10
-4
1
-13
14
-21
-3
-23
-23
11
3
-17
22
-10
3
9
-22
11
-8
16
-9
21
-18
5
7
-14
-7
-18
-18
-22
-10
20
-23
23
28
-15
22
1
-4
-20
23
-1
-7
-8
8
12
8
4
21
-23
-20
-6
-17
8
5
22
9
5
-13
44
66
73
66
41
65
-8
15
24
4
41
47
40
39
50
39
15
17
27
1
1
-3
12
33
-19
-23
2
-23
25
23
-19
20
-9
22
-14
-14
8
-7
1
23
-8
-11
-15
-12
-7
4
2
-11
1
-8
20
16
3
21
23
-20
-22
9
18
-5
-7
13
-17
19
-5
-11
-18
-18
-21
26
-26
25
-11
3
11
21
-21
11
2
6
-12
-29
12
13
1
22
-6
6
-24
-18
-1
-1
22
8
94
123
18
-1
31
-19
25
25
21
96
122
-21
0
25
-2
7
-9
-12
30
39
-22
-42
-14
4
4
-12
7
-7
20
-33
-11
-31
32
27
34
26
25
-6
-23
-45
-20
-4
15
19
-11
8
-6
-18
9
21
11
2
-19
-10
-9
-9
7
13
4
-20
2
-5
-13
3
14
16
16
-3
-20
-23
-21
24
-1
6
21
36
30
-2
14
5
41
27
45
56
44
22
-7
21
-16
23
14
4
33
9
29
10
-4
-12
26
2
-21
-25
-4
16
-8
12
21
-18
-10
23
12
-13
9
-11
10
18
-9
-26
-3
18
16
-25
-31
4
41
-10
-6
36
-15
-24
7
11
-3
2
13
-16
-14
36
-24
12
-4
15
-22
27
-2
-26
22
-10
-5
3
16
17
6
19
-25
6
-23
-8
-6
-17
-8
16
-4
-19
4
-21
10
16
18
3
-21
-17
-21
5
18
-19
35
39
49
15
29
-8
6
14
8
-5
25
32
-22
13
11
20
2
7
6
17
12
6
-19
-8
9
-17
20
7
-19
-18
3
16
-23
18
-17
11
-8
1
-10
-10
-10
25
-13
-21
5
5
-17
-7
9
-6
14
-16
-18
-23
-9
9
0
-16
-11
1
20
11
-11
-3
32
30
3
31
23
-21
27
30
1
32
-6
-19
12
11
5
-21
-18
39
31
13
57
66
40
50
72
14
-14
7
-9
39
20
26
26
45
10
-19
4
20
31
30
13
10
42
37
-41
-20
-18
-34
-9
-11
-37
-8
62
17
-6
68
-35
3
55
-3
10
94
-36
-39
-18
-37
-44
-38
-15
-13
-18
13
-4
-6
-22
-3
-18
-26
25
3
-9
23
-1
1
-18
3
-23
18
-9
11
-7
-2
-13
-13
5
22
12
12
36
25
49
2
-19
16
32
6
50
21
17
51
10
-3
13
-3
10
42
16
22
47
-8
-5
-7
-6
11
20
21
21
-5
19
1
9
-18
24
-12
13
5
18
19
16
36
3
18
2
11
-15
-2
-2
22
-4
-23
-15
-10
-5
20
-24
-6
22
16
17
-5
-12
13
19
23
3
7
-16
4
20
-21
3
6
-14
-5
4
1
-9
9
-14
66
-13
-34
-27
48
18
26
27
29
84
38
-11
69
49
66
95
28
10
6
30
1
-33
41
100
-1
-8
35
2
-1
5
3
5
-4
5
-8
5
-10
3
-6
-3
-11
-5
-17
-3
-1
39
49
52
59
63
82
42
64
59
4
-9
24
23
-5
11
8
-12
22
-20
-10
23
24
-19
-15
8
25
-19
5
-9
-10
24
-1
25
-15
27
3
17
-15
27
-15
-14
11
26
24
-19
-19
19
-26
19
-28
-23
29
16
-3
-28
-21
-3
12
-5
-21
16
23
28
4
18
-4
-18
22
10
-6
-11
-13
25
8
-10
-6
-18
-7
-28
-8
27
-20
0
29
18
-3
14
-27
1
18
28
2
6
15
-8
24
-21
0
-6
-22
9
27
14
12
-3
8
10
11
8
13
19
8
28
28
-26
-3
26
-7
-25
-20
-5
-17
23
7
-23
-15
21
-7
-26
-8
19
3
2
4
-5
3
14
10
-26
-6
15
-17
17
-26
-20
3
7
-33
3
-8
-16
-5
-3
-3
15
28
-6
51
58
47
97
85
-9
-6
8
-6
28
0
-4
-9
12
8
-3
-11
-19
-25
-14
19
11
21
17
-25
8
-3
21
-6
7
-6
-23
-20
2
-19
1
-5
23
-1
-19
20
18
-8
-13
-25
-3
-22
-20
-26
-13
22
-25
-26
-24
22
5
12
-19
19
-22
-20
-3
21
-22
12
-13
0
-24
8
5
16
28
-2
23
15
8
2
-12
27
23
5
-11
-22
-13
15
10
63
55
71
52
79
92
48
42
72
7
-23
-6
-9
3
22
-13
0
4
30
47
56
23
-9
27
-12
36
1
36
10
29
-6
11
-7
-13
21
12
-22
-42
-7
6
-37
-21
22
-16
8
11
30
-19
50
49
26
34
37
5
19
15
-4
59
43
-14
50
35
13
13
-29
-20
-2
-29
-24
1
-8
-5
-19
19
26
-8
28
32
18
-4
26
25
11
16
-5
7
-17
-19
16
4
18
34
6
-21
42
52
52
64
40
-14
8
-7
15
8
14
46
29
11
-13
-6
-25
-4
6
18
-4
38
10
16
3
11
1
11
0
-25
-20
11
9
0
-21
0
24
-18
-15
7
-14
18
25
-1
-22
-22
-25
4
0
10
-21
-23
-23
-14
12
16
-12
3
-25
21
-22
-2
-6
-16
9
22
22
-20
3
-18
-2
26
15
31
11
7
0
53
54
39
20
42
36
31
10
7
42
53
35
50
42
32
12
10
-13
27
41
29
34
-2
14
26
6
7
7
-35
1
28
-18
-20
29
-3
-24
3
65
16
5
29
45
-16
56
57
-36
-27
-26
-50
-49
-60
-31
-50
-64
24
28
-26
80
32
40
-8
4
-13
20
-5
-27
43
44
10
13
7
-29
11
-32
-12
87
89
62
3
-24
-35
37
6
5
-22
-25
-13
4
0
-7
-39
-34
-36
2
22
39
28
28
31
23
30
-9
-13
-22
3
8
-5
-13
38
53
2
38
60
-16
40
33
9
-4
38
-18
8
28
1
-22
13
1
13
8
9
30
-5
-10
11
-12
-5
8
-14
-7
-16
-11
-1
-10
30
21
29
25
32
11
-14
17
31
-5
-5
11
-9
-1
12
6
30
-15
29
11
12
-18
-25
24
-12
32
5
21
-15
6
0
-11
32
33
31
17
24
5
-25
28
9
35
0
-6
-20
20
16
16
5
-19
21
3
27
28
2
24
-21
-18
3
-9
-19
-21
-9
15
16
2
25
7
11
24
-4
27
-17
34
