-0.007320757955312729
-0.12068554759025574
-0.06196455657482147
0.07128972560167313
-1.2827723594455165e-07
0.11369146406650543
0.05707016587257385
-0.24210980534553528
0.2039685994386673
-0.14803548157215118
0.11406149715185165
0.02210370823740959
0.08466383069753647
0.061013054102659225
0.042063504457473755
-0.10789061337709427
-0.1740483045578003
0.008652682416141033
-0.1401631385087967
0.2480878084897995
-0.18660254776477814
-0.2512661814689636
-0.07252303510904312
0.15128831565380096
-0.2024669498205185
-0.14040711522102356
0.004322325810790062
-0.1905507892370224
0.14382115006446838
0.19238708913326263
0.09077138453722
-0.15442538261413574
-0.14451582729816437
-0.0914299339056015
-0.1738562136888504
0.21358390152454376
-0.15200600028038025
0.17604628205299377
0.2174360156059265
0.22984060645103455
0.2083691954612732
0.07405232638120651
0.2412237823009491
0.28224053978919983
0.21035556495189667
0.13886788487434387
0.1806648224592209
0.16332267224788666
-0.23703771829605103
-0.033773887902498245
-0.030032416805624962
0.1336115002632141
0.21207542717456818
-0.1810152232646942
-0.13681425154209137
1.1769157026719768e-05
0.13908766210079193
0.16568517684936523
-0.11553198844194412
-0.018590455874800682
-0.03607798367738724
0.09686022251844406
-0.2488320916891098
0.09864237159490585
