3
23
14
-9
0
-18
10
6
-4
1
-18
-8
45
55
45
-25
-15
1
8
-27
9
21
10
11
-12
-19
1
23
30
43
10
2
4
13
-20
9
22
34
1
-5
-1
-13
-9
-9
-20
23
28
4
-9
-20
-15
2
-20
21
-3
38
-4
-44
12
-32
-2
5
10
-18
24
16
-28
12
-33
-3
4
-20
-21
-23
3
-21
17
-8
-12
-15
-14
41
32
7
-33
-15
-28
-20
-15
4
55
54
43
-48
-59
-30
6
12
3
-23
17
37
4
-27
-33
-2
-18
-1
12
-15
-9
-23
-12
-13
13
4
-9
11
-3
-21
5
26
27
-4
-7
-16
-25
14
-3
-2
10
0
10
-8
-5
3
-11
6
-6
-23
7
-25
-21
2
-26
-15
-28
74
40
2
-41
-17
-34
-42
-29
-10
47
29
14
-14
-24
-20
-8
-13
10
-23
1
-11
12
-16
24
1
-32
4
18
-35
-13
34
14
37
2
-19
-22
16
-25
22
31
2
24
-20
-7
5
22
-19
-13
33
-20
-2
-8
-13
-10
21
-11
20
50
-19
16
-17
-6
-4
-21
-2
-14
0
-3
-2
-6
-14
-7
4
20
-13
-17
-23
-3
-12
-11
-36
43
35
61
-19
-17
2
-10
-29
-1
34
27
40
-7
-9
-12
-20
3
-17
-23
-7
-20
-11
-4
4
-43
-30
21
55
40
8
-42
-25
-12
-9
0
16
44
46
-20
-34
-13
-16
10
-21
2
-25
-13
-20
26
29
39
-48
-13
-32
-4
-4
-1
52
12
26
0
-22
-17
7
-29
-21
27
23
-3
15
16
6
24
-8
-20
11
-21
-23
-15
1
22
17
-18
22
24
-2
-13
3
21
42
15
-3
44
-21
8
-6
19
-4
8
-19
14
-5
-16
16
-3
15
-17
1
10
-10
2
-6
3
26
18
15
-7
21
-17
-19
-23
20
3
-3
-26
1
5
-5
15
-23
8
-22
-7
20
-15
-12
36
-32
-18
6
-25
-18
-17
-28
-7
33
-6
-21
28
-34
18
18
-22
16
10
20
-3
-8
-20
-19
21
5
-12
-13
7
-21
-3
-21
-13
-20
2
23
-1
20
-19
-14
7
19
17
10
-12
17
-3
9
-16
5
16
0
-16
15
-13
-7
-19
-9
11
19
22
11
-19
-18
14
-14
-16
-12
-16
13
6
-12
21
5
-15
-15
10
-10
-19
-15
-16
22
-20
9
0
18
-22
21
5
-17
19
-19
4
-19
21
-12
-18
26
-21
19
11
-23
10
-7
-22
-17
-13
24
24
29
-26
-41
-33
11
-7
13
61
43
46
-42
-18
-26
-9
-35
-11
-22
-29
2
37
48
46
-4
13
-33
-47
-48
-7
-11
22
12
15
26
-2
-8
-26
-12
10
-24
9
3
-7
-9
2
-14
-2
-10
3
-12
25
15
34
-16
-24
-26
-32
-25
-25
32
12
41
-22
-2
-6
-27
-28
-25
8
-13
6
-12
6
-21
10
-2
8
-29
36
-39
-65
54
-29
-32
12
-9
-14
17
10
-37
35
-33
-16
23
16
-13
8
-4
13
24
-13
-2
6
1
0
-19
-22
-9
-20
-11
12
-10
14
-19
-21
6
-13
13
-4
-4
4
15
4
-19
6
-17
0
2
18
-20
19
17
-20
16
31
-42
-8
-7
-26
20
3
1
-22
64
-29
1
8
4
-20
-18
-23
-7
20
11
-12
-18
-1
12
-31
27
49
0
-33
-18
-23
-30
-13
-41
20
19
-32
4
30
-4
-28
-26
50
-41
-19
85
-68
-34
19
-27
-34
19
-39
-6
26
-53
16
9
-29
34
0
-17
-9
-6
-18
19
-21
-21
29
10
3
-12
-28
31
-8
17
17
-1
5
18
4
6
29
-23
-8
8
21
-17
9
-14
28
21
12
-21
-3
-4
-12
-9
-1
-9
-7
-6
-5
-7
-3
36
29
-2
-29
-23
5
-19
5
-20
13
43
-14
-6
-30
-23
0
-2
-17
3
30
35
-6
9
6
-11
0
-27
28
33
30
-16
5
-9
-18
-14
-7
-17
-17
-17
8
-13
2
6
0
-5
9
-8
-18
-16
-19
6
17
22
-7
-1
-21
-10
-4
-14
-22
-9
-11
-18
3
11
-11
23
14
8
5
-12
20
18
-9
12
-5
-11
-6
-4
-19
-14
-22
-17
1
-13
13
7
-3
4
-21
14
-10
15
-14
31
7
3
-15
-4
-2
8
6
-2
-13
-14
-15
4
3
16
-11
-7
0
40
34
16
-25
-26
16
0
-11
5
23
26
-24
7
-9
0
11
4
-2
-2
25
-1
19
10
28
20
-3
37
6
-10
-8
34
-19
15
0
-15
11
39
-1
2
26
-19
12
9
9
1
2
14
16
28
10
17
20
-1
0
33
37
3
4
-15
9
-20
24
1
-17
30
-6
0
5
34
62
43
-40
-50
-39
-28
-28
-11
18
39
44
-54
-47
-52
44
6
3
-17
-40
-31
-16
-39
-1
45
-5
-8
-1
14
-4
-8
-11
-1
13
-4
-7
-8
-2
6
8
-20
16
16
6
-2
-3
-6
5
17
-16
7
10
8
12
-12
5
-10
48
49
17
-9
-4
-17
-24
-36
-20
-12
3
-4
-32
-41
-2
0
-17
-21
-21
10
-10
8
1
-5
14
-12
28
29
20
27
-19
-4
-2
4
15
17
12
-4
36
8
-15
-23
-10
-17
-10
18
18
-21
-7
-20
6
1
17
-17
-16
-7
21
-6
-18
24
17
-26
5
74
-57
-48
20
-28
-9
22
-19
6
69
-78
-46
16
-17
16
0
-21
3
0
-15
-6
6
9
4
10
-7
-31
-32
28
15
-3
-26
-24
-18
-22
-21
-16
50
30
-1
19
3
-24
-1
-7
-9
-4
-21
35
20
38
-21
-35
-30
-55
-44
-57
30
45
34
-5
16
0
-4
-22
-14
-19
-7
-21
-4
-4
-18
37
43
36
-13
2
-7
-5
2
-18
17
16
23
10
-10
5
-11
-1
4
6
3
1
-22
16
-11
-2
-16
-5
-24
11
24
-8
2
25
-16
6
-7
6
14
4
16
-2
18
5
-14
-5
22
-12
12
-3
11
-10
-12
26
2
19
-4
-20
10
-12
-23
27
2
0
-20
-21
27
-1
12
-13
30
6
-12
-16
17
34
35
38
4
-5
-19
8
-3
-24
-21
0
-7
7
29
-4
51
5
-17
27
-22
-15
-20
21
-13
34
-27
-39
11
-21
-7
0
-19
19
1
5
-14
-17
23
12
29
24
6
-13
1
0
28
35
28
27
18
13
-5
-9
1
21
19
14
5
-5
-12
-13
-8
-4
-17
12
-9
4
-20
-11
2
-9
12
48
-22
4
26
-24
-28
10
6
4
40
-23
2
22
-22
-24
-22
-35
-12
-29
-23
-8
-27
24
7
21
33
10
25
16
0
21
-3
-33
-35
-34
-32
-17
-27
-19
-18
4
30
23
33
30
8
-15
-11
-18
2
-2
-17
1
-14
-4
-10
-22
-20
-12
11
18
-16
-21
-23
-23
-7
-23
1
-16
29
-19
-28
17
0
-14
-26
18
14
2
-26
-33
16
-14
10
-17
-21
-1
-9
-18
-17
14
5
-23
28
-7
-16
-4
-23
10
-8
-5
-2
-19
34
-45
9
35
-56
-14
42
-37
-4
42
-45
-6
43
-43
-10
32
-31
15
-21
0
-10
-1
-20
5
-16
7
-12
29
28
-23
-10
-22
16
0
-7
-4
-11
23
10
-16
-13
-24
-23
-4
22
-14
18
-22
15
-21
-8
-8
-1
7
-2
2
1
-16
3
-24
-4
5
-10
17
16
30
-17
-8
6
-12
17
-4
2
-11
-20
-16
-9
4
5
63
32
-32
-23
-13
-6
-11
-6
20
49
18
13
7
-9
15
-14
3
-3
0
0
25
10
15
-12
6
21
-20
24
19
-6
-20
4
2
6
4
-15
-4
7
-22
-18
-13
-6
18
10
-10
-21
-4
-14
-9
0
3
-13
-16
-22
24
6
-25
7
12
-26
10
-11
4
11
-11
-16
14
16
18
1
-4
-24
-7
-25
-22
-11
-21
9
-21
-2
-5
-22
5
-1
14
-7
-6
3
-19
-4
2
-23
-9
-15
20
-15
25
-4
-14
-9
8
20
-10
-8
8
-17
10
-18
5
-4
-19
-12
0
6
-23
0
-2
-17
-10
25
5
-1
4
-14
2
22
-6
-9
4
-24
-9
61
3
11
22
-2
4
-2
-14
10
35
25
19
-4
-1
3
-20
-10
6
5
4
35
4
11
0
1
-12
-20
65
18
-2
-12
0
-27
-11
-30
3
38
31
58
-6
-19
-24
-24
14
9
-1
-6
58
-6
-12
-25
-37
-24
-12
-33
-29
-31
-51
-49
-52
32
18
7
30
27
31
45
41
50
-44
-31
-17
-35
-30
-27
-48
-66
-48
3
-7
-6
-5
-11
-22
11
-7
-15
-21
-26
15
-17
14
-13
-10
39
-19
-18
-28
18
-12
26
-26
18
25
-30
0
-15
-3
29
16
12
-10
3
-9
-27
-17
-33
15
88
-23
-30
17
-23
-12
-19
11
8
0
14
15
1
-13
9
-23
-8
-13
5
-5
5
3
3
-14
-5
-34
-29
-35
-12
28
17
41
-7
-31
-2
19
19
-1
-3
35
34
-20
20
2
-3
20
-10
-15
19
-12
8
-5
-5
-3
-4
-9
13
0
-24
-21
-6
-1
2
-19
-16
6
3
-16
-16
11
8
-14
-16
4
6
2
-10
-17
7
8
36
21
38
0
-10
-1
7
-13
23
49
35
33
16
15
10
24
-21
-9
8
21
-7
-23
-18
0
20
-7
-11
-2
-23
-16
36
19
4
-20
-3
-20
-21
-7
14
38
38
12
-51
-18
-46
-81
-35
-7
55
29
3
24
19
33
-87
-68
-28
56
42
1
43
37
71
-40
-67
-74
-12
-10
-2
31
23
-19
13
29
-7
14
-10
-9
5
-5
-19
-8
-26
-28
22
1
-14
22
-10
2
18
20
-17
14
-13
9
-11
-5
-16
11
-1
22
39
18
55
-15
-41
-30
4
-15
-5
18
22
23
-16
13
12
-6
-5
-3
-23
-12
0
4
2
-3
-17
-8
-15
-13
19
-4
17
20
-3
-20
-9
5
2
6
-21
-8
16
-5
-13
-21
2
20
-1
-3
13
9
-12
0
-9
12
-4
5
7
-18
-17
-19
8
-11
11
17
-8
-9
-15
-12
4
-25
22
40
-18
-6
29
-9
14
18
5
28
-4
-2
1
18
8
-19
16
-4
11
6
12
2
-2
-6
-7
-4
-9
-4
-10
23
-16
22
12
-8
-31
-27
-38
29
16
18
27
35
10
-8
-83
-82
12
43
19
-17
27
40
3
-68
-58
22
25
35
2
5
18
-19
-6
1
8
13
11
-20
16
10
10
23
20
8
-23
-3
-12
23
22
2
9
-20
-2
6
-11
-9
-14
-1
15
2
-15
-10
-3
11
-1
-1
15
-11
-23
-5
23
-22
-14
17
-4
10
-4
-9
-13
19
-22
30
49
10
-6
5
21
-6
0
1
6
0
-16
11
-7
-19
26
-24
25
-11
-9
-4
1
-12
0
0
-16
-10
-15
3
6
8
-10
6
-8
23
-6
4
-18
11
-19
8
55
10
53
-2
-26
-11
22
27
27
45
6
47
-36
-23
-20
3
21
17
11
23
20
19
7
-17
7
-9
-7
6
19
3
-4
-17
4
-18
-13
-9
-6
7
9
20
-12
16
-20
-1
2
15
26
-11
21
9
22
22
-15
-3
-18
-4
15
14
12
0
-19
-23
-16
18
-21
-23
-19
7
-3
-18
14
12
21
27
1
6
-14
8
20
19
20
26
19
8
13
-22
-10
13
2
13
20
-14
26
-13
19
10
-2
20
-20
14
7
-5
22
-2
-9
5
-19
-4
14
3
-23
-24
12
16
15
15
17
21
-3
-1
-20
-23
13
58
17
-23
40
-44
-39
-10
-29
-26
29
20
47
13
-43
6
-19
-39
-18
-23
9
54
-24
-17
23
-20
-13
-15
18
-35
-2
37
-1
-31
4
20
-4
6
-27
-26
51
-22
-18
27
10
-3
-5
-23
15
-17
11
-2
-7
2
7
9
-23
7
-4
15
22
-8
-15
-13
-2
9
-11
2
-8
-4
5
-13
19
2
-18
-12
-4
4
10
-4
16
-5
-16
7
20
7
-4
-23
7
-12
39
11
-5
-4
-12
-3
-27
-23
11
31
-10
5
-21
-19
13
-5
4
-13
-1
-1
1
-19
-21
-7
-11
-17
-18
10
-13
-38
-35
7
43
31
-11
-28
-33
-19
-39
-18
10
66
64
-16
-24
-39
13
-1
-13
-6
19
-1
-22
4
17
2
6
-3
37
-3
31
14
13
-12
8
2
1
35
27
25
11
-9
-15
-20
22
-23
-8
-3
-6
9
17
-19
-16
-12
4
4
10
-4
-12
10
17
-8
16
-8
1
-7
8
-19
-22
23
17
18
-18
5
-15
12
-21
-1
-11
29
5
15
9
4
13
18
4
-8
26
7
-7
21
15
1
25
-7
-8
14
-15
-3
1
4
29
17
28
-4
16
-5
6
10
-22
4
9
1
17
3
-22
-6
-20
-5
-8
6
19
9
-43
-48
62
-33
-48
61
-15
-25
28
11
-47
24
54
-67
13
28
-20
-10
28
-27
-9
62
-51
-6
1
-18
-3
33
26
13
-7
-54
39
-21
-59
14
-30
-34
37
-55
-75
19
-8
-24
30
25
34
-34
46
70
-17
-16
-6
-19
-13
15
-1
19
30
33
-16
-16
-4
-5
-26
-17
19
-2
-4
-11
-21
-17
15
-9
-3
-7
-22
-8
21
16
-10
-6
-2
-21
-12
7
-7
-18
1
-6
-41
-43
-28
-29
-2
-15
-18
-16
-2
27
15
-33
77
70
53
-21
-6
5
-15
8
9
24
-7
-9
-6
-17
4
21
8
7
-2
1
0
10
-2
25
-5
9
12
-13
19
20
3
-17
16
8
-10
-31
89
43
-35
-6
-6
-27
-22
-32
-7
23
16
29
-31
-46
12
-7
-17
-7
-11
-17
60
-4
-31
-5
38
-6
0
49
-22
-16
16
-11
2
-49
8
-13
-55
18
5
-21
-11
1
-19
-27
-2
5
-8
10
-19
-17
29
-7
12
-25
2
-15
17
5
-10
-10
-15
-4
3
0
-20
-4
57
36
22
8
12
-12
-18
5
-12
50
43
24
-15
22
2
17
-6
17
17
-14
-13
24
10
3
5
3
26
-1
7
1
-4
20
-14
-12
10
44
13
25
30
-21
-1
6
-29
7
13
-4
14
-27
-16
-35
10
49
35
-7
50
37
-7
-17
-3
-13
11
-1
1
33
-7
-24
-17
-18
-28
28
23
20
33
45
45
-11
-23
-16
8
4
-14
10
27
8
-13
-10
10
-15
6
12
0
-1
5
-22
-22
-4
15
-23
-17
-1
-15
-13
-15
-23
10
6
6
-12
-9
3
-20
7
9
-14
-4
22
12
-10
0
13
16
5
-31
-11
6
43
25
-21
-1
-17
7
-33
-27
-19
53
-17
-22
-25
-13
-8
-3
-15
-6
-12
3
-14
-14
-18
-27
-32
38
18
30
47
32
34
-35
-27
-12
23
8
8
29
-3
11
-13
0
-12
-17
0
3
5
11
-20
-5
-21
4
0
-15
-33
15
4
-1
-40
-35
-47
-10
-23
5
33
36
53
1
-15
-20
-16
-7
-19
-1
0
43
21
9
36
-53
-35
-66
22
30
43
26
21
16
-72
-60
-69
47
24
52
-23
5
-19
-1
-22
4
-18
5
-16
-32
-33
-5
6
-23
-31
47
51
45
-26
-31
-18
-11
4
-11
40
37
19
11
-19
-22
-13
-5
-1
-17
-11
-17
1
21
7
-24
-22
-8
0
-21
3
-15
-37
21
-48
-33
68
-30
-23
31
-5
-28
28
-29
-43
56
-16
-20
33
-17
12
-18
-12
-1
10
-17
-1
-22
-2
-20
-6
8
12
19
-29
-36
-17
-21
-28
-25
45
43
45
14
-28
-3
-22
6
20
7
-2
20
12
10
8
-6
-16
1
21
-9
25
15
-4
12
-15
-12
2
-23
-22
-21
17
7
-18
8
15
0
-14
2
-19
19
-15
20
-4
-5
5
23
30
-11
17
-7
12
-21
-21
9
16
24
5
4
20
0
-18
-8
21
-8
7
-6
2
7
-21
13
-16
-18
2
-19
-18
18
-20
9
-21
-6
14
18
5
-11
9
-18
9
-20
-15
23
16
5
10
-18
0
13
-6
23
9
-14
6
-12
1
4
-22
8
-13
5
9
-23
-2
22
8
12
44
-22
2
7
-29
-20
-1
-23
-17
46
-9
-21
7
-29
-2
-12
-11
27
8
-17
-7
-13
5
18
3
-23
0
5
7
22
-21
-11
2
17
-10
13
-9
-6
17
7
-9
-14
17
-9
20
-2
16
-4
18
11
-5
20
22
-10
6
-19
-5
12
4
-17
15
-4
-16
14
-21
-1
20
-6
-7
14
26
3
-8
6
8
23
-6
14
22
8
-6
21
23
-6
-3
-13
19
11
-25
12
-7
12
6
-14
-18
-15
2
-25
30
-5
5
-12
-24
22
-20
-16
2
-7
1
-1
9
26
-17
-11
8
4
-11
-15
-14
-24
58
43
-37
-22
-5
-3
-22
-8
3
6
60
2
-27
6
-28
4
-16
7
-32
12
54
-1
-21
-3
-20
8
-17
47
25
44
-38
-55
10
0
-19
-21
61
4
-8
12
-27
-26
24
10
19
19
10
-19
3
17
1
8
40
-22
-6
40
15
-14
-1
11
-1
2
15
21
10
-19
4
-4
-1
22
-20
-12
-2
-11
-16
-17
-21
18
-4
-12
-23
-3
-8
0
3
1
-1
-7
-8
-16
-13
-17
2
-15
-7
-2
-5
4
-22
18
4
-20
-11
14
7
-17
0
7
-23
-8
11
10
-7
-3
7
16
2
9
-10
-8
22
17
-13
12
1
-4
20
-8
-2
17
7
-8
-13
4
22
4
-7
-10
14
17
-5
13
12
12
16
-21
13
14
-8
19
-25
5
-16
17
-1
-12
1
-4
-23
-11
-29
-15
5
48
42
-28
-8
-23
17
-18
-16
46
29
9
-13
-24
-13
-9
-18
-4
5
-23
-1
-16
-13
9
9
5
10
-21
-5
4
-14
-3
6
1
-19
-6
0
11
21
2
10
22
19
3
-24
-1
17
20
5
17
5
24
21
26
-10
-1
-8
-14
-6
16
0
12
13
-13
23
4
2
-19
3
-21
-16
-21
16
20
23
-13
-10
19
-20
-12
-14
14
2
-16
-21
17
-15
-6
-15
4
-19
10
-3
14
-18
-15
25
23
20
9
-10
-7
-7
6
-4
4
1
14
-20
-6
8
-2
-17
18
-14
2
7
-7
-15
20
-2
7
10
-8
2
22
12
-10
21
-2
-14
-12
-23
-18
-21
13
-1
6
21
5
-15
-16
-14
-19
-7
11
-10
-9
13
-4
21
2
9
43
27
51
7
3
5
11
9
-12
26
17
40
-8
6
-6
11
8
-12
-21
-13
21
5
-26
4
47
0
-19
11
-2
-3
-20
-10
-13
41
30
-26
-17
13
-8
-23
-11
-14
32
23
-8
25
-16
-28
2
-7
3
3
24
6
15
-23
-12
4
14
-16
15
-14
-18
19
-1
-24
4
-7
13
7
-4
30
-20
3
13
13
-19
11
0
25
-12
-5
-23
-26
-19
17
-20
59
11
73
1
-37
5
-6
-34
-9
28
-3
-21
11
-53
-7
-14
0
-12
-1
4
-21
4
1
-6
-12
-13
0
-13
-9
-2
41
28
52
-12
9
-12
-5
-9
-21
41
36
44
-19
-14
-17
-17
-19
8
-13
-6
5
-16
15
-16
16
-2
-13
4
-4
12
6
-20
21
24
7
-19
9
24
15
-8
12
-18
-32
1
-5
35
-46
-16
62
-37
-12
2
-15
-11
-23
-59
-3
45
26
-15
-12
-15
-16
-40
10
-11
2
41
-21
17
-22
11
-5
-13
-8
-19
-21
-2
-42
-45
-43
-13
-11
-26
27
-7
42
-38
-12
-24
-18
0
-4
45
13
37
28
-14
-7
-6
-22
18
10
13
-4
9
-13
18
-8
-13
5
-19
7
15
-6
-4
5
-21
23
-16
11
13
14
7
7
-15
5
-14
-13
3
-22
-21
-20
13
20
-20
-20
-17
4
-9
-5
15
32
46
12
19
-5
-10
-12
9
-6
-23
10
3
4
-12
-7
-17
7
-11
-16
0
-38
54
-15
-21
-25
-30
-6
-19
4
-38
58
-31
-16
8
-22
7
-7
20
5
-2
22
-11
10
-20
4
4
35
-2
-22
-15
11
-23
-13
16
-6
27
-7
3
13
-5
-22
20
-4
-15
-15
-30
-9
5
17
-20
12
-19
-20
-24
-9
-27
-16
44
17
55
-20
-14
-6
-14
-22
-18
36
19
51
-2
-27
26
-2
-23
40
-11
1
-9
-33
-34
16
-43
-25
5
59
23
-43
-5
-15
-11
-28
-26
-7
44
27
-26
32
14
-17
-7
0
19
13
3
-16
21
-7
13
6
-14
12
-19
-21
-19
-10
-12
44
-27
4
14
6
-22
6
-21
-22
5
6
-13
9
-7
-7
-16
6
5
-5
-26
-19
-1
-1
-41
2
-44
-26
-42
25
26
16
52
63
20
-18
-25
-18
18
-22
38
-24
-6
-29
-14
-45
-19
-8
42
66
-30
-13
-24
15
-41
-27
-6
57
22
3
-52
-34
3
-23
0
-22
-18
-10
21
-3
21
-19
4
1
-10
18
9
-23
0
-9
-4
-6
16
12
-15
8
-14
-5
-23
-25
-6
-32
-11
9
-18
-9
-8
10
-15
-38
-30
8
-21
8
46
36
52
-26
11
-26
-15
1
-10
-5
-13
10
1
-20
18
-6
11
-9
-21
-5
-16
9
-17
15
6
-6
-21
-6
-5
5
-22
22
-5
-5
3
15
-3
24
13
-22
6
-8
21
-1
5
16
-15
-8
-3
10
20
-8
10
7
17
-7
-19
18
-10
-15
21
26
-15
-1
-17
-22
16
-3
14
-23
-23
6
-18
15
-2
3
38
-2
-10
-3
5
1
-26
10
-20
33
22
-19
23
7
6
-15
-12
7
-1
8
52
8
66
-19
4
-7
0
-9
3
35
30
35
12
-21
4
-7
14
5
-15
-16
-6
-6
0
1
-40
-10
-7
70
7
-13
-22
-29
-31
-43
5
-21
54
27
11
-21
-39
5
3
-30
6
7
-18
-18
-25
-25
12
-14
4
21
4
-18
3
-6
14
11
-4
-1
9
5
31
21
-5
-8
5
-12
24
19
17
25
31
10
20
-5
19
-16
-12
5
-16
-21
3
13
11
-20
-9
-24
30
28
24
-21
-8
0
5
5
23
2
-22
-16
-12
-1
-15
10
-31
2
-24
-2
32
-6
-36
70
-2
-3
-18
-10
-48
37
-47
-54
37
-13
1
-2
7
-9
12
-3
-14
9
-9
1
-9
21
38
-1
-14
10
-12
-14
-19
-5
51
48
55
9
-12
2
-9
-25
1
19
9
29
-2
6
6
13
-5
-20
8
-13
-9
28
-7
5
-19
-3
-18
-7
-30
-9
45
-6
37
8
-17
2
-17
-10
-17
39
36
29
-8
9
-9
40
17
-16
17
14
-15
13
-15
-9
33
26
7
-14
17
15
17
-19
20
-13
-22
-15
19
-16
-17
-3
-20
-12
-19
-10
-14
10
-14
7
-36
-35
-32
-2
-28
-18
21
32
37
-18
-11
-8
-29
-14
-20
37
23
51
8
-7
0
-4
-11
-20
-17
-13
-10
62
43
-10
-43
-37
-3
-24
-23
-20
46
28
-11
-39
-18
-12
-23
-34
-20
22
-3
-11
-23
6
2
21
-6
-9
-13
22
-4
-12
15
-7
18
26
27
3
-2
16
21
-22
-3
-1
-15
17
-8
2
16
3
-15
19
2
20
10
-3
24
20
-17
17
-15
12
11
23
-12
-5
-22
16
-11
-21
4
-14
-14
-13
0
3
-3
9
-18
-20
-7
-9
-18
3
-9
-29
-37
-32
-12
-15
-7
-7
-39
-15
78
56
86
-15
-37
-12
1
-24
-26
-50
-34
-27
48
24
25
-29
-21
20
-44
-34
-24
20
32
6
25
-22
-5
5
15
5
-7
-17
-9
-3
-2
27
-1
41
31
18
19
-13
7
10
13
-7
16
28
-1
-5
-2
3
12
20
-23
-1
-9
-3
16
-3
-5
-4
-16
-25
-5
1
-17
-3
10
0
-10
12
-32
-30
-46
25
18
47
4
-12
-8
-31
-25
-27
19
23
49
18
-25
9
18
13
-7
20
7
-14
31
40
22
29
10
22
-18
-10
17
14
-16
-2
21
-13
5
-4
31
23
9
-15
5
9
-24
-23
-12
14
18
-17
-14
-17
-11
-7
8
51
40
45
6
5
5
1
-29
-33
12
-19
21
8
-23
-19
12
-17
-19
18
-21
3
-24
-21
-22
25
25
27
24
31
16
-27
-25
-17
2
4
17
12
1
2
10
-4
-13
8
-2
-3
-20
12
-22
-11
-13
-20
20
-20
-19
-9
-2
17
-3
23
-19
12
11
0
-17
15
-7
-21
-12
29
17
5
22
18
-21
24
-2
26
39
5
-7
32
-6
-19
28
-3
13
4
-1
0
-6
-16
-11
-4
7
-11
16
-12
-12
-23
23
-4
21
2
20
8
12
-10
-10
22
21
0
-5
14
-8
-19
-21
-16
19
14
15
-17
-16
4
-2
24
1
-7
-4
-16
-22
-31
15
20
16
-18
26
-1
20
-19
-16
-8
3
-13
-7
10
28
29
-1
-18
-10
32
-62
12
25
-26
-1
39
-20
19
6
-43
-12
40
-46
-30
-16
8
-14
-5
-22
7
11
22
-2
-9
7
-5
3
-3
2
16
-1
-5
-19
0
-6
-18
-5
-23
29
50
-16
6
12
-13
-24
6
-7
30
44
-14
62
62
14
-50
-61
-17
-30
-28
-17
28
55
3
-46
-64
-13
-36
-1
-5
13
-26
10
-15
-19
-25
-12
22
-11
-14
-10
-15
36
1
21
31
8
25
-24
-16
-9
-1
-21
-13
6
-1
12
9
3
10
-15
-4
18
11
-14
-21
16
-4
-5
7
9
-10
-10
4
4
13
4
-1
-3
-7
-9
8
-19
21
-21
-18
24
10
-7
11
-12
4
1
-8
-12
35
10
20
35
8
-19
-16
8
14
43
-12
-7
10
10
6
14
1
-21
7
-17
10
-11
-20
0
-1
-22
17
-14
11
-19
16
-15
6
-20
-21
20
16
-16
13
-19
-21
4
-4
-6
-21
-16
13
-21
5
11
6
-20
-25
-17
-2
45
4
-12
58
-13
6
-11
-7
9
28
7
-9
35
-19
-1
3
1
-19
-11
-22
11
-23
9
-12
-13
2
-13
-19
-12
22
-22
-6
23
0
19
-16
-1
10
1
11
-7
-17
-16
-22
7
14
16
-18
14
-13
22
0
-16
15
-24
-1
-22
-12
-1
-3
37
19
38
5
-14
4
-41
-36
-45
41
10
36
13
21
17
-36
-31
-38
-3
-8
-2
7
-25
-26
-22
1
3
44
40
42
-22
-24
3
-22
-27
-12
17
17
35
-25
-19
-25
-6
8
-4
-32
18
-3
-42
-8
51
-47
5
42
13
-38
9
4
-40
49
12
-21
-3
-4
-6
-4
63
-33
-38
37
-20
1
-8
-12
-9
-37
-21
-49
34
24
40
-28
11
-29
-29
-40
-25
51
32
58
0
-10
1
-23
2
-15
-5
-24
-6
3
4
-17
8
-21
-14
-6
23
-19
-18
7
23
-3
-3
21
-17
-8
-5
-9
6
13
12
9
6
9
-10
16
7
-21
9
11
-22
18
11
-22
7
27
5
19
-14
-4
-14
-4
-9
4
-5
-5
19
5
4
4
13
3
6
-7
-2
-3
-10
-2
-2
-5
-6
-9
-16
-36
9
52
14
69
-5
-40
-19
-16
-11
11
34
-12
43
-17
-21
-1
-2
12
14
-9
4
5
-20
-22
24
21
-18
17
-4
-2
20
-3
7
20
12
-17
-3
12
-19
-3
1
-6
6
-40
23
-23
-56
53
2
-46
42
-18
-13
6
-2
-42
31
-38
-23
17
-7
-24
13
-22
-22
-15
9
-16
10
-12
5
-11
-16
48
15
20
-8
0
-23
-17
-6
7
58
14
-11
-8
-9
-9
20
-19
-10
-17
-18
19
6
0
-15
11
16
0
-6
5
-22
14
1
8
8
17
20
29
15
-3
-21
-18
15
2
0
26
22
25
8
17
7
-11
-2
4
4
-20
-21
-2
14
1
-8
-25
-24
-25
-43
-2
-31
-3
33
-7
-6
-32
-23
-41
-19
-13
26
53
18
-9
-21
-21
17
-17
-3
-2
-9
-14
-36
-35
-54
27
36
43
-27
-35
-27
-14
-39
-37
27
29
38
-36
-24
-19
-2
12
-3
20
-17
25
-19
-23
-28
-24
-12
-18
25
-8
24
24
-24
-24
9
-18
5
4
-24
-18
32
-21
-15
-17
-4
-9
7
1
11
21
-5
-2
6
5
17
22
2
8
7
-2
19
-20
16
30
12
21
7
-18
10
-25
-4
36
37
20
20
28
-1
19
-6
17
-15
-11
-32
-39
-36
-26
-16
1
-2
-3
-12
-8
13
12
20
-8
-22
-12
3
-15
16
-30
23
14
14
21
-31
-52
-11
55
35
41
23
-8
28
-18
0
-7
20
6
-15
-3
21
36
20
-21
-17
-23
6
-8
4
-2
0
3
-8
-20
23
-7
-15
17
-2
11
19
17
3
3
20
-7
-7
21
-21
-9
-20
16
-4
26
26
-14
11
18
-7
13
9
-20
20
-5
14
-19
20
10
-17
-3
-1
-19
0
-4
9
-16
-52
-47
-53
58
49
58
-32
-29
-40
-40
-34
-47
39
33
50
-40
-30
-28
-14
-10
4
17
-4
-20
-20
4
7
-20
8
10
34
22
-25
38
48
1
-9
2
-19
25
10
-36
23
27
-39
7
-7
-1
-6
-19
-4
-15
9
-7
-10
-9
11
2
-7
24
20
-2
-21
-11
32
11
33
29
-5
-1
20
3
14
35
-9
5
-3
-21
14
-13
-19
12
-7
-16
-22
42
-2
-23
22
-18
-11
4
-27
-7
20
-4
-18
-7
-11
12
-23
16
12
-9
-11
-16
9
10
-3
22
-13
16
28
15
16
-3
-19
20
2
20
16
22
28
-8
6
17
7
8
18
33
20
25
15
19
31
-14
-9
-23
-16
-6
0
-14
12
23
-17
-22
2
3
-12
17
7
-6
-5
-9
15
-3
-1
-3
13
-6
8
-11
-16
18
19
-5
10
26
19
20
37
0
-15
-26
0
32
33
14
14
19
-11
2
3
8
5
17
15
-6
11
-18
-19
-10
-10
-28
10
30
13
26
-22
-20
-24
-11
-21
-27
51
26
55
2
-20
-12
1
-28
11
-25
13
-20
14
9
-15
-9
-18
20
4
-10
10
-5
-4
-10
-10
18
6
-8
-3
-20
-8
-7
-3
3
-14
25
-11
-6
-11
10
-18
-7
5
1
-11
-13
-3
-22
-11
-14
41
35
8
37
30
6
2
-11
-25
30
35
-9
29
22
10
-15
7
-16
10
14
1
-16
-10
11
-11
-5
8
-22
15
-5
-16
-15
20
7
3
-24
20
-19
-3
-22
10
-10
3
4
-19
19
5
6
-10
-1
-23
-4
-11
3
-17
27
34
12
-1
-1
20
-1
5
9
30
27
31
13
5
-18
-17
1
-9
11
28
5
5
7
-25
-22
7
-8
-37
21
46
-35
2
6
-20
-19
20
-18
-13
73
-21
-10
14
-11
-5
3
6
14
-12
2
11
-1
-23
-25
-26
-35
-35
-38
32
-6
34
-27
-20
-34
16
-10
20
32
25
54
-24
-12
-9
14
35
19
33
22
8
-26
-11
-24
14
8
21
-3
11
12
4
-2
-19
5
-20
-13
-23
2
-5
-13
-16
7
4
-6
11
-16
10
8
33
-26
-10
52
-60
-25
31
-43
-27
20
-33
1
49
-42
-13
45
-28
-8
-12
-12
13
-19
-23
-11
-16
11
-10
39
27
23
-28
-42
-22
-10
-31
-14
54
45
58
-40
-34
-42
-19
-15
-27
-28
-9
-26
68
25
15
-8
-7
-36
-7
-10
-11
46
48
19
-37
-3
-21
-14
-5
3
-8
-11
-12
-1
-21
1
13
-4
10
11
3
-15
-3
3
16
48
14
-31
-64
-35
36
-28
2
-23
29
-11
-13
25
-13
35
18
16
0
-16
5
-16
11
15
12
-23
-13
5
9
-27
12
-28
-48
-18
-23
-9
10
-26
6
-16
23
-24
9
38
34
12
7
-14
-18
10
13
2
-20
13
-13
-13
24
27
-26
16
27
14
-23
-12
-20
22
-12
-9
-18
-22
8
2
10
17
-3
23
13
9
3
15
-21
7
-17
17
14
-2
5
-18
18
-18
19
14
-6
-22
19
-2
14
10
-19
-1
-23
-29
-3
-31
-28
56
6
-9
-29
-35
-22
-6
70
-33
38
-32
-18
-18
-24
-16
-32
91
-23
-35
-20
-9
-13
-17
8
21
-20
19
9
-18
-8
-11
-15
12
23
-18
23
-21
-10
0
-13
9
9
3
5
4
12
-13
-15
-23
-2
-14
23
-12
23
66
-4
-27
10
-39
-25
-36
-7
-3
42
-12
-28
-12
18
-17
2
9
-3
14
-12
14
10
13
-7
-8
19
-8
26
48
33
47
3
14
22
25
-8
54
8
28
36
12
2
8
-8
-14
16
19
-22
26
-21
9
-17
-15
15
-15
0
-23
-22
-58
-41
-14
45
38
0
-51
-23
-6
-37
-14
-12
50
42
19
-24
-35
-19
-17
15
0
16
12
-2
16
17
-8
13
16
8
-15
-17
17
23
7
-13
-18
-5
-17
16
-7
-6
21
-19
23
-18
-23
3
16
-18
-10
14
7
19
7
-9
-9
22
0
32
8
33
13
2
-3
-9
33
7
23
22
-12
1
-13
20
19
20
9
1
-1
-23
5
-10
-12
2
16
-1
-12
10
6
1
-14
-9
-10
21
17
21
-13
-1
18
27
20
19
-17
-15
-1
1
-23
-23
15
22
1
13
29
-24
16
-11
7
-8
5
16
27
-4
0
22
20
-26
15
-12
-19
15
-20
-21
-2
-21
11
-22
9
-5
10
0
-15
-5
12
-14
-4
-11
22
6
-15
-1
18
-10
-16
-11
17
-17
-8
16
5
-19
-2
-16
-9
0
15
27
12
8
19
18
15
6
0
-25
-9
14
30
8
36
38
-20
-12
-14
43
47
50
5
19
28
-3
-6
-20
-23
-23
-22
-6
-33
-19
-16
-2
7
-13
-12
-5
-21
11
13
18
11
-19
9
8
-8
-11
15
-1
3
-5
-3
17
19
11
-21
-6
19
17
4
5
2
19
2
-10
-19
-13
-29
-25
-10
7
-7
-16
4
41
1
-7
2
-25
-29
-43
-33
52
26
59
-22
-1
-29
-29
1
-3
27
-2
47
18
3
15
7
21
8
0
15
19
15
8
-4
-1
-5
8
-4
22
-14
-21
16
-23
0
-11
-10
14
-20
-14
18
-28
-12
16
-4
25
16
8
-10
-4
-3
6
-2
-4
22
17
24
6
-23
-8
3
-8
24
-3
4
26
16
-19
-8
-9
9
11
8
22
-4
-8
-8
-19
2
16
11
-8
11
13
-22
-1
5
-20
4
-6
-15
-21
18
-15
42
19
9
22
35
-11
-12
-5
17
20
21
40
44
30
8
-9
-25
-19
1
34
16
-10
30
20
-7
-5
-15
32
12
-34
21
10
-3
-23
-2
19
40
19
-32
14
1
19
-36
-30
6
17
-18
-20
-24
10
-17
11
6
-16
-19
-3
0
2
-24
-1
-13
-5
2
43
59
-2
-50
-59
-23
16
27
-11
5
9
12
-38
-53
-16
32
32
23
-11
-21
23
-15
9
-8
-5
-11
-21
-10
-20
14
10
-2
-4
23
21
-22
-8
-15
-3
-4
-17
-21
23
-1
-22
33
-35
-10
75
-35
-44
11
1
-19
23
-38
-10
62
-75
34
-1
-26
18
4
-19
-2
-41
-20
75
-20
-2
-3
11
-5
9
38
35
-2
-10
8
-12
11
10
4
36
41
-12
-5
-3
13
-24
-2
14
-11
12
-5
19
-3
22
1
-6
-3
-15
14
-23
-15
11
-22
1
-16
4
-4
0
-15
-17
-29
-19
-18
-29
-30
49
59
72
-6
9
8
-16
25
-4
-7
3
20
-16
0
14
-4
-27
-17
-23
-33
-32
50
37
22
-11
23
13
0
2
-3
-18
20
-18
-3
10
18
-16
8
-3
-18
0
-11
-10
23
16
-23
-10
0
11
-5
-11
22
-15
-19
-1
9
9
14
18
-3
-14
6
3
-3
15
11
6
-3
-22
27
12
-1
9
-23
-5
6
-14
2
14
20
-14
-3
-18
22
-9
21
-5
-3
-17
9
-10
-13
-7
-6
-18
-21
24
-20
-25
51
38
-16
-12
1
-2
6
7
-8
28
-3
-8
-29
-39
-4
-6
44
24
11
44
7
3
15
25
22
0
-10
-12
36
24
10
24
-2
20
-2
10
-11
2
-22
-9
-22
2
10
2
-16
-8
-20
-17
-15
25
10
-2
-31
24
-59
-77
45
7
16
15
7
-25
13
-55
-71
43
47
31
19
-6
-8
0
-14
7
19
-23
1
0
11
-18
0
18
-18
17
18
-2
-17
16
-5
21
10
-23
-21
-15
-19
19
-8
3
9
-5
-21
10
-21
-19
27
-22
17
22
1
-8
1
0
-23
11
27
-5
-22
-19
2
-6
-23
17
12
-4
3
-16
-28
-34
-12
47
30
56
-15
-19
-3
-22
-35
-33
35
11
32
3
-28
4
5
17
-1
14
-5
-17
6
-18
22
21
14
28
-21
22
-4
13
-5
1
-11
-11
-12
8
14
-20
-13
-14
2
-12
-8
-8
9
-2
19
4
-40
-6
61
-14
-21
-39
0
-2
1
-28
-17
56
-4
9
-38
3
-12
-28
12
-8
-1
-16
-14
-23
10
-17
8
-8
-13
12
0
16
10
-2
-14
-15
18
-13
-2
-4
-6
-1
-12
-3
-5
1
-12
17
-8
-6
-18
11
-16
11
10
-21
-13
22
-7
2
5
-5
18
-8
-13
-20
-17
-23
20
-16
-18
7
10
-17
5
-12
-13
1
-5
-10
-1
-2
-12
14
17
-9
18
1
17
-15
-10
-2
11
21
22
5
-1
26
-1
10
25
-8
23
-11
-2
20
-2
20
-24
-3
22
7
27
21
-13
14
12
-15
-14
8
16
20
-20
-9
-17
-2
17
-19
-23
3
-22
-10
10
2
18
7
6
14
29
18
-20
-7
-13
-15
-7
1
37
61
51
1
-13
-18
19
-12
-15
-6
3
-6
3
-3
-1
-14
30
-6
-7
36
-5
20
-22
15
20
35
35
-17
35
10
-9
-13
13
-2
6
-11
-10
-18
5
-20
17
8
22
-20
0
10
-37
60
-13
-2
39
-14
11
1
-25
-35
36
3
-40
3
0
-9
-2
-10
-4
-16
24
-24
-15
22
17
-12
18
19
19
-22
1
10
-2
17
-23
17
8
-5
10
-8
-22
-11
4
2
8
13
-15
21
-13
16
4
23
12
8
-7
-19
-13
-15
-25
55
40
16
-10
-32
-18
9
-5
-11
-25
-16
-13
-12
5
-4
49
43
15
14
-20
2
-9
-16
5
6
0
9
23
-22
-21
12
23
11
-1
18
-2
-17
6
7
6
-4
-23
3
17
-5
51
47
61
-22
-15
-21
-30
-18
-16
-3
-5
14
-54
-51
-66
-13
-26
-26
-1
2
-11
-24
11
-1
-4
20
-16
-14
1
-11
7
-3
-22
20
-23
20
-10
0
-12
-20
-14
18
11
18
-2
-4
12
-6
-4
2
-4
-14
8
9
20
-22
-14
2
16
-8
15
20
11
-14
7
4
-18
-26
-15
29
32
6
-20
-5
4
12
-4
-15
29
14
37
-11
3
-21
-28
24
-9
18
52
-26
-27
-12
-26
-20
5
-16
60
21
-5
-8
-11
-2
14
-14
-3
74
-10
8
16
17
-15
16
-9
9
15
16
-23
26
22
2
21
-16
-2
-16
16
1
17
-8
1
28
6
-18
-13
-5
-4
-24
-1
0
31
25
57
-13
-14
-33
-11
-16
-15
28
13
41
-33
-23
-26
0
-10
12
0
-12
-22
6
2
-18
7
-6
2
43
24
58
-24
-39
-15
-10
-7
-2
23
12
7
-12
-15
-24
8
-17
0
-14
18
-10
0
-8
4
-16
14
17
9
3
-18
-13
10
-14
9
-7
-11
13
-7
4
17
21
-6
15
-21
20
12
3
8
35
32
5
-20
-1
-4
-21
0
-15
-8
7
24
-14
23
6
-2
-5
-20
13
28
5
-4
12
-22
22
-13
7
2
-19
19
8
9
13
-16
-11
-22
14
-16
-14
26
30
26
34
20
-6
-27
-28
1
17
-3
-1
19
30
-2
-8
-17
-7
10
0
-13
-16
8
23
-4
18
5
-12
9
-8
-8
-4
-11
-16
14
19
2
-13
10
-10
-2
-14
4
4
-11
-5
5
31
-19
14
-20
-10
24
28
14
-21
27
24
-14
-13
-16
-5
-17
-12
17
-7
15
-7
-13
19
-12
16
18
-22
-3
-12
-9
-12
-8
-19
-17
-9
10
-11
-10
-6
0
-14
6
4
17
13
9
-21
4
-9
20
-20
3
11
-16
-23
-11
15
-14
11
13
-16
19
-10
21
5
4
5
9
-9
24
16
-15
-9
11
13
16
22
-11
-23
42
14
-4
-15
-31
-7
-34
-11
-19
44
17
37
-36
-17
-18
-44
-40
-41
3
23
42
-9
-28
-9
-14
-13
-24
18
12
-7
-11
7
-7
-13
-11
-21
19
-15
-12
15
23
-4
-17
12
2
24
-10
-9
19
5
11
-18
22
-19
-5
2
24
16
-53
-12
-14
-32
55
55
0
-7
-33
-65
-42
-31
12
55
53
6
-6
-30
-32
-44
1
26
20
-16
1
-3
19
9
-11
1
-2
-5
5
-31
3
12
3
-11
-15
-9
-9
12
-14
-14
30
35
24
-16
20
-17
-11
9
20
-21
-12
21
14
-10
2
22
12
17
7
-13
-20
-4
-14
5
-8
-13
-2
0
-13
8
3
0
22
-13
-17
5
0
-19
7
-16
-10
3
-10
3
36
-24
-19
29
14
7
37
-10
-28
16
-38
-29
34
-4
-3
5
-10
25
24
19
10
13
30
32
32
-19
23
15
22
29
21
22
29
5
16
-11
-12
-7
-23
3
-4
-16
-15
-5
4
-7
-15
4
-7
1
-23
4
-18
-34
-19
63
20
18
1
-31
-9
-4
-22
-32
69
32
9
-5
-15
-40
-20
18
16
17
-14
24
16
-16
-17
-24
-10
-2
-11
12
-6
-19
-27
24
28
2
8
-7
17
37
27
4
27
20
-14
31
50
2
45
-7
-20
-11
17
2
31
49
19
37
-11
-28
6
13
17
8
11
27
21
8
-15
-32
12
-24
-20
30
15
24
-20
1
0
-24
-11
8
9
-7
16
12
2
-4
0
10
20
6
-1
5
-16
-13
-8
22
-19
-6
10
-18
-22
-22
-17
-19
4
-15
15
-13
17
-18
15
9
-3
-22
-12
-9
14
9
-20
9
5
-8
34
24
10
23
-4
34
-19
-3
-17
30
16
5
23
19
24
-23
-26
-28
-2
-18
-1
-15
-18
8
-21
9
-9
-3
0
3
12
10
24
11
-12
8
-7
-5
3
-3
15
4
-9
-19
-3
-9
20
-12
16
-1
8
-3
-22
-12
12
14
-8
-6
8
3
-11
11
-8
11
11
-17
-8
18
-15
10
-24
22
-11
-22
-4
-22
7
-10
14
2
23
13
21
10
20
-21
-22
-9
6
-12
-4
20
-4
-15
-14
-10
23
-21
-18
-7
17
3
-19
-22
0
13
-17
16
-2
-22
4
-15
-20
-14
4
12
-12
-12
-24
-22
46
45
53
-17
-38
-22
-25
-28
-25
32
17
34
-2
-39
-4
6
-11
-13
18
-18
-23
12
10
-17
-19
23
13
-4
2
2
-17
14
-19
-20
-19
24
6
-16
-1
2
6
23
-12
1
48
-12
-6
9
4
-24
21
-12
7
40
40
-6
36
-13
-14
3
8
-6
-17
24
20
-23
4
-11
11
21
22
12
-8
-22
-23
-2
7
6
15
29
13
5
-15
15
13
20
12
-11
-8
-21
3
-19
4
9
17
-19
12
19
19
14
-20
-4
-18
20
11
24
12
-17
-15
-25
-1
-14
-16
-21
8
-4
5
19
0
-11
14
17
-18
-6
8
-21
0
-21
-9
23
0
-18
-18
20
23
16
10
24
1
-15
13
23
-2
-15
16
-3
2
-6
-22
-11
27
3
19
25
17
-13
20
4
3
21
24
0
47
31
50
-10
7
14
-7
-14
12
-3
-13
27
19
-17
10
4
5
-11
-16
-8
14
-14
9
2
45
-4
2
11
-11
-26
23
-30
-8
32
12
-17
-14
2
2
21
-7
-22
1
0
37
-22
-12
3
-23
-8
21
-10
-4
-7
-12
-33
19
18
5
1
-6
-14
1
-16
-23
-8
21
5
-15
-23
13
7
16
-13
-22
-11
-8
-18
6
11
13
-10
-5
-1
-1
-3
19
-2
-1
-7
-15
-3
9
2
-19
-15
-12
-11
0
-17
-10
65
-21
-40
31
-8
-33
2
20
-2
75
-41
-44
19
-5
-17
-7
-9
0
-19
1
-9
-3
17
-3
8
17
1
-14
-12
16
4
-12
18
-12
-3
-7
-17
3
29
-8
-21
-7
23
7
-14
14
-19
-8
27
-1
-4
13
-1
18
-5
15
-21
-12
-17
-4
-14
-21
25
25
-20
-24
25
-21
2
20
3
11
30
-18
-19
22
20
-3
-8
-1
12
1
14
11
5
-2
1
3
-12
12
22
-11
-12
-1
11
4
-8
-4
-13
20
18
-10
10
-11
13
29
3
32
45
-4
-13
-1
19
-25
-3
36
5
43
-7
-13
-37
-2
2
-11
-21
14
14
-18
-1
8
-1
-14
-23
-20
-13
4
11
-18
-15
-20
15
11
-37
-3
-15
-4
4
-16
-1
33
38
-7
15
-17
17
-20
-9
1
19
-16
-7
19
10
-7
3
19
21
12
0
-12
18
-25
-7
-24
-19
19
-20
3
17
-13
17
-14
-12
-21
-14
21
-21
-12
-22
18
-22
-8
0
-2
6
-9
-32
-25
-6
34
35
-3
-15
18
30
-26
0
-26
9
3
-19
-13
-1
21
19
0
15
-18
-11
-21
-9
7
18
21
-8
-5
-14
-1
-15
12
-19
-7
-6
-20
-19
-10
-19
10
-1
15
-13
10
-2
-12
20
-17
20
2
-19
-13
-6
-22
13
0
-7
22
-13
22
-16
-15
-2
2
-3
-17
9
-11
4
11
-11
-11
14
-12
0
-12
-20
-14
12
-7
-17
8
-16
16
-2
6
4
19
3
-1
3
-2
-16
29
14
-11
-4
-19
-16
21
10
-22
-5
8
-14
-1
-13
8
-1
-18
21
-23
-12
-18
-7
10
17
-9
9
28
-16
15
-10
-8
8
3
-16
-10
-12
11
-16
-10
-19
-23
-7
21
9
-9
-10
-22
6
-19
5
-13
3
16
-19
-11
10
-19
-16
-12
1
-23
-15
-10
15
-25
27
-12
-29
0
-42
-4
40
-32
10
28
-24
-30
15
-35
-16
45
-12
14
5
24
18
18
20
5
-2
-19
17
25
6
-15
31
4
-22
3
-27
16
-25
1
8
14
-5
-18
-20
-8
18
-18
-7
0
-11
-1
-9
-3
-3
26
12
0
-9
-6
-6
-21
-16
-9
69
59
-10
11
5
-8
-11
-11
2
19
-22
-6
21
19
11
10
-24
-13
-12
4
-17
-20
8
10
17
14
-2
10
2
18
16
30
35
-5
-20
15
-10
-20
12
19
-14
-17
-18
3
-11
-8
-3
-16
-16
9
-16
-6
16
-5
2
8
14
20
8
-13
23
-6
-6
-6
7
-23
-40
-23
27
-17
23
63
14
-5
-33
22
3
-11
-46
-6
49
34
-5
-20
59
2
-3
-20
-6
-8
1
26
51
-7
-21
-5
-26
-3
-10
32
18
36
-5
-5
14
-16
-2
-5
39
26
25
2
-13
-22
7
-18
-11
-8
1
6
5
20
9
-6
-15
8
-18
-21
-8
-18
-2
-15
-22
6
-19
-4
0
8
-11
4
-14
3
20
9
3
17
4
46
34
18
-7
2
4
8
-9
-4
42
36
21
-25
1
-2
4
-14
16
0
-15
-20
-2
-6
-1
-17
-17
-2
-30
-27
-34
29
44
40
16
12
16
-44
-47
-51
35
32
39
-27
-9
0
1
-22
-13
0
2
3
21
2
21
-14
6
-1
5
0
4
2
-8
12
-14
9
-2
-20
-18
-13
-18
3
-13
17
-16
17
16
-23
19
2
-7
-12
-11
-19
7
-7
-4
-7
41
23
54
-28
-39
-44
-6
-16
-12
30
13
38
-41
-24
-27
-14
-25
-16
-13
-10
-5
-9
-22
11
7
-21
-6
0
-5
14
-22
-8
8
19
-15
4
16
12
2
11
22
-2
-14
-10
19
-21
-22
5
4
-19
16
-20
13
-11
15
11
-3
21
2
-20
8
3
20
10
-8
-14
17
-2
23
-4
1
-11
-1
-23
12
-19
4
0
34
13
3
-15
-2
-1
-8
-19
29
26
14
-12
13
-24
12
2
-5
18
-16
0
11
29
13
25
-24
6
-21
-1
-6
-8
19
67
21
-8
-50
17
-1
-13
-12
24
36
31
-32
-45
25
-11
3
-10
15
-5
4
-9
14
-18
12
34
-6
-16
6
8
-22
13
-14
-12
4
-10
-4
-19
4
7
-12
-22
5
11
-20
-37
-33
-37
43
41
46
-24
-15
-23
-26
-29
-28
45
39
35
-23
-34
-13
-9
6
12
-16
-20
-20
-5
2
-23
-12
10
-10
-16
10
-1
-23
24
26
-34
7
52
-30
-9
41
7
10
53
-29
8
41
-31
-12
36
21
-4
58
16
-10
-12
-20
-10
-16
-23
0
-9
-27
-20
59
-3
-40
19
-2
28
-10
-8
-35
56
-32
-52
31
15
1
-12
-3
-12
23
7
-19
-17
-16
8
-22
-2
22
15
22
14
13
-11
-13
-12
-21
-12
-4
18
3
-18
23
16
17
19
-1
21
70
47
76
-3
-7
-4
-13
-5
-16
-52
-41
-52
7
-10
1
7
-10
-1
-12
2
-2
-15
5
-15
23
0
1
12
-7
-10
5
-12
10
11
-19
17
19
-18
10
6
-21
-10
17
-8
-3
-17
-9
-11
0
10
-8
-32
-37
-11
-32
-42
-37
53
43
31
-17
-21
-21
-20
-20
10
40
12
7
0
-15
1
12
-25
-18
-21
-13
17
0
-8
-11
4
-7
16
-15
-23
8
-7
-24
24
-25
-49
3
23
2
29
0
21
24
-37
-53
-6
25
24
35
3
-9
-7
-12
-11
11
-36
-9
36
-10
20
-21
53
-61
12
28
-56
16
-8
7
-2
33
-45
8
32
-33
-2
-16
-3
5
5
20
14
11
17
25
-12
-1
8
2
-11
16
-16
-4
8
20
17
-9
2
-8
7
12
5
-19
13
11
-14
2
7
-7
-6
5
-16
-28
-22
-36
-20
-4
-18
-2
14
41
-2
-25
-7
18
14
-24
24
40
51
-13
-3
-2
-16
19
-7
17
-3
-10
-9
16
-11
3
-1
-3
-4
-12
4
-1
8
-1
9
20
-4
-12
-13
16
10
-25
-12
25
42
41
-29
-7
9
-18
-4
-24
-7
18
1
-20
2
-8
-10
11
-7
12
-25
2
-20
7
9
55
42
47
2
16
9
-4
-11
-1
32
29
49
0
4
11
-12
-9
-13
33
32
0
0
9
-22
-15
2
-17
-4
16
10
5
-12
0
-8
-5
-12
0
11
-12
-12
0
9
22
29
-23
-20
-20
10
-19
-14
17
9
29
11
-15
-3
-11
6
-18
-13
1
0
6
2
22
-11
-34
-30
-41
-21
-44
-24
0
-24
10
28
19
25
45
47
58
-10
17
-13
-17
-9
-5
16
22
-2
-13
15
24
-7
-18
9
-7
-4
12
-4
-20
13
14
-5
23
7
-18
-3
12
-12
21
-16
-22
-16
-19
-13
-12
-24
7
-21
-19
-13
-8
3
5
-10
-10
22
-12
-1
-18
4
19
24
4
-3
-8
-13
8
-15
-8
-9
-11
-3
6
15
11
0
-11
12
12
-16
26
-3
-8
6
-16
-3
8
-17
-2
11
24
14
18
9
19
17
-5
-23
2
-19
23
-13
-8
11
-4
13
-3
5
-23
7
2
18
5
-10
-16
-17
22
-9
-22
-21
12
8
4
-22
-19
6
2
2
-21
-3
3
1
8
11
-19
-24
-5
2
-25
12
21
6
-4
-23
-4
-13
-14
35
29
47
-11
5
16
-18
-14
2
19
29
27
-11
-18
14
-18
-14
-9
-16
14
6
-9
11
-17
-4
-12
7
-10
12
8
-18
1
2
-17
-7
3
20
-18
19
7
-18
-18
9
9
9
22
13
3
-12
7
5
-12
11
-13
2
-5
-21
1
1
-6
-32
-40
-37
35
18
46
-6
-35
-14
-12
-36
-17
39
40
48
-17
-42
-20
-6
7
4
-3
-1
-18
-8
3
-16
19
13
12
21
-3
13
-17
19
9
-17
-3
-7
-14
-15
-15
-8
15
-14
-5
4
11
27
-6
-17
20
-18
-9
4
7
3
20
9
-1
18
26
9
-6
-10
7
-5
28
19
3
40
19
-1
14
2
-17
0
-13
6
-8
-22
-4
-9
-15
13
-17
16
15
-20
8
7
-9
9
11
15
23
-1
-15
-21
24
-22
-10
6
-12
-8
-6
-6
24
24
-9
3
0
-26
-7
-5
19
-15
-13
-8
4
-24
-2
18
2
16
19
5
22
20
6
-7
4
3
14
8
16
6
1
-16
8
-9
11
-13
-23
0
19
-15
21
-5
5
5
19
-18
-8
16
10
-19
-21
-1
-8
-12
18
5
7
-21
12
-15
-10
11
-20
-22
22
6
12
6
17
1
15
-12
7
12
-15
35
-16
-19
33
7
-24
-25
19
20
6
27
12
17
-44
-32
-5
12
13
-6
23
26
18
-18
-31
-16
9
-14
-22
-7
-5
20
-9
-13
-11
13
-20
-3
27
-6
-20
2
-21
-6
2
9
-23
13
-1
-13
-20
-18
-19
-4
-18
8
31
4
-15
-13
18
-2
-12
-31
7
-12
3
14
-13
20
17
9
6
-23
0
4
21
-12
25
37
51
9
42
-39
-35
-39
-35
-11
-31
41
21
54
-46
-33
-47
-13
6
-19
-11
-21
1
4
-18
-14
-9
-10
1
3
15
0
-23
-6
-5
-14
-2
-5
49
26
44
-19
-33
-18
-15
-8
-13
33
39
40
-17
-19
-24
-9
-12
-15
30
19
18
19
16
12
5
8
-20
15
5
14
-11
-26
10
-20
-3
-7
13
-10
-9
14
3
-23
-12
-19
-15
-18
-22
4
23
-2
25
19
29
-8
24
-11
28
-20
-7
-25
-23
-22
-7
-22
-8
-7
-9
4
0
8
15
-1
0
-24
-23
-10
5
-22
18
3
9
-19
23
17
-15
-7
3
-18
-5
-2
22
-14
1
-18
6
-21
6
-11
-23
7
-11
-3
-6
-16
-12
4
3
-9
11
1
-15
-4
3
20
14
-26
18
26
24
23
19
8
26
-16
18
21
-23
7
42
9
2
7
20
9
8
29
3
41
12
8
27
10
19
2
37
11
-19
7
10
14
-13
18
12
-20
-7
8
19
12
-14
-3
18
-1
-9
-13
-12
5
-14
17
-21
-3
-2
10
-2
-18
-16
11
-3
17
-20
19
8
-11
-15
-11
-3
36
-3
-7
-3
-28
-17
-38
31
-7
41
21
22
25
-16
-1
-11
35
4
26
23
-16
-4
32
29
35
-54
-51
-36
33
32
38
16
19
23
-58
-49
-60
7
3
7
-15
5
-12
19
9
2
-3
-9
12
-23
11
-11
16
-5
18
24
-10
-2
-2
9
-6
-23
-4
2
15
24
-16
-12
11
-13
-14
7
-9
11
23
-9
6
-1
11
11
5
25
-6
15
34
23
9
-9
-12
4
-14
-7
18
40
9
-13
1
20
-12
-16
24
29
-16
-13
9
14
5
4
18
-22
5
-9
-22
-12
-16
14
-23
-4
-19
-1
3
-2
-2
10
5
-9
-7
-23
-20
17
-27
-22
-36
-21
-36
-2
38
14
56
-23
-30
-24
-1
-28
8
28
14
47
-7
-12
-8
-12
7
-9
-23
-13
-17
-19
3
-18
25
-6
23
-3
-15
-20
13
-23
4
21
9
17
-5
-20
-22
-20
-23
9
0
-10
9
-20
18
-17
-58
-22
-44
14
-2
-31
58
24
39
-52
-39
-34
2
-21
-7
39
2
-1
8
5
10
-23
-3
-1
-23
-3
18
-15
-12
-7
4
-23
15
28
8
19
-1
-27
-8
0
-4
-18
19
5
24
-8
8
-17
-11
4
4
-1
9
-11
-14
-5
-23
-16
-6
6
6
-4
-15
-21
-29
-21
10
20
12
28
34
30
-15
-3
-28
22
17
7
27
31
26
-2
-8
-16
13
-28
-24
12
16
17
-18
11
-8
16
-26
10
21
40
-3
7
-23
-1
-12
-8
-21
2
20
36
-9
7
15
12
-8
-15
-23
17
-14
8
-4
-5
-20
3
-12
-14
18
8
4
7
22
-20
-16
-20
18
-4
11
15
18
10
1
4
2
-27
-11
31
19
34
19
-11
8
-15
13
0
24
32
32
16
-2
16
-22
34
-2
-16
21
-17
-5
2
-8
-7
-13
-1
-22
14
26
-16
-9
8
17
-4
4
-17
5
25
-6
-9
-8
8
-1
8
3
3
-10
-8
6
13
0
-5
-5
-21
20
9
6
28
23
10
1
-24
-24
-8
19
19
28
31
45
-18
-6
-9
16
10
-10
24
-10
-11
-18
5
8
-18
-19
-19
25
28
9
6
-11
0
-9
-20
-5
-2
26
31
-13
-14
9
-20
26
-15
-8
6
0
10
17
21
18
26
6
4
16
-20
-18
14
2
-19
21
-19
13
18
-12
17
-17
-15
4
14
9
-4
10
1
7
-26
2
9
-13
5
0
-20
-36
-4
1
15
-12
-4
-4
-32
-28
0
36
23
29
-8
3
-17
-12
-21
-14
-22
-8
-4
-36
-30
35
-57
-13
27
-33
-13
29
-36
-2
23
-44
-1
35
-57
-26
31
-18
7
15
10
13
-12
-21
-8
7
18
0
4
-12
-11
12
24
-21
-13
-7
10
8
3
-19
23
12
-9
-4
4
6
-2
22
28
17
4
58
29
11
12
6
-5
33
-2
48
57
12
2
-4
-3
-10
23
-5
37
24
11
-1
0
4
-10
18
21
-19
3
10
-9
10
-3
-9
0
-12
-18
0
13
12
-2
-18
17
10
-9
-3
-13
19
-27
27
53
-12
-16
-39
-8
-10
-25
18
20
53
-29
-9
-24
-32
-30
-19
93
26
-23
-30
-18
-4
-36
-33
-8
-18
-7
-19
-18
3
-22
-4
-21
-17
-15
-30
-22
-42
-44
-6
32
15
-9
-22
-9
8
-27
-30
10
49
38
0
-20
5
25
-1
-24
44
-7
-8
10
-15
-13
27
8
-9
-17
15
9
-37
-24
10
-29
43
-7
-38
23
1
-15
11
22
7
-8
-17
-5
-24
-11
-13
15
16
45
-16
-5
13
-22
-32
-17
-14
8
45
8
-3
-7
-15
-16
-35
-6
3
-9
12
-12
24
22
12
17
-15
7
9
-6
9
7
3
10
16
0
11
-11
-12
2
4
-18
22
1
-9
0
11
-1
-19
-2
3
-7
-9
37
-53
7
-60
12
24
16
29
-42
42
-50
5
-36
-19
31
3
33
-39
47
45
15
-16
-15
-7
26
37
24
7
-1
50
-55
-85
-83
-7
-8
-6
0
37
33
24
-4
-26
16
1
-12
-3
-21
7
1
-8
12
-5
-9
4
6
36
47
-19
-21
-30
4
1
15
26
26
51
-26
-15
-23
3
0
18
22
7
-16
5
-5
-5
7
-10
14
5
19
3
-22
18
-7
13
-23
19
-18
-1
-20
14
-12
11
16
-12
6
-12
-31
-21
46
28
57
-1
-25
2
-22
-20
-18
47
27
44
-20
-56
-11
2
-14
2
-17
4
-11
-21
6
0
-15
23
14
-10
-7
-4
13
17
19
22
-3
-2
-1
10
-20
9
4
-9
-4
5
12
15
-6
4
-10
-18
-5
-12
-14
-19
-13
-2
-1
-6
-11
-21
18
32
25
45
25
1
16
1
7
9
-9
-18
44
5
14
-10
5
-9
-30
-36
38
-8
9
37
8
-21
-24
-16
-12
38
-6
5
16
16
-16
-22
2
-20
-11
-5
3
-1
-19
-10
6
-2
1
-10
-10
-18
3
-7
8
-10
-2
-8
5
-12
-9
-25
14
-20
-13
-5
-6
5
-2
-14
48
27
47
103
-6
23
8
-7
-47
-28
22
24
1
-20
2
-8
-52
-36
-63
67
20
71
13
8
12
-41
-37
-63
24
15
62
37
3
11
1
-16
2
-3
-7
3
-8
3
-20
-14
-13
-13
13
-2
12
3
-13
-8
-2
-1
19
-4
-18
18
2
-2
-9
-9
11
-8
-21
-15
-21
15
17
-22
31
29
-14
24
-5
-4
-8
-14
18
32
22
3
5
2
-23
9
-23
-14
-5
4
-1
20
3
-20
10
-23
-22
-5
18
2
-19
-14
2
-5
-20
-2
10
7
-18
13
-18
14
11
27
1
-4
6
-17
14
23
1
-18
-10
10
-13
-14
6
-3
11
-8
20
6
8
13
17
-4
3
-25
-24
-1
12
-6
-15
21
-20
-8
3
26
6
26
-12
19
26
1
-9
42
27
9
25
23
-11
32
-10
18
1
32
-23
-9
6
-5
-1
11
17
6
-21
4
-2
-9
5
21
19
-14
18
20
-8
-23
-8
4
-12
6
24
-20
8
10
-18
5
-23
2
19
-7
-5
-7
-11
17
-29
36
43
12
-24
-6
5
-24
-1
-3
30
36
10
-6
-7
-20
6
-21
-23
13
7
-17
18
43
42
0
-17
-4
9
6
9
0
15
34
2
-10
-1
-22
9
-1
25
19
2
16
17
1
22
3
-10
15
-14
-21
10
-3
23
20
-6
-11
-11
-5
11
4
-19
-5
19
19
23
5
-14
12
59
20
12
-20
-27
-21
-22
-16
-22
51
-3
57
-17
-37
-16
-10
-12
-7
7
-14
38
-5
-18
-3
-17
-4
-10
2
9
-14
-23
4
-21
18
20
14
-8
21
22
-5
-22
9
7
-8
-5
22
-12
-9
17
4
18
11
-8
-4
-17
-7
12
56
46
56
-1
-14
-20
-18
-32
-33
33
12
25
-6
-28
11
-14
0
1
-9
2
6
8
-12
-19
24
-20
-16
9
-31
1
33
10
-24
-17
-26
-10
29
-37
-21
21
7
4
-10
-11
22
-13
8
0
2
-17
-5
-18
-14
-23
-15
-5
3
-6
-15
4
-17
-21
-26
-27
-64
-39
-36
-16
-25
-13
2
-5
50
-8
41
50
47
26
-11
12
4
3
27
-7
8
-15
-9
4
-20
-23
-16
13
8
-8
-22
23
22
8
11
-8
-5
3
14
-21
-13
18
-18
25
16
2
7
-8
12
15
-22
7
-7
-15
16
-20
-21
11
8
18
-5
18
-17
3
11
9
11
13
-22
-6
-5
-4
-28
-19
-6
-18
-16
-15
-10
-16
1
-16
-24
75
-6
37
-19
-11
-14
5
-16
-27
47
2
24
-24
24
30
0
11
15
-18
12
22
20
20
-11
5
3
-15
12
31
-21
-1
22
29
-19
19
-10
-2
21
33
43
49
42
10
-19
7
-22
-32
-19
33
14
10
-3
-1
-8
-19
-32
-21
-12
3
10
13
-18
11
-13
-15
14
18
16
32
33
21
14
7
21
10
-15
-9
22
30
26
-11
-20
2
6
7
-3
4
2
-14
23
18
1
18
-13
-8
-8
17
-6
3
-6
-23
-21
-25
1
16
64
27
-23
17
3
-6
1
4
3
35
11
-23
6
-16
-3
-15
2
0
-10
38
19
-16
-5
23
15
-4
-16
26
23
-12
-19
15
7
12
20
-4
-6
-9
17
-8
-4
-19
18
-20
-23
10
17
-7
16
8
-7
21
10
-17
-20
18
-12
16
-10
-4
-15
-4
-19
15
8
21
23
35
28
-7
-6
16
-19
5
20
-5
8
22
22
-18
6
18
17
-3
13
6
-14
-15
5
8
-18
4
22
13
22
10
17
-9
0
-19
5
-6
-21
-17
8
-11
-10
2
-3
0
2
-20
6
8
23
-6
22
14
-12
-9
-10
12
-7
-23
-3
-16
7
13
13
-15
13
29
-11
-26
0
-10
-7
19
-20
10
-1
2
-1
-15
7
-4
-22
5
-9
9
23
0
1
6
-19
20
-8
1
-20
19
2
-16
20
3
47
-11
2
26
28
29
-6
-4
-1
31
18
-1
29
-18
14
-15
-1
-9
23
11
17
7
-12
11
-6
14
9
-14
19
-14
-24
14
-10
-19
0
-20
-13
23
-1
20
-1
-7
-8
-2
9
3
-24
20
-12
-1
25
5
-21
10
-22
-22
-10
25
6
-12
-6
-10
-7
-15
16
13
-9
-8
-2
-10
56
5
-24
11
7
-9
-2
-35
13
28
-25
-14
39
-32
-29
-8
5
24
-18
-11
4
-3
-19
14
17
30
9
18
-8
1
0
15
-23
-10
-18
-7
-13
-32
-18
-9
16
22
11
17
-2
14
-8
11
9
21
-19
-9
-37
26
20
-55
6
33
-44
31
0
-37
18
10
-43
23
3
-45
27
-1
-11
-14
-14
12
-9
6
-23
-5
15
25
5
-14
-8
24
7
-25
4
-8
-18
11
-3
19
28
14
2
-24
-6
0
-18
25
25
-25
23
28
-10
18
-18
18
20
-14
24
-9
-18
-6
-16
-24
-4
10
4
11
-20
-12
-20
0
-19
-21
10
18
-22
-8
-22
10
-5
-23
17
-14
4
-13
20
16
-14
-6
20
-19
9
7
2
21
0
-19
5
-9
-9
-1
-16
21
4
6
-2
26
10
18
-1
6
-22
-15
-24
-23
-13
-11
-8
16
8
25
13
30
24
-9
2
1
0
-25
-18
15
-17
0
12
4
15
-4
5
-15
-12
5
-7
-17
20
-7
-6
-1
21
1
5
15
-15
-22
-10
24
-8
14
-13
-9
-4
7
-3
-20
-16
18
-7
-14
14
16
-8
5
-23
25
17
2
14
-19
17
-19
-20
0
12
8
6
24
20
-6
-3
-7
9
-4
-19
8
-23
15
-17
-29
-25
-33
-24
-8
-30
37
-1
29
-47
-32
-40
-28
-18
-31
62
28
58
46
17
5
22
7
-23
-1
-25
-15
6
11
16
11
-22
-19
-17
-26
3
-7
19
-1
2
-10
11
-20
-14
-3
25
4
-9
-16
-17
8
21
-12
-2
34
2
-5
-22
-40
1
14
-12
10
-17
8
30
-19
2
-12
10
0
10
-5
0
-13
16
-21
1
17
22
20
-6
25
11
16
5
4
2
-20
-7
-11
-12
9
-18
10
-6
17
5
0
-6
2
1
-7
16
6
-26
6
-7
38
-24
-23
74
-49
-18
58
-37
-7
-7
-12
1
-16
7
12
-8
-18
2
-22
-1
-2
-10
8
-3
-10
-7
7
-21
-2
-6
-10
-16
-13
5
-15
10
-12
-20
-16
12
-23
3
-19
-13
11
-7
-7
-2
3
-22
-8
22
-1
4
28
3
-9
-20
-7
13
11
8
25
5
-1
-12
-6
-5
-2
-11
-21
-6
3
13
-13
6
1
18
3
-8
1
-24
-5
-6
21
8
5
23
8
37
-25
13
-16
-5
10
7
9
34
22
23
-15
5
-6
-25
22
-27
6
-2
18
-11
-4
46
51
15
-14
14
-18
14
-19
-19
-13
2
-9
-17
-4
1
-2
4
1
-27
-31
-33
31
15
41
-9
10
-5
-42
-47
-62
54
23
66
7
-21
11
11
6
22
-10
-10
-20
-19
-1
10
-19
11
8
-8
13
9
-20
-18
-4
1
17
39
-23
11
9
-20
10
-8
19
-7
16
3
5
2
12
1
-5
-16
4
-8
14
18
12
23
-23
19
10
26
13
19
4
15
8
-7
-3
-3
9
28
-16
-13
5
-6
2
-14
-31
40
-32
-11
16
13
12
-5
-25
-2
16
-18
-21
24
-23
8
-33
-21
-15
-1
2
-17
-11
6
-8
-20
13
16
9
-11
-17
16
7
-20
10
-17
-29
-59
-20
0
-28
-9
-16
-1
-7
-17
-32
-4
31
56
68
-2
-29
0
64
-73
-4
29
-36
0
11
-23
1
46
-60
-20
10
3
-27
13
-31
-16
-15
-11
0
-37
21
-1
0
-20
-16
-13
-17
5
9
-16
-7
6
7
10
1
4
15
28
38
-13
7
-19
3
-6
-3
-8
54
35
12
14
-23
-4
-4
9
13
16
-1
-13
-22
-3
18
-5
2
-19
10
-9
23
12
1
11
-20
19
4
22
-21
-17
10
13
-19
-10
-9
10
-18
-18
-8
12
-22
-19
-1
4
25
8
-1
-14
20
20
8
4
17
17
20
-22
-3
-9
-11
-13
-17
15
2
-3
-9
-9
-31
3
-3
-7
-21
11
22
50
3
-9
-18
-1
-24
5
22
29
44
6
30
15
47
-29
-43
-30
-22
-3
4
18
46
33
-18
-39
-38
-2
-11
-30
-10
-11
24
11
-13
-12
-16
-21
14
-12
5
6
1
11
-1
-8
6
-5
12
-21
-9
-20
-21
-9
-18
-11
20
22
10
15
22
4
-15
0
-19
20
16
19
-21
4
22
6
17
18
8
12
-3
4
8
3
-2
19
-17
-3
20
-15
-19
2
9
-2
17
12
1
22
0
20
-12
-19
16
14
-8
-8
-1
-12
-23
18
12
13
8
-11
-16
12
22
-8
0
4
10
-22
-5
-13
-19
9
-5
-6
-1
3
14
35
2
-18
-34
-3
26
-10
10
-8
47
-12
12
7
-15
45
-26
-20
8
19
-3
-23
6
14
5
2
-16
5
-23
5
-14
5
-6
-8
-10
-3
4
23
-16
9
-14
-14
55
52
-13
16
-18
22
1
-17
-16
-27
-12
-14
51
43
4
23
-21
-23
-21
1
-20
-12
-11
-15
-22
-4
17
10
-21
-6
16
21
-4
4
-13
-15
-18
9
-14
-1
16
-20
39
7
44
-25
-17
-44
-28
-34
-13
41
26
40
-36
-14
-28
1
-13
-22
-20
-23
-13
4
11
14
13
-23
-7
17
-7
-21
14
-6
24
3
26
-6
-11
10
-10
4
6
-3
-5
-1
28
20
-7
-21
15
-4
2
-23
-6
-1
21
24
15
-16
-8
4
21
27
-16
6
14
-6
-9
4
3
21
0
-12
-5
15
5
14
-9
6
-8
-14
-4
-17
3
-18
50
41
-4
-20
2
-14
15
-17
-22
13
13
19
9
6
-14
-10
6
-22
30
39
42
7
7
13
-2
-15
4
34
15
16
-4
-13
-20
3
-24
3
-4
21
-7
-4
-15
18
7
-14
4
55
47
68
21
9
7
-24
-10
-16
-28
-1
-27
-30
-10
-28
5
-10
-17
-11
-18
-3
0
-15
-22
16
-12
8
-6
25
-17
17
-18
14
-18
10
18
34
24
-30
-24
-20
24
-14
-8
-9
12
-6
-1
10
-13
-1
-14
-18
-8
-10
-21
-16
8
7
4
6
7
-5
-42
-31
-27
37
39
45
1
-3
5
-23
-38
-39
30
25
28
9
-13
11
19
-22
35
20
-22
27
6
-26
-13
27
-26
29
15
-20
15
-8
-1
-14
-18
-8
-21
2
-3
-13
48
41
31
-20
-16
-23
13
23
27
34
31
12
-24
-11
11
8
10
6
-20
-19
16
5
11
-6
-21
-13
14
-11
15
19
-8
-16
-4
-9
-20
-2
-4
-25
19
-10
36
29
5
-9
16
-18
19
15
-19
24
1
-17
-18
-21
-23
-4
5
-19
-19
-22
21
-3
-1
11
-19
15
-23
-8
41
-22
-31
0
-17
-12
-26
5
7
42
-5
-23
-22
9
-18
-10
17
-5
-20
-22
-6
-13
-17
-14
-8
-20
3
-20
-19
7
-18
1
11
-7
12
-5
-20
-12
-5
2
-20
-3
6
7
-4
-4
11
8
-4
13
7
-10
37
28
45
3
2
-20
27
26
4
-7
-6
22
-9
12
-7
-21
-2
-32
-52
18
73
-53
-3
-20
-26
-20
-39
49
-9
57
-10
-38
-48
-39
-11
-14
89
-51
-21
4
-47
-28
75
35
-36
1
14
-21
-18
-13
-10
29
32
-9
-15
-10
-2
-5
-6
4
-6
6
-21
0
9
-11
-10
-23
-4
-23
-19
7
15
-8
-22
8
-9
-17
21
-14
-15
-19
6
6
22
0
-1
4
17
-5
-1
-10
-16
-9
7
-13
26
9
8
3
-19
4
8
26
-5
19
8
-11
25
-5
14
32
19
15
-2
-6
-11
-5
-22
14
-2
1
-8
-22
4
6
17
1
-10
-18
7
11
-11
-6
-15
7
-19
-15
-8
20
22
-16
16
-24
-13
-7
13
-18
-15
15
-19
-20
2
-19
19
-15
-5
-23
8
13
2
-23
15
-6
9
-10
-15
-10
-5
-17
12
25
-9
6
-5
21
14
-22
-21
3
-13
7
-8
-22
0
-7
21
39
63
-21
-77
-57
53
-33
-24
-15
39
62
-25
-72
-57
39
-4
-13
-10
-7
-18
-13
0
21
7
-3
23
28
-20
-20
13
25
0
-1
0
-7
30
21
7
7
-17
-4
-16
5
-7
-13
6
1
-9
-18
-20
30
4
38
-12
-3
-23
-34
-32
-48
39
42
63
-15
8
-7
-9
-35
0
15
28
5
21
21
-19
-14
-26
-9
17
-30
-26
-1
-5
17
32
-31
-26
40
-40
-3
-7
-1
-16
24
-13
-11
42
-37
-11
8
-16
11
-22
-6
1
-23
-14
-4
22
22
19
-28
-34
-33
-4
-13
22
35
29
55
-48
-32
-41
27
13
8
46
-42
-3
-7
-46
-40
1
47
19
20
-41
-24
-37
-56
-31
41
23
32
-15
24
27
-15
-28
9
-17
-32
18
30
20
48
7
12
4
6
-14
13
4
-20
47
-36
-26
3
-35
-24
-27
31
-2
-4
-14
-4
5
-11
-16
-2
-14
-8
-1
5
-11
-14
6
-15
10
-25
-21
-17
3
19
6
-25
-33
-19
-19
-23
3
50
54
38
-19
-2
-18
-10
-2
-23
3
-8
12
23
1
-5
1
11
11
15
3
-18
5
50
39
-3
-7
15
19
19
-15
-7
52
46
-1
12
13
9
12
-19
-19
-10
-10
22
18
33
7
-12
35
16
-22
6
8
16
-13
9
12
10
-8
-3
-2
17
10
-8
17
11
11
6
-4
-15
-4
-10
23
15
5
0
-6
3
-17
5
-20
-1
4
23
7
-15
-23
-22
