2
3
10
16
11
-1
5
-4
-4
2
-2
-8
0
-8
-7
4
-2
1
0
-3
0
-9
-2
13
-4
23
-3
2
-28
-7
31
22
2
3
-2
8
-1
11
8
9
8
11
-3
7
3
8
-7
-6
9
0
-7
-4
9
7
-4
-22
16
-24
-12
6
13
-7
2
0
-7
-7
-6
-1
0
5
-2
-5
-8
-5
-6
-4
5
9
10
-8
-3
-4
9
-7
-5
0
-5
6
7
9
-9
-8
5
-3
1
-9
-8
-2
4
-3
-7
1
6
5
-9
4
-3
-7
2
1
-8
2
-2
-1
-8
-7
0
2
-3
6
-5
-5
-7
2
0
2
-1
6
-4
-5
3
5
7
-9
1
-6
-3
4
-4
6
6
4
-4
9
8
-8
1
3
-6
-6
-7
-8
5
2
-2
7
3
7
2
-4
-7
-4
-4
9
-2
2
2
1
-3
-4
-7
-7
0
9
8
-2
9
-3
1
-9
-4
5
-6
-3
-1
-5
-7
8
-2
0
6
-3
-6
-7
4
0
7
2
-17
3
5
-3
7
-4
-13
-1
1
3
5
-2
-3
-3
13
-6
-3
-5
10
-8
7
4
5
22
-9
16
-6
11
-4
3
-3
-2
-8
1
3
-7
9
14
-2
0
-4
11
-8
3
4
22
-12
2
8
-5
-5
-13
8
-1
-1
3
2
-9
-4
-5
0
-6
-4
-2
6
-5
-5
9
4
-3
-2
-7
-1
1
1
-5
0
-2
-6
-2
-3
5
3
9
2
2
4
1
-3
4
-5
8
7
-5
-6
-5
3
-1
-7
-7
-8
7
0
3
-6
6
1
-2
-1
0
8
-7
6
2
6
6
-8
3
-2
-6
6
3
-6
9
-3
-4
-3
9
1
8
3
1
-2
2
5
4
-8
3
8
-2
-3
6
-3
-5
-4
0
-2
-2
-1
2
-6
-9
-6
3
-1
1
-6
5
-4
-2
-6
-9
-5
0
6
0
-6
2
3
3
-4
-9
3
-1
-4
2
-7
8
-1
-3
-5
-8
8
-4
-5
-2
5
-4
5
5
-8
2
-9
-5
-8
7
-3
-7
-6
-2
1
5
-7
4
4
8
0
-6
7
-3
6
-8
-2
-8
-5
-7
-8
-5
-1
-8
6
-1
-8
-2
6
-3
7
-9
8
6
-8
-8
-4
1
-6
5
3
-3
-8
-6
-1
7
2
1
4
-8
-6
7
3
9
3
8
-2
-5
3
3
-6
-4
-3
-6
-9
3
-7
8
8
-1
-6
-1
2
-7
0
7
3
-7
1
3
-4
-8
4
1
7
3
-7
1
-2
-6
5
-2
0
-4
-9
4
-8
-3
0
-9
10
9
0
-4
-6
-9
-4
-6
4
9
7
5
-1
1
6
0
-7
-3
-1
-9
11
-18
3
5
-6
-2
1
13
0
8
14
8
-14
-9
3
-11
-4
5
-7
-2
8
2
-10
32
20
3
-5
-19
7
16
-4
35
6
-1
-5
10
6
-17
0
6
-4
24
-6
4
3
-16
-5
11
-6
-9
-21
1
17
7
-10
2
15
-21
-14
-9
7
3
12
1
4
-46
34
-6
-60
-6
-10
-23
-7
-7
-10
-1
4
-9
0
-37
3
-18
26
2
10
18
-31
13
22
12
29
-39
9
-9
-6
15
6
6
-7
17
4
35
-8
29
4
2
0
-5
34
10
-2
-4
3
-45
-50
-3
28
9
-24
-24
-26
-43
-30
-6
1
5
5
-5
4
5
-8
3
4
5
5
-6
4
2
-7
1
4
8
5
-4
2
-7
1
-9
-3
6
-8
-4
7
3
-6
6
-6
-9
6
-7
-8
0
2
-5
-4
8
-3
-2
-3
-2
5
5
-8
-7
-5
-7
7
-1
-8
-1
6
8
6
1
-8
8
1
1
-4
-1
2
-6
-9
0
-9
4
-1
-1
-8
1
-4
2
-8
-6
7
-5
-6
6
5
-9
-1
6
10
-6
-2
4
1
0
-7
1
-9
6
7
2
-4
-8
-2
-16
-5
-7
-1
-4
-2
4
9
-8
-6
10
-3
10
1
15
-6
6
-1
-11
-8
24
13
9
2
4
8
-6
-4
-1
3
0
-1
-7
-1
-3
-1
-7
-8
0
0
1
-3
-4
1
-9
-3
1
3
0
6
7
8
4
5
-9
3
-7
-3
9
8
-4
0
1
-8
3
8
13
7
4
-6
-1
1
-4
-1
6
-9
5
-5
2
11
-4
-9
3
3
-9
8
9
4
7
-7
-1
-3
-10
52
12
30
46
-23
12
8
8
3
-3
45
0
4
1
-2
1
7
0
20
1
-18
15
13
6
1
-5
2
-6
9
6
-15
-2
-7
-2
14
84
2
1
-5
-7
-4
1
-1
32
4
-10
-7
-6
-1
10
-12
5
1
-4
-27
3
-4
-15
2
-3
5
-8
1
2
0
-6
1
-1
6
-2
6
8
-6
6
6
6
11
-7
9
4
-7
-5
8
-2
1
1
-6
4
4
12
2
-2
5
-5
-3
0
-1
1
0
23
2
18
5
7
2
-2
-8
10
1
7
5
3
-2
12
-5
-5
-5
-8
-1
3
11
8
5
-3
3
-3
3
-7
-10
7
-4
-3
-4
-6
-5
1
-6
4
-8
-4
3
5
5
2
-3
2
2
5
-5
0
8
-4
8
-4
2
4
4
6
6
23
12
-2
4
-3
7
1
4
-5
1
4
-9
1
-1
9
2
1
-6
-6
10
-1
10
0
-6
3
-4
6
0
-7
-2
-1
-13
4
16
-3
10
-7
-8
9
2
-12
8
0
-6
-7
-4
3
-4
-22
4
3
11
-3
5
15
-24
0
4
-4
-9
-29
56
-4
1
-15
-2
-7
6
8
-5
54
8
12
-8
1
3
5
42
-4
-5
0
1
-17
-13
7
-14
-25
-15
-33
-6
-22
-4
-9
9
9
6
-2
13
17
18
11
-4
8
-7
11
3
-4
15
9
5
7
8
6
-3
0
6
6
-5
10
-1
23
24
27
-2
-5
37
12
7
10
2
-8
-1
16
7
16
-2
17
7
17
-2
12
48
0
2
10
4
8
-7
1
3
-1
11
-7
1
-1
1
-1
-7
-8
20
-9
-4
-6
46
18
27
9
-5
16
4
6
46
9
1
4
-7
25
-8
4
-3
-6
-3
10
-14
10
32
-2
-1
-51
24
2
-14
50
7
1
-33
7
-6
6
2
19
-4
-4
9
3
29
3
-2
27
7
-13
-11
8
34
12
9
4
-12
9
-1
6
0
-3
1
6
2
4
-5
-6
6
1
-4
2
9
-4
-1
7
7
-1
2
6
-8
-6
-8
4
-6
5
-7
-9
-6
1
-3
-4
8
3
0
-3
-6
-8
7
11
-4
6
8
3
-9
-5
-6
-4
-5
-7
7
3
-6
1
3
-4
8
-4
-5
1
7
-7
-1
4
6
3
-6
-5
-4
-4
5
-8
3
4
-1
-6
-6
-7
5
7
8
-6
5
-9
5
-8
7
2
1
9
6
-8
3
3
-4
6
-3
-4
-1
6
8
3
2
-2
-9
-5
-8
8
-8
7
3
5
-5
-1
-9
3
-7
-9
-7
-6
-7
1
-3
7
-8
3
-1
-1
-1
-5
-28
-7
26
-47
28
37
-27
13
1
-11
12
1
16
6
-17
-9
-5
-23
-9
-14
-30
-8
5
-11
-43
38
19
-2
6
-34
0
33
9
57
38
6
-17
15
2
-25
-3
5
0
14
6
14
-24
-31
2
10
-6
-42
-32
0
26
-16
39
-25
28
-28
-33
4
-7
3
9
-2
6
1
5
-2
-4
-3
6
-4
-7
-6
4
4
5
-6
-5
-5
-3
-7
5
-3
-1
6
9
2
-2
-4
-6
0
-3
-1
7
-2
-2
4
5
-9
-8
2
2
0
9
-7
-2
3
5
8
3
-4
-3
-7
4
3
0
-3
-4
-8
3
-5
-8
9
4
-3
7
4
-2
2
10
-1
2
2
1
-7
8
6
-2
-10
-8
7
-8
-3
5
-9
-7
2
1
11
36
18
4
-5
-24
54
10
-9
4
1
2
-6
16
7
4
2
-6
-22
2
1
-1
-4
0
-26
-2
-3
7
62
-28
-6
-13
-17
-11
-21
53
4
5
-2
-2
-8
-6
4
7
3
6
0
2
-4
8
-5
-1
-9
-5
9
-5
4
5
1
-8
-6
6
-1
-1
-8
5
-1
8
6
-9
-1
-8
8
-3
-2
1
-2
-2
2
-6
2
-6
6
0
0
8
3
-9
5
-6
1
8
3
5
-9
-1
5
-3
-2
9
5
-5
7
-8
6
9
3
-3
8
-6
5
4
5
9
-2
-1
8
6
6
5
-5
0
-6
6
-7
-4
9
-9
1
8
3
9
6
9
0
3
3
-5
-5
5
1
7
2
6
0
-1
-2
-3
-4
-2
-3
3
-5
8
2
-8
-7
-4
4
1
-6
8
9
-9
-8
-1
-3
4
4
-10
-7
3
0
7
-4
-6
7
8
-5
0
5
-3
9
0
-5
4
3
5
8
2
-6
0
-1
-4
14
7
3
1
2
11
-2
8
24
-4
7
-1
-1
8
6
7
-4
3
15
-1
-1
0
-8
7
2
-1
-1
3
1
-2
8
-1
1
4
3
3
8
8
4
24
6
-1
-59
40
-17
41
8
-3
-43
-14
9
-37
-7
23
-10
1
1
3
-7
50
0
-5
33
20
-73
-23
39
25
10
-77
18
13
-98
-6
1
2
15
-4
16
-3
23
3
-19
1
-8
-54
20
5
-27
-8
13
7
8
-42
-13
57
3
-2
15
-16
6
-6
1
2
-2
2
-4
1
-5
-6
-5
-4
1
-2
8
-8
5
-6
-6
7
-3
6
1
7
-7
0
-7
-5
-5
5
11
-3
-7
2
5
-1
-6
6
-6
8
-4
3
8
-7
-1
-2
6
-3
-8
10
-9
-5
3
-8
8
-4
-8
5
4
9
-1
-5
-1
-2
-6
-7
5
3
4
8
9
-1
-3
-4
3
6
1
-9
-9
-2
-8
7
-3
-7
6
-3
-6
-9
6
-3
-3
-6
-2
-8
-7
-5
1
8
0
-7
-2
-8
-3
-5
-6
3
-5
8
3
6
8
7
-5
3
5
-4
6
0
-8
-2
-1
5
3
-3
9
4
-3
5
0
-5
0
-6
5
2
-1
-1
6
4
6
-7
4
-4
-3
7
5
-8
-9
3
6
2
-3
-8
-2
1
5
7
-8
3
3
2
-1
-6
10
-7
-7
6
-4
2
-7
7
-7
-8
-5
1
9
6
-3
-8
1
-6
-3
-6
-1
-2
0
-1
4
-7
4
6
8
3
6
1
8
1
3
-15
50
28
-8
17
-1
9
6
-3
1
-36
-4
-8
1
1
5
8
7
21
3
-4
30
1
1
-13
44
-39
24
20
0
15
-18
1
8
25
-40
9
-11
7
3
7
-4
-7
-16
37
-4
0
-8
-3
19
-32
1
-13
-8
35
-33
12
17
33
-7
2
-8
-4
-1
3
2
0
-2
2
7
-8
4
0
-7
3
0
7
-8
-7
3
-2
-1
1
3
5
1
6
-3
-9
0
4
9
-3
8
6
-6
5
-9
-7
9
-2
5
-7
-6
-7
-5
-7
-9
8
5
6
8
7
-1
2
-1
5
9
-8
8
-1
7
-6
-4
7
2
11
5
-9
3
23
11
5
5
2
4
7
-9
-5
-4
4
4
-6
8
-1
-11
19
10
22
0
-23
47
18
11
2
-33
34
60
8
26
25
4
-18
20
9
11
-9
8
-8
69
7
-7
35
5
9
8
-4
-25
-8
-2
8
5
24
12
-26
-6
1
1
-2
-8
-2
-2
7
-5
-6
1
1
1
-8
0
1
6
1
6
-7
-6
-5
-6
0
2
-4
1
5
4
-6
23
-1
0
-8
2
10
16
1
10
4
-6
11
15
3
1
7
10
4
26
8
-7
10
1
-7
-7
0
-3
2
-3
9
7
6
6
-4
2
8
5
-1
-7
3
-9
-6
-7
5
-5
5
7
7
-8
-8
2
-3
4
-2
-9
-6
4
-4
8
-2
-6
2
1
0
-6
2
-2
7
7
1
8
-1
-5
6
-5
-5
2
9
-5
2
7
9
0
-6
-8
5
-3
7
3
-7
-1
-8
-7
9
0
-1
-1
-6
9
6
-8
2
9
1
-1
4
15
-5
4
-4
9
4
17
-4
-2
7
8
3
-1
-8
9
-9
10
-3
-1
8
-8
-3
55
1
-14
-7
-6
34
6
6
31
-3
-3
3
2
2
-2
-8
3
8
16
-1
-8
-3
1
9
-4
-2
2
6
8
13
0
3
-3
3
-4
-7
-8
1
0
-8
9
-6
2
2
-8
6
0
0
2
-6
2
-1
4
8
6
4
4
2
-1
4
6
-1
-5
-4
5
3
3
6
4
-5
-1
2
-4
-4
-5
9
3
-4
2
-6
5
6
-7
-6
-5
-1
-7
9
3
-7
4
-8
6
-2
-5
1
-3
-8
8
1
-5
-8
9
-2
9
5
-9
2
-2
-19
-3
-8
2
-1
0
-6
-5
-9
5
2
-1
0
-9
-9
6
-5
18
21
-13
-11
4
-3
10
-10
6
-2
-19
-7
1
-10
19
-7
3
6
-11
-6
-11
7
12
-10
-9
3
-4
5
27
-8
9
-12
-30
-16
-11
24
-5
0
-7
-2
-8
9
-3
5
-3
9
-5
-8
6
7
-5
3
-9
-2
-5
2
-4
-8
-1
1
-3
-5
-6
-5
24
2
13
3
44
-10
2
7
4
-2
0
-7
-5
-1
5
-2
6
-3
0
3
7
-4
9
-14
-3
2
7
8
13
-8
1
-9
-9
3
-9
12
0
8
2
-3
-4
-6
8
6
-1
-7
0
8
0
2
10
-3
7
5
1
-12
3
-7
3
-8
7
6
-2
0
-7
2
4
8
9
-13
24
11
-2
-3
-2
6
3
4
16
-4
2
-1
-3
3
-1
6
3
-5
-7
1
9
9
20
-3
3
-2
7
8
-19
7
6
2
-8
-8
7
5
0
-6
0
4
5
3
-7
3
6
1
0
8
0
-4
0
9
-9
6
8
1
8
6
-2
3
7
-2
-5
-10
-10
-7
6
1
-5
0
-5
1
14
1
14
8
-3
2
-3
4
-9
1
-5
-4
-4
1
-7
-4
2
-3
-5
-4
-9
1
2
3
3
9
2
10
4
-8
3
10
-2
7
8
7
18
11
0
16
-1
1
6
3
22
9
10
-11
4
-12
4
24
4
3
-4
-3
48
2
-4
5
13
-5
-5
4
9
-6
2
6
4
0
-1
1
6
-3
-7
-2
5
7
20
-6
-6
13
13
-3
-17
23
10
-2
7
-4
2
12
-9
-2
8
21
-3
-3
-8
7
3
-1
8
-13
4
4
2
-3
-4
-6
7
-19
0
7
12
0
0
-7
5
-10
24
-5
7
7
-3
-2
-2
6
12
1
-1
6
-2
-3
2
7
5
12
-10
-7
-7
-4
27
-4
-7
9
6
-3
0
22
-1
-2
4
9
9
-1
9
0
17
7
-7
8
-2
-6
15
1
-2
6
9
8
-6
-7
-4
-6
-3
9
-7
-5
6
10
10
4
8
-6
2
42
-1
-2
-6
1
4
2
5
2
9
4
5
5
8
-3
-7
11
-2
-3
1
-3
1
6
-2
13
-3
5
-5
-5
2
-1
6
4
-5
4
-1
5
-7
0
-2
-4
3
2
1
-5
-8
-7
-2
-3
0
5
1
1
-1
6
2
-8
9
0
-8
-9
2
4
2
-4
-9
0
-4
7
3
-9
1
-1
1
-5
-7
-4
-4
9
-3
-2
-6
6
-3
7
-1
2
-8
2
6
-2
6
-8
2
6
2
7
2
-14
7
31
15
26
3
9
4
7
10
9
-5
15
19
-7
-6
-5
2
4
-1
-10
-3
10
11
-12
-45
27
-28
28
-16
-5
30
23
-4
28
1
-3
13
6
6
8
9
-1
18
5
-2
24
9
6
10
0
-29
28
-6
19
-28
48
-46
0
9
6
5
6
4
-3
5
-4
2
1
5
-13
6
9
7
0
3
8
-1
2
-4
-1
-4
-9
-7
7
0
1
-10
9
-7
-9
4
15
12
11
10
-6
22
-5
-6
-5
-4
8
-6
5
-7
0
9
4
-2
-11
1
8
3
4
21
-3
-1
3
3
-14
-14
22
4
1
-1
-2
9
1
-10
-17
88
41
55
0
22
-15
20
6
7
30
-16
-9
3
-2
32
4
-22
-2
-19
-34
17
-6
19
43
-8
3
-7
51
-20
-6
13
14
9
-57
-1
-9
6
-1
30
0
-39
8
9
116
-16
-6
-31
-3
5
-61
11
50
-1
15
4
-3
-14
61
-5
-2
0
-1
-7
0
10
-4
4
14
-4
9
6
-7
4
4
-2
7
-5
5
-7
-9
-4
0
1
13
1
3
26
-6
-4
-1
-4
27
7
7
14
9
8
7
-2
-6
4
-1
6
-4
11
9
-3
19
3
-1
6
-9
4
0
-2
8
2
12
0
-7
3
11
-4
0
4
18
6
-12
-7
19
5
22
8
4
0
9
-5
18
-1
-30
9
1
16
-2
7
0
-2
-4
2
20
9
6
9
-29
36
-5
-3
-12
3
-7
-7
12
8
6
6
9
17
-9
15
-5
-4
1
-3
-5
4
-3
49
5
7
-9
0
6
11
41
6
-3
4
-8
6
4
3
3
0
8
4
0
6
-1
-7
4
-7
9
16
14
2
-3
-2
-8
-3
-5
4
-6
7
-4
7
11
-5
40
2
-7
-3
-10
1
4
-6
-8
-1
7
1
4
5
4
14
-5
2
3
-2
2
2
-5
1
-12
4
-2
-4
-4
30
4
7
-4
5
4
6
-13
9
0
-9
1
4
-6
0
6
3
7
1
-15
1
-9
-2
3
-22
1
6
-11
10
30
-6
2
52
-19
-6
-16
20
14
10
14
-43
-3
3
3
-6
-6
-12
3
-13
7
28
-3
2
-13
-4
-4
10
6
9
0
-3
-19
-22
0
-34
2
-6
-11
-3
-7
-1
-1
-8
-2
2
-2
8
7
5
-5
2
8
-8
4
0
-3
0
2
-5
-2
2
2
0
-1
4
-3
-2
-7
0
2
1
-5
7
-7
5
-8
9
-5
0
-1
-2
-8
8
-1
5
8
-2
5
4
-7
1
0
-8
1
6
1
-6
-2
4
4
1
-5
4
0
-9
-3
6
-1
-10
8
-10
0
-6
-2
5
1
-7
-1
8
8
-4
6
-5
-2
-7
-8
-6
7
3
-5
-4
1
-9
-4
1
6
-1
5
-9
-3
7
7
-9
-1
12
-6
-2
1
2
2
9
3
-4
-6
-6
4
7
5
0
3
-4
3
-1
8
5
-5
0
-7
-5
-2
-2
-2
21
7
-7
59
-7
11
6
-11
-7
4
-10
11
9
1
19
-1
5
7
6
7
-4
2
-5
5
0
-7
19
-11
-8
29
8
-2
4
2
-25
6
0
7
4
7
-15
3
0
18
-5
2
-4
-3
12
27
-6
4
-16
51
-1
0
31
23
6
6
-1
2
7
-8
2
10
0
11
-7
-4
10
-6
-9
-7
2
2
-4
9
14
8
-4
5
2
13
3
12
15
14
4
-3
13
17
10
10
23
12
7
-8
8
-7
7
-3
13
-1
23
-7
-8
34
3
-6
-2
-2
4
5
6
12
-8
14
-12
-5
-2
-3
6
7
6
-5
8
-6
-6
-6
5
-3
-8
1
-8
7
2
-7
7
0
-7
0
6
6
-6
-7
-4
8
-3
1
0
-4
7
3
-2
2
-6
-8
-4
7
8
-7
8
7
-3
1
-3
-1
-5
-8
7
-6
4
-6
-9
9
-2
9
5
6
-2
-8
-9
-4
-3
-9
-2
7
6
7
1
-10
-2
5
-1
1
6
5
-7
-1
5
-10
-3
5
-3
2
2
-2
-4
-11
-2
-4
7
8
3
7
3
-8
9
-6
8
3
2
-1
-5
-6
-17
-2
14
9
-9
-1
3
-1
1
-7
2
-7
-5
6
-1
5
8
-7
12
-11
-12
13
-4
7
-6
5
-7
0
3
5
14
4
7
12
-4
2
-4
0
-1
-1
4
-3
1
-7
0
-8
-2
8
-7
-1
5
4
16
-1
-1
-2
6
-3
-9
11
-1
-4
-6
-8
-8
-5
8
-9
-7
4
7
8
1
1
7
4
3
7
6
2
-2
4
10
8
4
9
2
5
-1
5
-8
8
-3
-1
-5
16
-1
14
6
8
4
-2
1
-4
5
-3
-5
5
5
7
1
1
-3
11
15
4
7
-1
-5
9
-12
24
6
6
7
4
6
-11
-15
6
22
1
10
-2
20
-1
-3
32
4
2
9
-4
6
-4
-6
16
-7
19
0
1
6
10
4
-5
0
2
-3
5
-4
4
-3
13
2
-7
-8
-7
-8
2
-7
13
7
-9
1
-2
-5
-11
6
3
1
10
-6
1
-9
7
11
1
-7
7
4
10
7
-8
-15
6
12
-6
8
-6
3
3
-2
11
5
4
7
1
-3
5
-4
3
-1
16
9
-3
3
-2
-3
-2
-6
22
-7
4
-13
17
-5
7
6
5
-3
-1
-5
-8
-2
-2
2
-7
-4
-2
-4
-27
0
-3
2
-6
7
9
-15
-3
16
-26
-7
2
7
14
-9
-9
5
-1
-21
-2
-13
-8
8
5
-1
-15
-4
8
-4
2
15
-5
9
7
46
0
46
2
-1
-17
8
3
-5
2
9
-7
-7
2
5
5
-9
5
-6
7
-3
5
-6
9
-1
-2
9
-6
-3
1
-6
5
-3
-8
1
8
7
-6
3
-3
4
-5
4
-8
2
2
-4
6
-4
0
-2
3
0
-1
0
8
4
-6
-5
2
-3
2
-8
1
1
8
-6
-4
9
8
6
0
1
2
-8
2
-4
5
4
8
4
-7
6
6
3
3
6
-5
-6
7
-9
7
-1
0
-3
-3
3
9
9
-7
-5
6
3
9
-4
-1
-8
-2
-4
2
9
7
3
-4
3
1
9
-8
2
7
-6
7
2
6
7
2
0
-7
-5
6
3
8
-8
-6
9
-5
7
3
-5
0
-4
2
-1
13
5
-6
11
-7
-5
-4
9
-7
2
7
3
8
-5
-4
3
6
-6
-2
-12
-1
3
5
-5
-4
5
-5
0
3
6
6
-4
-6
1
6
-7
5
15
0
7
7
-4
-1
9
0
11
13
0
3
-10
13
-11
3
6
11
2
-2
-1
3
-7
6
-8
4
-2
3
9
4
-2
8
-8
1
-9
3
-6
-1
-4
-3
-1
7
-6
-6
-1
-3
-3
-1
1
2
8
-6
1
1
-1
-1
-4
-3
-4
5
1
0
6
1
-6
7
1
3
-7
-4
-3
1
1
-5
4
2
2
3
6
6
3
3
4
3
-6
-6
6
-6
3
5
7
2
4
-2
-3
9
1
-4
6
-1
-1
-6
5
2
1
3
9
9
1
7
10
4
14
3
-10
12
12
-7
11
-4
-4
0
13
-4
20
-2
-2
-6
15
-3
7
8
-7
-8
1
1
5
2
-5
7
7
2
-4
-1
-4
-6
3
4
-5
2
7
17
9
15
19
17
-3
-4
6
12
-1
15
1
5
7
-1
-3
3
0
2
6
-5
11
2
2
4
5
2
-1
8
0
-10
0
-6
5
-1
54
-1
-3
1
4
-5
7
-5
9
-5
-4
2
0
-4
-9
11
-7
-3
5
-12
-8
-4
-7
6
2
7
6
-3
1
50
19
-15
45
4
7
7
57
-2
-9
58
-9
0
0
8
3
-6
-6
-11
-14
-58
5
20
-19
21
24
-29
51
24
-9
7
14
-15
5
11
9
-6
-25
1
-12
3
-51
-1
17
-6
-23
-5
-39
-7
28
-10
5
19
-11
-5
-6
5
20
9
-5
-7
1
45
7
-11
11
25
-2
-10
7
4
5
2
-3
-8
5
11
3
7
12
-8
-5
27
-6
-6
7
4
4
20
25
-14
4
-23
3
-7
11
-2
-6
-2
6
0
-6
1
-9
8
3
-5
-2
-5
2
8
-12
7
5
-18
4
14
65
-11
35
15
7
4
-2
-1
6
-7
8
-5
2
-6
-8
2
-3
1
2
-8
-5
-3
-4
3
7
-5
-1
2
0
-3
-7
2
7
1
13
9
2
-8
12
5
-4
0
5
-1
0
4
1
-8
-6
0
-3
-1
6
8
-1
-3
-8
-7
3
0
7
12
-2
10
2
12
-7
-4
1
0
-3
6
-7
-2
2
6
3
2
12
3
2
-3
-1
10
-8
3
-7
7
7
0
10
-7
0
5
4
13
6
-10
14
8
14
-6
-10
24
5
-4
10
4
3
-12
6
8
19
-2
8
-4
15
5
3
22
-4
8
-4
-6
-17
-2
1
6
2
17
7
-4
-11
4
6
-6
-4
-4
-5
8
0
8
7
-9
6
-9
3
-1
1
3
2
-1
5
-3
9
7
9
-1
-4
2
0
-2
-3
7
6
2
-9
2
-5
-6
-5
3
7
-2
-7
9
-4
-5
-8
-5
1
3
-8
-8
-4
9
-3
-3
-9
-5
4
7
6
-7
4
-5
4
8
4
4
7
6
-5
-8
19
4
-7
-3
-6
0
3
-5
-1
1
2
1
-8
-1
4
5
6
17
-3
-4
13
-3
16
8
1
-4
8
40
4
-6
1
-1
-1
2
3
-4
0
4
0
-9
6
0
-9
21
-5
4
10
5
13
5
5
8
-1
10
-8
6
6
3
-3
2
-4
6
3
0
25
30
4
20
7
-1
3
4
-9
8
4
-13
-6
8
16
3
8
7
-8
10
-9
39
57
10
-4
-9
24
20
2
11
23
10
-6
2
-8
-9
2
0
4
-4
27
9
-1
47
3
-6
7
7
34
1
-3
5
-1
53
-16
20
1
6
-6
6
-8
-2
1
-2
-1
-4
9
-8
-6
2
-8
-3
-1
8
2
6
-7
-5
-1
-4
0
-7
8
5
5
-6
0
8
2
1
-8
-7
4
8
-5
-5
4
-3
-8
8
-4
-4
5
0
-1
-5
-6
-1
-5
-6
7
6
0
-4
-6
0
-6
8
-7
-4
-2
6
4
4
7
6
6
8
-3
-4
1
9
-6
0
-4
-4
5
-8
8
-2
-7
7
3
7
7
1
-4
-5
-5
-9
7
9
-1
-8
-8
-7
-6
-6
-2
-2
-3
-7
11
-8
5
-2
-6
1
-4
9
6
-7
-4
9
-2
-3
-3
-7
-6
0
8
-5
0
9
2
4
7
-4
-1
-2
-6
1
9
-6
3
11
0
5
15
5
-9
4
0
10
3
-8
9
-1
7
8
-6
3
6
5
12
9
7
17
-2
-1
14
-3
9
10
8
7
-1
-3
-7
7
5
-9
14
1
-10
-4
-1
5
16
-6
-4
3
-1
6
7
10
20
-6
5
-2
-1
2
3
-9
-4
2
2
-6
5
4
-4
-9
-7
-9
1
7
-2
-7
-8
-6
-1
-2
-3
7
3
-7
6
-4
5
9
-8
3
-8
-6
9
-3
-5
8
-2
7
-6
-2
3
-8
-5
7
11
2
1
-8
-8
-3
-8
5
8
7
-5
8
-3
0
-5
4
-1
7
1
0
6
5
7
-4
18
8
2
93
1
14
22
-21
6
-34
-10
21
-10
1
68
4
17
-2
-1
-5
12
3
1
3
-12
19
4
-29
-13
37
23
31
-2
11
-104
-6
4
5
-10
-8
-22
-1
-10
18
8
8
-45
-3
3
0
-1
14
-9
68
27
-16
64
19
-6
-6
7
-1
-6
-3
0
-3
8
-4
9
0
7
-6
-4
9
3
0
4
-5
9
-3
-2
11
-6
2
0
6
2
-2
7
6
7
-8
-4
-1
-7
-7
0
5
6
8
-9
7
-3
-9
-5
-8
2
5
1
1
6
-1
10
7
-7
-7
-8
10
3
-3
9
-9
7
9
7
-1
2
-5
2
-4
4
7
-4
-7
-6
-7
6
-1
7
-3
8
-8
1
5
8
-4
1
-7
-5
-6
-7
-2
-4
4
-8
4
6
-4
-8
2
-5
6
5
-5
7
-1
-2
-9
2
7
8
-4
3
-2
5
7
4
4
-1
0
6
9
2
-6
-5
-3
-8
8
-7
6
0
-1
-3
-5
3
0
-7
8
10
-4
0
-6
4
-8
2
5
-7
-8
0
-4
2
3
-5
8
-1
5
2
4
-5
9
6
7
5
0
7
-2
-8
0
4
2
1
2
1
-4
-2
-10
-5
6
8
-4
10
-5
1
-1
1
4
-5
3
3
9
0
1
1
-18
-4
-5
13
13
-3
2
1
-8
63
7
5
-21
-23
-27
3
6
-13
-7
2
6
-8
-10
-17
41
20
0
2
-54
15
1
0
8
35
-21
-1
9
-2
-1
-42
2
-38
-6
-29
-3
-10
-18
-27
4
-7
9
39
-34
-3
3
-66
-1
-32
63
12
3
5
-3
-7
-2
-7
3
-1
-2
7
-3
-7
1
-6
4
9
-5
-2
-4
0
-1
4
2
8
-4
6
8
0
8
2
-6
5
-8
-3
3
-8
5
-7
-3
5
-9
3
5
-4
-8
-3
-8
-4
4
-9
-5
-3
-9
-8
-7
5
-4
8
6
-2
-9
-6
-8
-7
-2
3
6
-6
-6
3
3
2
-4
5
-4
-5
2
-7
2
-3
0
2
-8
6
2
-1
5
5
-5
7
3
0
-2
3
4
1
-2
-8
-9
-2
-1
8
-3
-8
5
-4
4
7
-8
5
3
-7
6
-8
4
7
-1
5
0
-5
7
3
3
8
0
-3
8
5
-3
1
3
-7
12
-2
63
-5
7
41
-20
17
-10
-27
14
-5
23
3
3
6
8
-24
0
0
2
-1
0
0
-15
-2
8
9
0
-25
-1
-16
-15
-4
1
5
-43
92
-10
4
-1
8
2
25
9
18
14
-8
-8
3
3
-11
-21
-4
-2
11
-39
2
19
-16
-19
-6
-1
-3
-8
-4
0
4
1
5
2
-7
-3
0
-1
7
-2
3
-7
1
3
-4
-6
-5
-1
-2
-3
4
4
1
5
4
10
10
-6
-5
2
10
-8
4
8
9
-1
-6
4
-6
3
11
-9
5
-7
6
-8
0
5
27
3
-1
-3
9
6
38
13
-9
-1
-1
-6
-9
5
-5
-4
7
5
-4
-5
-3
-9
7
5
3
-8
9
5
0
-3
-2
-8
8
-6
-8
-4
-4
-6
1
-7
9
9
1
-6
-7
8
-3
1
-3
-4
8
1
-1
0
0
-1
3
3
-6
-1
4
0
-6
4
3
5
-6
5
-1
6
0
0
6
-9
1
0
5
0
3
-1
-12
1
4
-25
-4
-9
9
1
5
1
9
3
-7
2
-6
0
-7
-13
-3
5
0
16
19
-3
-17
2
35
-16
2
-6
20
-1
4
14
4
4
-12
0
-5
2
10
-6
13
-25
-14
-6
-4
4
8
-14
1
9
23
-11
-21
10
-18
-15
-6
8
-9
5
7
8
-9
-3
5
-1
-5
-6
-3
0
-6
-5
-8
-9
-7
-7
1
2
-2
4
4
-5
-3
7
-3
-5
3
-10
3
2
-1
2
-2
5
6
8
-1
-1
-6
8
-9
0
2
7
5
0
8
0
2
6
-7
-2
6
1
8
-1
-8
8
6
-7
-4
-8
8
0
-7
1
-1
5
6
0
-6
-1
6
5
5
-7
7
7
5
-3
1
2
9
5
2
10
-8
3
22
6
3
8
5
15
7
-2
-3
-2
-8
3
-1
7
-4
-8
-6
-2
7
4
-9
20
-4
5
2
5
6
5
9
-3
2
13
6
-7
10
-4
4
5
6
7
-2
9
-5
-6
-5
-3
3
-4
4
4
9
-3
7
8
3
-9
-6
1
8
1
1
-3
7
0
-3
-4
-7
-2
7
-9
-4
4
-3
3
-3
-3
1
-7
-3
6
-1
1
8
-4
1
-3
6
9
-4
-3
-7
2
5
-5
-8
-7
1
1
2
2
4
3
3
4
-4
-3
-11
14
2
1
-4
5
-6
4
8
-5
5
7
-5
-1
-5
-9
4
-10
6
-2
-8
11
-2
7
1
-9
8
-12
-8
4
-16
2
-1
-6
15
-5
4
4
3
7
10
1
-5
5
9
0
-7
0
11
7
-1
-8
1
-11
28
15
-10
-11
-7
-1
4
-4
5
-1
7
8
5
7
-6
-3
5
-1
6
-8
-4
-4
7
8
-4
-6
5
-4
-8
4
-8
5
4
-7
8
3
-2
-6
2
7
2
-4
-8
2
8
-4
-8
0
-5
-5
1
6
-4
2
7
0
6
6
-5
4
2
-2
2
8
0
-1
-8
-6
-2
-8
5
0
3
-2
-7
-2
0
-10
-5
0
-4
-2
1
-6
4
-3
9
3
-11
1
-1
12
-2
-3
15
5
0
0
10
-2
11
15
8
2
17
-1
6
13
10
3
9
-5
5
-1
4
-6
7
-3
3
-5
7
-4
0
-3
-2
-5
-10
-8
-9
-1
-8
-1
-1
6
-5
9
-7
31
-33
16
-9
-11
1
0
-4
-4
7
-16
9
10
8
-8
-11
4
-6
1
-5
0
2
-5
-32
-18
6
8
4
-44
-6
-7
-53
-9
-7
-11
42
2
-4
0
8
2
-10
6
12
-50
5
6
1
0
14
-14
0
-22
17
-26
31
8
-5
-7
3
-9
-6
2
10
2
14
1
0
18
4
0
7
6
-5
6
2
0
-8
-8
6
-6
2
-2
0
11
-2
-7
60
2
-9
14
-5
18
5
3
6
11
-2
13
4
-3
15
1
6
8
23
-5
4
27
-6
-1
6
-7
2
9
-2
6
10
2
-8
9
2
5
-1
4
2
-6
3
3
-5
6
-1
-6
3
8
-4
-3
-8
1
-5
-9
-9
6
-6
8
0
2
-1
2
5
1
-1
7
-4
4
-7
7
-9
1
2
-3
-7
-4
-3
3
2
0
3
-4
-6
-5
-4
-1
-2
2
-4
8
2
8
2
3
-5
-2
-4
-8
-2
3
9
4
2
2
-9
-5
9
14
3
-2
7
2
-5
-5
-7
-20
-14
-6
-9
3
2
-2
8
25
-1
-3
6
19
-9
0
-4
-14
15
-6
-8
2
-8
-3
-3
2
-1
5
6
3
0
7
0
3
-7
17
6
3
-18
6
26
-25
0
6
28
4
-10
24
7
-5
4
2
7
-4
0
-8
3
-4
-8
2
-8
-6
-3
-8
6
1
1
7
-3
-1
-2
-5
10
6
-5
7
-5
9
-5
2
-2
3
10
3
-3
4
-1
2
-4
7
-16
0
10
-6
-4
-6
3
3
-9
-4
11
-2
-8
-5
-5
1
-2
8
11
15
-10
11
3
2
1
9
6
-7
-1
5
-2
-6
-2
1
-5
5
-8
0
-2
0
4
0
-5
4
-5
3
0
5
6
-3
-9
7
2
-2
3
7
-6
-6
-6
-2
0
-1
5
-4
-2
8
-8
-7
3
-6
-4
7
5
-8
-7
5
2
0
0
4
-8
6
7
-2
5
-6
1
2
-7
4
1
12
0
-5
16
21
-6
-6
10
4
-15
2
-5
-25
-19
9
5
-5
-11
7
4
58
-3
1
52
0
0
-18
49
-15
-12
-23
-7
1
-25
-16
9
10
6
-5
116
3
47
-8
-1
2
-2
12
20
8
-15
-3
7
-8
9
-24
-15
15
-14
2
-12
-1
-1
-7
-6
4
-8
-44
-8
-1
5
-30
7
-4
-9
-2
4
-63
-1
-5
-8
5
-8
-3
-13
13
10
55
22
-7
72
-11
18
5
-11
-12
2
0
3
-7
-1
-7
17
-1
-6
-5
-2
9
49
5
-8
7
9
-4
6
-8
-3
-41
8
-16
17
11
-6
-9
-14
-10
-3
-5
5
8
8
-8
-7
5
4
2
-3
-7
7
1
-6
-4
-4
5
1
-2
-5
2
2
-4
7
-5
-3
0
-8
1
0
6
5
4
8
9
7
6
3
-4
-8
-9
7
8
9
-4
3
8
-4
11
-3
9
7
-1
-5
6
3
7
-9
-1
-6
-2
2
-1
2
-3
5
0
9
-6
-1
-7
2
-1
7
2
2
7
3
-6
5
0
9
-2
5
-7
-7
2
-4
4
6
0
0
0
-3
-9
8
6
0
-8
3
-6
-2
0
14
9
14
4
7
8
-5
4
3
6
-2
5
3
3
15
-1
8
2
9
-6
-9
12
8
-5
-5
-7
-6
-4
0
8
-8
-7
1
-3
2
-5
-6
-7
-6
6
0
-8
4
-8
-5
-3
-2
-7
9
10
2
1
19
5
6
-1
0
9
-5
3
0
9
1
3
-6
8
-4
9
6
-2
11
-3
2
-5
5
-3
9
-2
3
3
-5
-7
-4
9
-7
-1
1
3
1
-6
0
2
-3
2
-2
2
2
-5
-1
-3
-8
5
8
-5
1
9
-2
2
0
0
0
0
3
12
0
-1
-3
-10
12
1
0
12
-7
-4
-4
7
3
5
-7
1
20
-4
6
5
12
-9
0
4
3
-4
6
7
4
-6
0
-10
-9
-3
-10
7
5
-6
4
7
1
-7
8
-5
-9
-3
-3
8
-3
-5
0
5
5
-7
3
4
-6
-4
1
0
2
0
3
-2
-5
-9
2
4
-3
-1
-3
5
-7
2
-8
9
8
-1
-7
-1
-7
5
3
5
-9
-4
-8
7
4
-5
9
0
7
1
-1
7
8
1
9
-7
0
3
-5
-3
8
10
-5
8
-10
24
0
-11
6
-2
-3
-4
-6
-7
12
3
-4
7
-12
5
-10
4
-6
6
4
-9
-17
8
-2
24
-15
16
18
-4
67
16
-8
-6
-8
-3
1
3
3
-4
21
2
-6
17
9
-5
-10
-2
-2
-14
-6
21
4
1
7
-7
-2
2
9
7
2
-4
0
-5
-5
-1
-7
1
1
4
8
6
3
0
7
6
2
-7
-4
-5
-7
0
5
3
-5
-2
-8
-4
-6
-3
4
-7
-7
-2
7
7
7
8
-2
2
-4
1
4
-3
-1
-5
9
0
-7
5
-5
-4
-2
-4
5
1
-4
-8
-9
-2
4
-4
4
-2
-2
-2
3
-7
0
5
7
3
1
1
3
9
6
-4
5
7
-1
0
-3
-8
0
-4
8
1
7
4
-1
-2
5
-1
7
0
4
-2
-7
9
8
8
5
6
8
-3
-6
1
3
-2
-7
6
7
2
-9
8
-3
-5
-3
-6
-7
7
8
8
4
-8
5
-1
8
73
-7
3
10
29
33
12
0
2
9
-12
-6
18
-7
11
-11
-9
25
2
-13
51
-15
-37
10
30
-52
36
35
20
7
-13
10
-8
3
-3
-5
-15
-5
-6
8
-1
12
-5
0
-7
0
33
8
1
-31
-2
7
-29
-5
22
-3
-8
41
-10
8
0
3
-3
4
17
7
-3
13
5
15
25
1
9
14
-4
3
15
13
13
0
4
8
8
3
-2
-2
2
-8
4
-6
11
9
16
2
12
-4
8
-1
3
6
-4
6
0
-5
6
-2
-4
6
0
-4
3
-13
0
8
2
7
19
5
2
-6
8
3
-7
18
-3
8
7
-6
5
-8
-18
30
5
4
0
1
-2
36
-3
-1
5
-2
-6
-2
9
9
3
3
29
-10
-4
1
9
25
13
6
-13
18
16
-3
-8
19
-3
10
11
14
0
-10
-3
-5
5
-4
6
4
-7
-8
-6
15
6
1
-15
-3
26
9
7
0
2
13
18
1
-1
9
8
4
-2
2
5
-3
9
-6
-7
4
-8
6
-10
-7
-9
2
-4
-5
1
7
0
7
6
-1
4
24
7
-5
6
2
-4
-11
0
-8
7
-5
8
-10
-3
8
-6
-1
-5
7
2
-2
6
6
4
5
-5
5
1
-2
8
-3
-4
-5
5
10
8
7
7
3
1
0
-7
45
20
15
18
8
10
10
-2
7
15
-11
-11
0
5
12
8
7
2
-11
-9
21
7
8
12
-9
-21
-11
32
-8
-3
3
0
-2
-10
3
0
32
-8
10
5
-11
5
-7
10
-7
-9
-5
2
4
-14
4
16
6
10
-6
1
0
23
-2
7
-1
5
-5
1
-3
1
2
2
1
-3
4
5
0
5
-6
-8
-6
-6
-4
4
-7
-5
2
-4
-7
6
-3
3
-7
-2
2
-5
-6
8
-9
7
-4
-8
-2
4
2
-1
-7
6
0
6
6
-8
9
4
2
-5
5
5
-7
7
5
1
1
3
-9
-5
-1
4
-5
2
7
6
2
-5
7
-8
-1
-9
7
0
-2
2
-5
9
-1
6
-1
-1
-8
3
0
-1
2
-8
5
0
0
13
-4
3
-8
4
-4
1
6
-10
12
-9
-2
-7
-1
-6
2
3
5
-2
-9
8
-8
-5
2
-9
3
2
2
-8
-3
-2
-2
-4
2
4
-1
15
-2
-6
-34
6
-3
9
-5
-3
-21
3
5
-14
9
-16
-7
-3
7
0
-3
-13
0
19
1
7
10
-5
-11
-2
18
-43
10
-1
-33
14
-4
-14
-56
3
1
-1
-4
-8
15
9
-7
-17
12
-7
-4
-6
24
12
-1
2
26
21
17
21
7
-24
1
6
-2
9
-7
-10
2
-1
0
2
3
-9
8
3
4
6
-5
-1
1
-2
8
3
-4
6
7
23
4
-4
55
2
10
-3
-16
20
24
-6
6
11
8
-3
-2
8
2
-1
-1
6
44
-4
6
19
-6
1
3
2
-15
-11
-5
4
8
8
-10
-16
-4
-4
4
6
-5
16
4
1
15
29
14
57
-8
6
31
10
4
4
5
5
-8
4
51
7
13
14
8
0
12
-1
-4
7
-13
-5
6
-7
-8
18
12
18
-1
-6
-7
-8
-4
4
12
4
1
5
4
10
8
6
-4
4
2
-1
-2
16
-8
38
-5
-19
33
9
-2
-9
-1
-6
0
-3
5
-6
-7
7
-1
-3
0
-8
6
5
0
-7
3
-7
3
-8
-6
5
1
21
7
7
34
-4
-5
2
3
1
-9
4
-4
-9
-6
14
11
-4
2
9
-10
-4
18
0
4
5
8
-6
-4
-9
0
1
4
-3
-9
-1
4
0
-1
-6
0
4
3
-9
6
3
11
24
-4
-1
-4
1
9
-2
-6
2
7
5
3
8
6
9
9
-3
5
3
9
-4
-4
7
-18
-3
-6
29
26
7
25
16
4
-8
-4
-4
6
0
5
-7
10
6
-2
-6
-2
7
18
-7
-13
13
3
12
-12
9
-7
0
-7
4
4
3
0
-4
-7
-3
12
10
2
7
8
4
5
-1
-8
8
3
0
-4
-2
11
-7
-5
3
5
-4
-9
7
-1
-4
6
5
4
12
7
7
22
5
0
-4
-3
-6
5
4
8
-3
6
-6
-1
0
-7
6
-1
-2
4
-7
5
5
2
0
-2
4
-3
1
7
8
-6
-1
7
9
-4
5
-1
-3
1
1
-5
-8
-3
-3
1
2
-7
-2
7
-4
-4
-6
-5
8
7
2
-7
4
-6
9
10
0
-1
5
-8
-4
4
0
0
6
-8
3
-3
8
-6
1
-3
-5
-10
-4
4
1
9
18
-2
-6
21
5
-13
9
10
-4
-1
6
7
2
-5
-1
-8
0
-4
-4
1
2
-3
3
-2
-4
-7
0
-3
2
-3
5
5
0
-3
5
-3
7
16
3
1
8
-4
-1
-2
-3
-11
5
-8
1
2
-6
8
-6
-1
-5
11
-1
4
-7
4
8
1
0
-5
-2
2
-5
7
-4
14
0
-8
-3
-5
8
6
