-0.0004884605878032744
0.003089254954829812
0.006875426042824984
-0.007739107124507427
0.007291083224117756
-0.002895609475672245
0.03363204747438431
-0.01314441580325365
0.003434461075812578
-0.0030151810497045517
-0.0017900668317452073
0.01038346253335476
-0.007848330773413181
0.014599577523767948
-0.005911011248826981
0.013112908229231834
0.005433770827949047
-0.003490329720079899
-0.0041064852848649025
0.006944796536117792
0.010935581289231777
-0.006237728055566549
0.01331944577395916
0.004948308691382408
-0.01748647540807724
0.0009240597137250006
-0.0009985328651964664
0.019628718495368958
-0.002246649470180273
-0.006207833532243967
-0.006162669975310564
-0.01068403385579586
0.020466482266783714
4.824250572710298e-05
-0.009820169769227505
-0.012424997054040432
-0.01004825346171856
-0.0007297043921425939
-0.0027910214848816395
0.011540882289409637
-0.011949452571570873
-0.010110028088092804
0.014480513520538807
0.007218623533844948
-0.002165523124858737
-0.006135901901870966
0.0014629947254434228
-0.00447589997202158
0.021392805501818657
0.022329416126012802
0.013226613402366638
-0.009838349185883999
0.004031825345009565
0.0018105658236891031
-0.009505596943199635
0.017362747341394424
0.001056778128258884
-0.005563067737966776
-0.005062061827629805
0.004784941673278809
0.0032267046626657248
0.011929131112992764
-0.008696592412889004
-0.010577627457678318
-0.006213711574673653
-0.007966865785419941
-0.00926881656050682
-0.01062069833278656
-0.010187624022364616
0.0017613087547942996
-0.0010066552786156535
-0.013653766363859177
0.0009905252372846007
0.027860216796398163
-0.004072613548487425
0.009011833928525448
0.009811896830797195
0.0175456702709198
-0.004895404446870089
0.006272905971854925
0.0030517878476530313
0.011798684485256672
-0.015336249954998493
0.010246720165014267
0.014144190587103367
0.013573145493865013
0.0028473190031945705
-0.0031528121326118708
0.017055101692676544
0.002997341798618436
-0.010060233995318413
0.01282969955354929
-0.004563068971037865
0.003864080412313342
0.01266462728381157
-0.004356165882200003
-0.007958264090120792
0.008591924794018269
-0.01690610870718956
-0.004307814408093691
0.0013549997238442302
0.001693157246336341
-0.0031334098894149065
0.02814316377043724
-0.008127720095217228
-0.007795373443514109
0.004865990485996008
-0.0046437387354671955
-0.007258376106619835
-0.007181425113230944
0.004286324605345726
0.0025928979739546776
-0.01976388692855835
0.00024426201707683504
0.0004829533863812685
-0.0004370270180515945
-0.00769139314070344
-0.003493465716019273
0.0014168181223794818
-0.0013129968428984284
0.015117563307285309
-0.01991051621735096
0.011125861667096615
0.000590294657740742
-0.0005651100073009729
-0.009153902530670166
0.0018921103328466415
0.008273092098534107
0.011261465959250927
-0.004361748695373535
-0.004398669116199017
0.008937238715589046
0.007294538430869579
-0.005853986833244562
0.00042294408194720745
-0.0022631660103797913
-0.007363911718130112
-0.006089687813073397
-0.009518174454569817
-0.006727014668285847
-0.005099460482597351
0.01574947126209736
-0.004749809857457876
-0.014679839834570885
0.008105361834168434
0.03100297413766384
0.01293751411139965
-0.015393909066915512
-0.00010212806228082627
0.004499856848269701
0.016220707446336746
-0.013131193816661835
-0.00798346009105444
0.004400345031172037
0.015743060037493706
0.006047960836440325
-0.004922789521515369
-0.009372826665639877
0.006236769258975983
0.0012845381861552596
-0.018907127901911736
-0.01315296534448862
-0.005894495639950037
0.010057472623884678
0.002023970242589712
0.002980763092637062
0.005161454435437918
-0.0021291603334248066
0.0008441947866231203
-0.004099326208233833
0.0004888735711574554
0.021457329392433167
0.0077215698547661304
-0.00021051321527920663
0.010260784067213535
0.012690321542322636
-0.0028056262526661158
-0.010993845760822296
0.0050784009508788586
0.018924163654446602
-0.002220163121819496
-0.004794254899024963
0.013081616722047329
0.0008197754505090415
0.003940568771213293
-0.0001653640065342188
-0.0065568480640649796
0.009283756837248802
0.010166341438889503
-0.0012690031435340643
0.0047054598107934
0.004174044821411371
0.015038715675473213
0.007313569542020559
0.006260052789002657
-0.003628141013905406
0.004785749129951
-0.002412587869912386
0.00863243080675602
0.003427129238843918
0.010017415508627892
0.0018977741710841656
-0.0011148926569148898
-0.00522349588572979
0.014449460431933403
0.00931549072265625
0.00703782495111227
0.020987818017601967
0.028750082477927208
0.0011252755066379905
-0.004372772760689259
0.0019470504485070705
0.007757588755339384
-0.012529143132269382
-0.004873406607657671
0.0024198568426072598
-0.008933905512094498
-0.003485307330265641
0.005069521255791187
0.005261121317744255
0.007514148950576782
-0.00462665781378746
0.006422791630029678
-0.005580401513725519
-0.016268033534288406
-0.0016819058218970895
-0.004887463990598917
0.002829879056662321
-0.00019146506383549422
0.005372397601604462
0.01202367153018713
0.0030078324489295483
-0.0078001078218221664
-0.002662530867382884
0.0017640821170061827
-0.025032516568899155
0.0036315962206572294
-0.008289206773042679
-0.00836227647960186
0.017340702936053276
0.0038118064403533936
-0.0014928104355931282
-0.005784865468740463
-0.011088321916759014
-0.010503132827579975
-0.012747018598020077
-0.0016096996841952205
0.00941877905279398
0.0068435585126280785
0.005822913721203804
-0.00803306419402361
-0.011020549573004246
0.004213124979287386
0.014194071292877197
0.010337398387491703
0.007806070148944855
0.021111320704221725
0.004361987579613924
-0.006691450253129005
0.007665369194000959
-0.013940108008682728
0.004669399932026863
0.016586875542998314
0.002331238240003586
-0.0005993663799017668
-7.20494645065628e-05
-0.004407078959047794
-0.009599515236914158
0.01403510756790638
-0.01469726487994194
0.021010709926486015
-0.0028423755429685116
0.0016443306813016534
0.007837251760065556
0.00246926280669868
-0.006163912359625101
-0.0008091823547147214
-0.0009321936522610486
0.005368734244257212
-0.0016522943042218685
0.0019756534602493048
0.0007522014784626663
0.01107549387961626
-0.003956261556595564
-0.013653821311891079
-0.003742663189768791
0.0029889869038015604
0.000847663905005902
0.0032889239955693483
0.012118291109800339
0.008300305344164371
0.0017859912477433681
0.00977246928960085
-0.012635340914130211
0.0013377054128795862
0.010137340053915977
0.0031225699931383133
0.008871144615113735
0.0033528022468090057
-0.01659320667386055
0.018383849412202835
-0.005525552202016115
-0.00020214433607179672
0.01116197556257248
0.010808344930410385
0.011263521388173103
-0.007796647492796183
0.0018510693917050958
0.0005199186271056533
-0.007102197501808405
0.0007330876542255282
0.01740303821861744
0.0002732624125201255
0.014679096639156342
0.017273014411330223
0.006671923212707043
-0.009940157644450665
-0.013910522684454918
0.009927516803145409
0.0011292427079752088
-0.01048043929040432
0.003190136281773448
0.015205935575067997
0.005749319214373827
-0.012152221985161304
0.025158487260341644
-0.008303260430693626
0.0018447877373546362
0.030773840844631195
-0.009265642613172531
0.022677745670080185
0.009222668595612049
-0.007753762416541576
0.022874867543578148
0.019510719925165176
-0.006013368722051382
-0.006640878040343523
0.003082532435655594
-0.008415315300226212
-0.008623593486845493
0.0012851275969296694
0.0024470011703670025
0.0008299597539007664
0.005464724265038967
-0.015423012897372246
-0.009296104311943054
0.013336723670363426
-0.002841557376086712
0.004606724251061678
-0.0006757694645784795
0.002879025647416711
0.007302828133106232
0.013287634588778019
0.009527879767119884
-0.0034887201618403196
-0.010549509897828102
0.0100161824375391
0.0009988418314605951
0.019595935940742493
0.002329441951587796
-0.012964039109647274
-0.0033488834742456675
-0.009611722081899643
-0.002672936301678419
0.00016200082609429955
0.019792374223470688
0.006761685945093632
0.010683613829314709
-0.012602603994309902
0.0007029357948340476
0.004370871465653181
0.010065438225865364
0.0015288761351257563
0.00947577878832817
0.008620016276836395
0.02073429897427559
0.007646713871508837
0.006293558981269598
-0.012980705127120018
-0.010031347163021564
-0.005355265457183123
0.013807437382638454
-0.00958140380680561
0.0063294898718595505
-0.007152099162340164
-0.004943301901221275
0.002202013274654746
-0.007039719261229038
-0.014454788528382778
0.001376764732412994
0.005276507697999477
0.009520797058939934
0.016947990283370018
0.0017477301880717278
0.000817260006442666
0.018305134028196335
0.018528584390878677
0.010714671574532986
0.006202187854796648
-0.009862193837761879
-0.012506629340350628
-0.0011186192277818918
0.018140044063329697
0.0025186436250805855
-0.010234290733933449
-0.005700467620044947
0.0022934393491595984
0.024816401302814484
0.0015291194431483746
0.010731748305261135
0.0046973018907010555
-0.0042735193856060505
-0.00014220821321941912
0.0067319548688828945
0.0119987353682518
0.008287967182695866
0.010910050943493843
0.013880394399166107
-0.009664187207818031
-0.013223376125097275
-0.0044830781407654285
-0.008547909557819366
-0.011656688526272774
0.007930593565106392
-0.005655440967530012
0.03151963651180267
-0.003689912613481283
0.011702156625688076
-0.009583625011146069
-0.006616527214646339
-0.011573080904781818
0.002313269767910242
0.004579573404043913
-0.0024997114669531584
0.00708638783544302
-0.00898174848407507
-0.003014954272657633
0.006791577208787203
0.003979390021413565
0.0055463844910264015
0.00684214336797595
0.01137777604162693
-0.0008595818071626127
0.007431718520820141
0.0012880706926807761
0.02086346596479416
-0.001210722723044455
-0.002662917599081993
-0.008527304045855999
0.006675515323877335
-0.0064826300367712975
0.02425897680222988
0.009853876195847988
0.018672944977879524
-0.004660668317228556
0.0012355070794001222
-0.001566197955980897
-0.010208399035036564
-0.007290072273463011
-0.005379123613238335
-0.009550390765070915
-0.012134367600083351
0.00027725723339244723
-0.003962238784879446
-0.0019353727111592889
-0.0037027487996965647
-0.02223135344684124
-0.005162487737834454
0.00515796709805727
2.1738760551670566e-05
0.0036261596251279116
0.03025938756763935
0.006219249684363604
0.026730600744485855
0.007564098574221134
-0.014640403911471367
-0.0013352511450648308
0.007544716354459524
-0.004257462453097105
-0.019265109673142433
-0.0011197797721251845
0.008963280357420444
0.0011076361406594515
-0.0010386141948401928
0.001992800273001194
0.0013264947338029742
-0.009917092509567738
-0.006741318851709366
0.005872150883078575
0.0013180481037124991
0.005580923054367304
0.00630273949354887
0.009018983691930771
-0.005899897776544094
0.001152629149146378
9.336822404293343e-05
0.005350902210921049
-0.009975370019674301
-0.014911895617842674
0.012895486317574978
0.01635979674756527
0.013705197721719742
-0.011662605218589306
0.005671370308846235
0.0004875618906226009
0.010187440551817417
-0.0022651006001979113
-0.008551027625799179
-0.007111125625669956
0.010992937721312046
0.0040792315267026424
-0.00701867276802659
0.0035593032371252775
-0.007047695107758045
-0.007630258332937956
0.023933837190270424
0.015425466001033783
0.004882642533630133
0.0021271693985909224
-0.02254975214600563
-0.013821560889482498
-0.011293081566691399
0.003109075129032135
-0.005208381451666355
0.022405412048101425
-0.005110019352287054
0.0270859282463789
0.014032077044248581
0.0038460935465991497
-0.01597135327756405
0.016893161460757256
0.0098275663331151
-0.006846736650913954
0.003929931670427322
-0.005062446929514408
0.005574156530201435
0.007852146402001381
0.03552163392305374
-0.01761608198285103
-0.0031672180630266666
0.0022373320534825325
0.009260253980755806
0.0060386378318071365
0.00024318121722899377
0.0005935115623287857
-0.008095787838101387
0.02147611230611801
0.006037367973476648
0.0018060714937746525
0.005832847207784653
0.007611347362399101
-0.011928698047995567
-0.006065829191356897
0.002452086890116334
-0.006085815839469433
0.01150587759912014
-0.002246107207611203
-0.009957840666174889
0.001448223483748734
0.011014057323336601
-0.002921117004007101
0.002244576346129179
-0.0039223977364599705
0.0030390406027436256
0.005572076421231031
-0.012701824307441711
-0.004230937920510769
-0.0038027737755328417
0.006798745132982731
0.003148807678371668
-0.0012082502944394946
0.03836391121149063
0.003786409506574273
0.012513921596109867
0.0021080600563436747
-0.0029740985482931137
-0.012091259472072124
-0.0010246109450235963
-0.015438969247043133
-0.006741350516676903
0.003442325396463275
-0.010115738026797771
0.0057543800212442875
0.0012250242289155722
-0.009619130752980709
-0.028872046619653702
0.002431752160191536
-0.006958017125725746
-0.003069300204515457
-0.006093490868806839
0.008127805776894093
0.013006862252950668
0.007900375872850418
-0.005936121102422476
0.008113490417599678
-0.008024773560464382
-0.008661016821861267
-0.014634520746767521
-0.014682332053780556
0.007087758742272854
0.001176103949546814
-0.004225172568112612
0.003682524897158146
0.0034861492458730936
-0.006961079780012369
0.016285602003335953
0.007365021388977766
0.003272014670073986
0.017034845426678658
-0.002604224719107151
-0.007055321242660284
-0.003197317011654377
0.009175957180559635
0.01762397587299347
-0.003521556267514825
-0.0014115266967564821
-0.014130950905382633
-0.0028738100081682205
0.012667934410274029
-0.007778909523040056
-0.009987806901335716
-0.011263268999755383
-0.017995305359363556
0.0009338505915366113
0.00033800871460698545
-0.010036403313279152
0.0032963945996016264
0.008902153931558132
-0.010115677490830421
-0.005763720255345106
-0.0024684870149940252
-0.009434117935597897
0.005115593317896128
-0.011073825880885124
0.014890387654304504
0.0005660255555994809
0.004326012451201677
-0.003922202158719301
-0.008501628413796425
0.006673038005828857
-0.004838881548494101
-0.004351790528744459
-0.007263720501214266
-0.00022201430692803115
-2.546724681451451e-05
-0.0200460534542799
-0.018291525542736053
0.005623740144073963
-0.0011650603264570236
-0.0024256063625216484
-0.002345913089811802
-1.0208103049080819e-05
-0.014674820937216282
0.014140971936285496
-0.009441937319934368
0.0039084493182599545
-0.005419800523668528
-0.013178840279579163
0.006627844180911779
-0.001569142215885222
-0.0034361202269792557
0.010649040341377258
-0.019096098840236664
-0.003997110761702061
0.0035418400075286627
0.0014654716942459345
-0.0241569634526968
-0.00031353806843981147
0.005650645587593317
0.003886443329975009
-0.011575154028832912
-0.0061612059362232685
0.007735532708466053
-0.0013457821914926171
0.02598578669130802
0.0008839881629683077
0.009375610388815403
0.00907274428755045
0.0074020070023834705
-0.007126306649297476
0.004320146515965462
0.0007936647743918002
0.005650786217302084
0.00995465088635683
0.013343152590095997
-0.004183964338153601
-0.004037856124341488
-0.007317534647881985
0.0012353608617559075
0.0013344355393201113
0.028578655794262886
-0.004076833371073008
0.0034073353745043278
0.004943729378283024
0.0003716206701938063
0.010734227485954762
0.009071136824786663
0.009890837594866753
0.01937670074403286
0.013639000244438648
-0.009447108022868633
-0.0039011200424283743
-0.0015188654651865363
0.007837073877453804
-0.017591068521142006
0.013506538234651089
0.00014494176139123738
-0.011265147477388382
-0.009915496222674847
-0.0035993284545838833
0.012918335385620594
0.004001334775239229
-0.001914474181830883
-0.005305490456521511
0.004363324027508497
-0.019577516242861748
0.029836546629667282
0.002972964895889163
0.0022001841571182013
0.00601814454421401
0.001652088132686913
0.010247200727462769
-0.005930512212216854
0.002815268700942397
0.020346414297819138
0.01184780802577734
0.02498174086213112
0.028495972976088524
-0.007296607829630375
0.001063026487827301
0.03241528570652008
0.001856035552918911
0.01164317224174738
0.006327508017420769
0.01767013594508171
0.00935701560229063
-0.0014620880829170346
-0.005502270068973303
0.032369811087846756
0.0049031442031264305
0.002395774470642209
-0.009447704069316387
-0.014381147921085358
0.007741074543446302
-0.007993853650987148
0.009990976192057133
0.007476910948753357
0.022479688748717308
-0.016559792682528496
-0.002840547589585185
0.0019495852757245302
-0.008033817633986473
0.008217939175665379
0.0074640060774981976
-0.00047024516970850527
0.001708018477074802
0.006012209225445986
0.025034617632627487
0.007618858478963375
0.01374388113617897
-0.0180295929312706
-0.007420958019793034
-0.006954389624297619
0.012219390831887722
0.0010795245179906487
0.006101509090512991
-0.0009650267893448472
-0.0037980747874826193
0.004687604960054159
-0.0001072609011316672
0.028522906824946404
-0.011235732585191727
-0.005682730115950108
-0.014250160194933414
0.0037502797786146402
0.007001335266977549
0.00683089904487133
-0.0028151997830718756
0.01226191595196724
-0.00960058718919754
0.01335731241852045
-0.00945692416280508
-0.0031529658008366823
-0.011019311845302582
0.0009327788720838726
0.004434314090758562
-0.006717056035995483
-0.0018285529222339392
0.007402140647172928
-0.0006408171029761434
-0.00566722359508276
0.012590952217578888
-0.004092262126505375
-0.008681368082761765
0.003911454230546951
-0.013346218504011631
-0.00040263182017952204
-0.0019346702611073852
-0.008974106051027775
-0.0103267477825284
0.004350889939814806
-0.01034609880298376
0.003778034122660756
-0.0038963602855801582
-0.004144147038459778
0.013927796855568886
0.004728878382593393
-0.001544120954349637
0.0038878850173205137
-0.00815234612673521
0.016640733927488327
-0.017440427094697952
-0.018831942230463028
-0.007151625584810972
-0.006075541954487562
-0.015977727249264717
0.011991064064204693
0.003149315482005477
-0.016182832419872284
-0.020956210792064667
-0.0005902523989789188
-0.0166353490203619
0.01045564841479063
-0.008287027478218079
-0.016366172581911087
0.003414754057303071
0.00459485175088048
-0.007672050502151251
-0.009406011551618576
0.007382077164947987
-0.007027416490018368
0.0020570149645209312
0.01384734082967043
-0.009067422710359097
-0.010122999548912048
0.002607528120279312
-0.004695779178291559
0.011731687933206558
0.002204763935878873
0.005305175669491291
-0.00365416775457561
-0.002923717023804784
-0.0005329226260073483
0.021083664149045944
-0.013432414270937443
0.0202097836881876
-0.0008016403880901635
0.0029466794803738594
0.004833188373595476
0.014192365109920502
0.0023312929552048445
0.022157806903123856
-0.00575421703979373
0.0009663973469287157
-0.0020776200108230114
0.014362754300236702
-0.0037026703357696533
0.008738437667489052
0.017904825508594513
-0.011555693112313747
-0.010746009647846222
-0.0027336752973496914
-0.004147442523390055
0.024310193955898285
0.0022435456048697233
2.274390499223955e-05
-0.01816014014184475
0.03212586045265198
0.024873072281479836
-0.006743728648871183
-0.00032738654408603907
-0.009287720546126366
-0.002017832361161709
-0.015850553289055824
0.006300225853919983
0.019388586282730103
-0.00033433540374971926
-0.005392965395003557
0.01279627624899149
0.013307943940162659
-0.012441343627870083
-0.008048458956182003
-0.004913437645882368
0.014690385200083256
0.000666741922032088
-0.01047141570597887
0.02665705420076847
0.0180028285831213
0.019544554874300957
-0.0001559409429319203
-0.011893768794834614
-0.014584952034056187
-0.005662934388965368
0.014799605123698711
0.01530638337135315
-0.0022502834908664227
0.003360879374668002
-0.013182194903492928
-0.02549298107624054
0.011967704631388187
0.0057014417834579945
-0.01733393408358097
0.00035483192186802626
-0.009526845067739487
0.017118601128458977
0.0011062226258218288
0.00181161321233958
0.007053408306092024
0.012958819977939129
-0.00643921596929431
-0.01056898944079876
0.014456948265433311
0.005258332006633282
-0.001791981398127973
-0.009651933796703815
0.003909714985638857
-0.01069188117980957
-0.003207169473171234
-0.0014749513939023018
-0.007950480096042156
-0.0032202915754169226
-0.015070945955812931
0.006136739626526833
0.02007409743964672
-0.005299441982060671
0.0035096919164061546
0.018510669469833374
0.0032707357313483953
0.004971595015376806
-0.012431561015546322
-0.0045105996541678905
0.006931761745363474
-0.014880968257784843
0.007284056395292282
-0.0017140894196927547
-0.004919060505926609
0.0014308626996353269
-0.01854834333062172
-0.0031093365978449583
-0.00961111020296812
-0.005388346035033464
0.012830940075218678
0.007596255280077457
-0.009684513323009014
0.009232132695615292
0.01278591901063919
0.0004689698398578912
-0.012517877854406834
-0.0039355861954391
0.009553741663694382
0.0042709545232355595
-0.009012947790324688
-0.0073041184805333614
-0.004749060142785311
-0.013661199249327183
0.006069201044738293
0.009086024016141891
-0.002090340480208397
-0.00690480787307024
0.001944833085872233
0.015944380313158035
0.004075884819030762
-0.013655634596943855
-0.004584962036460638
-6.656876212218776e-05
0.0108717642724514
0.00628920691087842
-0.00748042669147253
0.00860396958887577
-0.008142892271280289
-0.010273458436131477
0.0079109538346529
-0.0029275231063365936
-0.003395638894289732
-0.001326154568232596
-0.00697731738910079
0.005165865644812584
-0.0023870847653597593
0.001377332373522222
0.004256654996424913
-0.018641462549567223
-0.012082347646355629
0.019468845799565315
0.016100453212857246
0.0016961174551397562
0.003306946950033307
0.00532273855060339
-0.007370026782155037
-0.0002805783587973565
-5.404073453973979e-05
0.015438121743500233
0.0028414165135473013
-0.01447257213294506
-0.005248765926808119
0.006333164405077696
0.0047223251312971115
-0.005966302938759327
-0.010491867549717426
-0.0010125350672751665
0.011195164173841476
-0.008799212984740734
0.007774066179990768
-0.005416367668658495
0.0036424431018531322
0.009079325012862682
0.012836949899792671
-0.009224074892699718
0.01060498133301735
-0.024054864421486855
-0.006403488107025623
0.00854531954973936
0.01477719470858574
0.005797417368739843
0.012800974771380424
0.015402304008603096
0.0003315279900562018
0.0008851757738739252
-0.0037632312159985304
0.014717337675392628
-0.004602669272571802
-0.00013296210090629756
0.012442481704056263
0.004545279312878847
-0.011649301275610924
0.012457657605409622
-0.007915747351944447
-0.007753116078674793
0.031950123608112335
-0.010683952830731869
0.008602852001786232
-0.010973270051181316
0.023953959345817566
0.0004541587841231376
-0.001440189080312848
-0.0013697812100872397
0.011929012835025787
0.03047982044517994
0.006243759300559759
-0.010813606902956963
0.0060709151439368725
-0.0001831280969781801
0.0019154358888044953
0.013216525316238403
0.020687246695160866
-0.00921555608510971
-0.011214434169232845
-0.0037472594995051622
-0.006610909476876259
-0.013928999193012714
-0.0054697333835065365
0.009304126724600792
-0.008584640920162201
0.0008283668430522084
0.00871419906616211
0.02179712802171707
0.009808896109461784
-0.0050021447241306305
0.008983989246189594
-0.005540100391954184
0.00017821478832047433
0.01789984293282032
-0.010154281742870808
-0.010283426381647587
0.008119683712720871
-0.0076281121000647545
0.0017114006914198399
0.012196647003293037
0.010092450305819511
-0.0031044455245137215
-0.0008870257879607379
-0.008247192949056625
0.0017888073343783617
-0.0091466773301363
0.006429053843021393
-0.0018246440449729562
0.008093290030956268
0.0026856057811528444
0.0001274686655960977
-0.011370760388672352
-0.011189175769686699
-0.011144304648041725
-0.0003944931668229401
0.013546822592616081
-0.008019482716917992
0.010578018613159657
0.01309871580451727
0.017632445320487022
-0.009577210992574692
0.012309040874242783
0.015755167230963707
0.001551719382405281
-0.0018263246165588498
-0.009907672181725502
-0.013551877811551094
-0.012468422763049603
-0.01778508350253105
0.0111488476395607
-0.010761693120002747
-0.0019660228863358498
0.02140911854803562
-0.004464341327548027
0.0040024686604738235
-0.011410693638026714
-0.006174588575959206
0.012266106903553009
-0.014543553814291954
0.019701501354575157
-0.00959097035229206
-0.0013714521192014217
-0.005382206290960312
0.008772967383265495
-0.011002770625054836
0.020529115572571754
-0.006480698473751545
0.007563348393887281
-0.00033732602605596185
0.00349243707023561
0.023759186267852783
-0.008376109413802624
0.002122048521414399
0.008070653304457664
-0.0035677722189575434
-0.006079212762415409
-0.00041571215842850506
0.009264123626053333
0.004015791229903698
-0.0028621689416468143
0.011167537420988083
0.004956943914294243
0.008430195041000843
0.006528155878186226
-0.012268124148249626
0.008888284675776958
0.0051833707839250565
0.01707911118865013
-0.002930611837655306
-0.0020999545231461525
-0.01420050859451294
0.0045577287673950195
0.003082715440541506
0.012457288801670074
0.015504011884331703
0.018137799575924873
-0.009573868475854397
0.003094782354310155
-0.007132316008210182
0.005751044489443302
-0.007902934215962887
0.0006060295272618532
0.011869637295603752
0.009020556695759296
-0.0076879896223545074
0.0022473731078207493
-0.00010468376422068104
-0.005101348739117384
-0.0031789320055395365
0.00318873836658895
0.00470301229506731
0.008142386563122272
-0.004732252564281225
-0.012453586794435978
0.003848451655358076
-0.007859853096306324
0.0011479409877210855
-0.00362299382686615
0.006148350890725851
0.005481623578816652
-0.01444108597934246
0.002183576114475727
-0.0036982267629355192
-0.0014043899718672037
-0.0021897621918469667
0.000329917500494048
-0.0018015435198321939
-0.006670050788670778
-0.0029075737111270428
0.0023641439620405436
-0.007597459480166435
0.01081139501184225
0.004862511530518532
-0.0029557393863797188
-0.007180937100201845
-0.004676635377109051
-0.004884278401732445
0.009514959529042244
0.007592176087200642
0.023317057639360428
-0.0040664952248334885
-0.0082075335085392
0.012970016337931156
-0.0072450595907866955
-0.01330625545233488
-0.0017654026160016656
0.027976371347904205
0.005930493585765362
0.019095435738563538
-0.006441684439778328
0.018250683322548866
0.0069747138768434525
-0.0010480659548193216
-0.010302971117198467
0.002634637989103794
0.008514618501067162
0.01093367114663124
-0.0011501166736707091
0.006447845604270697
-0.00043818881385959685
0.0003542392805684358
0.007826609537005424
0.01652260683476925
0.008581212721765041
0.019225871190428734
0.007055162452161312
-0.004364322870969772
-0.01005046907812357
-0.009113865904510021
0.013938719406723976
-0.0099941436201334
0.002413777867332101
0.010867449454963207
-0.014032657258212566
0.002710949629545212
-0.0019250469049438834
0.004905744455754757
0.004218946676701307
-0.016765320673584938
0.005009863525629044
-0.001968965632840991
-0.0022804432082921267
-0.002670242916792631
-0.0011763395741581917
0.007321785669773817
-0.0026080100797116756
-0.013835368677973747
0.0312421265989542
0.00942168664187193
-0.008388269692659378
-0.002859932603314519
-0.004612256307154894
0.032000232487916946
0.013940506614744663
0.010030142031610012
0.003516547614708543
0.0108341034501791
-0.0021379138343036175
-0.009782654233276844
0.001916831941343844
-0.005762462038546801
0.007568367291241884
-0.0006363896536640823
-0.0019190601306036115
0.004533832427114248
-0.01644579879939556
0.006132624112069607
-0.014105979353189468
0.00575447641313076
0.0194388497620821
0.00111499079503119
0.013103858567774296
0.005322949029505253
-0.0005242445622570813
-0.0025226466823369265
-0.006583427079021931
-0.001721154898405075
0.008796758018434048
0.006182454526424408
0.016664627939462662
0.004887872841209173
0.0030436478555202484
0.003686525160446763
0.000501522736158222
-0.006072772666811943
-0.004029061179608107
-0.002435159869492054
0.00234398921020329
0.0020347507670521736
0.004956552293151617
-0.004784903023391962
-0.017280390486121178
0.013923067599534988
-0.003033215645700693
-0.0022707150783389807
0.011699152179062366
0.01793626695871353
0.0016844095662236214
-0.023670660331845284
0.0017279416788369417
-0.006440116558223963
0.00665300153195858
0.009766931645572186
-0.003229383146390319
-0.0007433846476487815
-0.005467589013278484
0.0072833881713449955
-0.006375945173203945
-0.017283592373132706
0.014995507895946503
-0.007765154354274273
-0.012883025221526623
-0.00841501448303461
-0.00646520359441638
0.001968609169125557
0.008415117859840393
-0.0031247753649950027
0.009291410446166992
-0.00822446122765541
0.017229732125997543
-0.0015147211961448193
-0.014335570856928825
0.010657898150384426
-0.002274095546454191
-0.0037499484606087208
0.013647840358316898
-0.006979986559599638
0.020837953314185143
-0.018457792699337006
-0.0005791469593532383
0.0026443556416779757
0.00447127828374505
-0.0035089196171611547
-0.00842505507171154
0.0017731443513184786
-0.011393272317945957
0.008698048070073128
0.004693822003901005
-0.0008593706879764795
0.0025872685946524143
0.0003810023481491953
-0.012930383905768394
-0.015448360703885555
-0.0008335585589520633
-0.00836401991546154
0.03325413167476654
-0.015211114659905434
0.0007544971304014325
-0.010179456323385239
-0.009372800588607788
-0.02093888632953167
-0.005539379082620144
-0.009493177756667137
-0.01239069364964962
-0.0026041341479867697
-0.0018822087440639734
-0.00821754615753889
-0.0018479464342817664
-0.013502071611583233
0.009485231712460518
-0.012188556604087353
-0.00011193771933903918
-0.0023202935699373484
-0.019364789128303528
-0.00437128497287631
-0.00791998952627182
-0.02248755283653736
0.02702762745320797
-0.0027433354407548904
0.0013143086107447743
0.01816687174141407
-0.008699067868292332
0.008525585755705833
0.01766975410282612
-0.01424650102853775
0.010605143383145332
0.008067091926932335
-0.00399847561493516
0.019688984379172325
0.0053634257055819035
0.003855733899399638
0.00837178435176611
0.0030435537919402122
-0.0041227685287594795
0.011858141981065273
0.010652583092451096
-0.010900692082941532
0.008459041826426983
0.01215480174869299
-0.006395435426384211
-0.002069094916805625
-0.016593828797340393
-0.004911255557090044
0.0034584433306008577
0.006863757967948914
-0.0072912052273750305
0.00513569638133049
0.0053123533725738525
-0.0029975492507219315
-0.004184361081570387
0.009401417337357998
-0.0019451623084023595
0.012196192517876625
-0.003733663121238351
0.0012313734041526914
0.007880986668169498
-0.00940258800983429
-0.014534005895256996
0.02525044046342373
-0.002726717386394739
-0.016934476792812347
-0.005083272699266672
-0.0049996101297438145
0.005655716639012098
0.01357757393270731
0.011166293174028397
0.007475507911294699
-0.008274336345493793
-0.008224780671298504
0.003131863893941045
-0.005519866943359375
0.0018949615769088268
0.023973247036337852
-0.0040231384336948395
-0.02082645893096924
0.014633122831583023
0.0072500030510127544
0.0007257641991600394
0.01614069566130638
-0.009973196312785149
-0.009526224806904793
-0.0033703951630741358
-0.0007173558115027845
0.0008217744180001318
0.0042771161533892155
-0.0068588401190936565
0.0037200755905359983
0.030386604368686676
-0.006326538510620594
-0.0009947501821443439
-0.0025008476804941893
0.02299971878528595
-0.008602586574852467
0.011878510937094688
0.011141390539705753
0.02866218611598015
0.015015766955912113
-0.007683517411351204
0.010596360079944134
0.023352723568677902
0.005799963138997555
0.007204701658338308
0.0018778658704832196
-0.007012310903519392
-0.003359501250088215
-0.009956102818250656
-0.01884385012090206
0.0028344879392534494
-0.007200262509286404
0.0038740106392651796
-0.004468079190701246
0.0019046416273340583
-0.02062591165304184
0.0025194869376719
7.510420255130157e-05
-0.013209478929638863
0.010776556096971035
0.005207646172493696
0.004326411988586187
0.0011249925009906292
0.007835169322788715
-0.0007447890238836408
-0.004191237036138773
0.009346953593194485
-0.015048997476696968
0.003231811337172985
-0.009563641622662544
0.008536051027476788
0.002695044269785285
-0.007312202826142311
0.023340053856372833
-0.0005094215157441795
-0.01093094889074564
-0.014113789424300194
0.009349257685244083
0.007286395411938429
-0.007548790890723467
-0.002267418196424842
0.0041947560384869576
-0.011179979890584946
-0.0001798187440726906
0.00948261097073555
0.007746561896055937
0.00585144991055131
-0.007136495318263769
0.0012278086505830288
0.009661217220127583
-0.003153450321406126
-0.0035308224614709616
0.02637065015733242
-0.00664007943123579
0.0049436334520578384
-0.009756962768733501
0.005506004206836224
-0.002764919074252248
0.0018386626616120338
0.0006686338456347585
-0.011055382899940014
-0.00023466274433303624
-0.00421105744317174
0.0012703657848760486
-0.010533723048865795
0.013228176161646843
-0.0007248094771057367
-0.01612314023077488
0.0025105776730924845
-0.0016324020689353347
-0.0003433164383750409
0.0074542309157550335
-0.003293550107628107
-0.0011156105902045965
0.004924755543470383
-0.0025108428671956062
0.010628988966345787
0.02655036561191082
0.004762720782309771
-0.015038070268929005
0.010657081380486488
-0.004158469848334789
0.004666522610932589
0.00988264661282301
0.014363089576363564
-0.004199638031423092
0.002207562793046236
0.01865721493959427
0.0026314975693821907
-0.005476824007928371
0.00020755958394147456
0.01678439974784851
0.0005406982963904738
0.0029144135769456625
-0.007806786801666021
0.013333577662706375
0.013373585417866707
0.005907879211008549
0.005706445313990116
0.001182586420327425
0.009440427646040916
0.005728540010750294
0.006879839114844799
0.009876634925603867
-0.0003678932262118906
-0.013788408599793911
0.013131300918757915
-0.007826399989426136
0.008069033734500408
-0.012672851793467999
-0.010200794786214828
-0.0037332535721361637
-0.005148439668118954
0.0014295990113168955
-0.0005504880682565272
0.002057810081169009
-0.0023221957962960005
-0.009439042769372463
0.002091742353513837
0.011824092827737331
0.003947004210203886
0.0007654334767721593
-0.00019631155009847134
0.00609979685395956
-0.007004145998507738
0.03695758804678917
0.002399554243311286
-0.0016126157715916634
0.011532437987625599
-0.004922665189951658
0.0067718783393502235
-0.002637457102537155
-0.00621434161439538
-0.004963387735188007
0.00454169325530529
-0.009560213424265385
-0.002693281974643469
-0.014094719663262367
-0.006292474921792746
0.01028088852763176
-0.009971060790121555
0.0001813596027204767
0.010548361577093601
0.004497296176850796
-0.0073584397323429585
0.010662511922419071
0.010808088816702366
-4.018193794763647e-05
-0.0020145161543041468
0.006233598105609417
0.00568288704380393
0.008038178086280823
-0.004140818025916815
-0.006145206280052662
-0.003186508547514677
0.004380769096314907
-0.0027184265200048685
-0.006899687461555004
-0.004921071697026491
-0.004151911940425634
-0.005085085518658161
-0.008657129481434822
-0.018276749178767204
-0.010567896999418736
-0.0017762990901246667
-0.0008055914076976478
0.006646838970482349
-0.005773906130343676
0.021198509261012077
0.007777359802275896
-0.01253325305879116
-0.01974472962319851
-0.001741476939059794
0.006394851021468639
-0.006980358622968197
0.00850619561970234
-0.0001508602872490883
0.005070975515991449
-0.008673055097460747
-0.014813894405961037
-0.0015871989307925105
0.003974016290158033
0.000495215761475265
0.00516973901540041
-0.002908456837758422
-0.004935254342854023
-0.011542478576302528
0.0032352188136428595
-0.00926277507096529
-0.0011454388732090592
0.019548553973436356
-0.0020003989338874817
0.00350219220854342
-0.012182414531707764
-0.00274861347861588
0.009030655957758427
-0.0014280440518632531
0.000991010689176619
-0.012053311802446842
0.004052795469760895
-0.0030541126616299152
-0.0005918378010392189
0.009703238494694233
0.0062798988074064255
0.0002915081277024001
0.01094946637749672
-0.004500992596149445
0.01658150553703308
0.00808938592672348
0.0018747660797089338
0.01858261413872242
0.0055119129829108715
0.004858622793108225
0.007305688690394163
0.003529394743964076
-0.005157900042831898
0.008462161757051945
-0.0030509165953844786
0.0006348869646899402
-0.02206730656325817
-0.010090873576700687
0.0027610466349869967
-0.004642697982490063
-0.0017720474861562252
-0.017967557534575462
-0.010336400009691715
0.026124760508537292
-0.004612875171005726
0.007900350727140903
0.007446870673447847
0.009489914402365685
0.012556510977447033
-0.006364999804645777
0.017095183953642845
-0.017801320180296898
0.0005068728933110833
0.02211442030966282
-0.0011325535597279668
0.0178535133600235
0.0033942442387342453
0.01606195792555809
-0.014231979846954346
-0.007994754239916801
-0.006071887444704771
-0.013858341611921787
0.004167148377746344
0.004689924884587526
0.009994249790906906
0.007952324114739895
-0.00263762753456831
0.004266750067472458
0.012386824004352093
0.017043666914105415
-0.020227039232850075
-0.0011993119260296226
-0.016313957050442696
-0.00036211253609508276
0.0031115219462662935
-0.006030785385519266
0.013697709888219833
0.004450359381735325
-0.0005408595316112041
0.001492393552325666
0.007974210195243359
0.007901654578745365
-0.02380754053592682
-0.005499298684298992
-0.017723020166158676
0.007636453956365585
-0.014013118110597134
0.0029851901344954967
0.001234738971106708
-0.010851121507585049
-0.0023193135857582092
-0.007677377201616764
0.016887933015823364
0.001235367963090539
0.011677192524075508
-0.01759091392159462
-0.0014162398874759674
-0.006385378539562225
0.02113601379096508
-0.0055116526782512665
0.003924109041690826
0.003329393221065402
-0.006433089263737202
-0.0048727733083069324
0.010845894925296307
0.022349977865815163
-0.011356398463249207
0.016274476423859596
0.0009119232418015599
0.010563195683062077
-0.01743762381374836
0.00193645094987005
-0.004300036933273077
0.0002149436913896352
-0.011400117538869381
0.03873566538095474
-0.0015499616274610162
0.01743985526263714
0.011055025272071362
0.0203228909522295
0.024416616186499596
0.009055822156369686
0.006654602941125631
0.001443279441446066
0.004799837712198496
0.021229028701782227
-0.010063226334750652
-0.00044298835564404726
0.01774793118238449
-0.0018933615647256374
-0.004908109083771706
-0.007328458596020937
-0.016359679400920868
-0.003345378441736102
0.005466405767947435
-0.0016434083227068186
-0.0036827721633017063
0.008884366601705551
0.00869753398001194
-0.0025302611757069826
0.008794697001576424
-0.0097693782299757
-0.0001263300800928846
0.0030025066807866096
-0.00027291078004054725
-0.005292775575071573
0.01268733013421297
-0.004280347842723131
0.010885481722652912
0.012076477520167828
0.0015363316051661968
-0.003540229983627796
0.010064826346933842
0.007349339779466391
0.01751410774886608
-0.00462087569758296
0.0015264342073351145
0.01704583130776882
0.0024074423126876354
0.0014518812531605363
0.0035177082754671574
0.007525365799665451
0.0082030538469553
0.0011906545842066407
0.010386751964688301
-0.009688306599855423
-0.02199850045144558
0.0040841675363481045
-0.00999192800372839
-0.013603556901216507
0.012021920643746853
0.03081401437520981
-0.008170346729457378
0.00843493826687336
-0.025539670139551163
-0.006106257904320955
-0.006243424024432898
0.002019600011408329
0.007836248725652695
0.0027424003928899765
0.002530670026317239
0.008742773905396461
-0.014261036179959774
0.004698554519563913
0.003198830643668771
-0.01472923532128334
-0.007656231056898832
-0.0010468472028151155
0.005152176599949598
-0.0012324887793511152
-0.018578283488750458
-0.0031036410946398973
-0.0014310793485492468
0.011690611019730568
0.014777743257582188
-0.007856073789298534
-0.0100469458848238
-0.010114788077771664
-0.003050589933991432
0.013163922354578972
-0.0030110429506748915
0.001677191467024386
-0.010103176347911358
-0.01215018704533577
-0.012142508290708065
-0.011943039484322071
0.0020816107280552387
-0.00806874968111515
0.002335579367354512
0.02469504252076149
-0.011030299589037895
0.012646414339542389
-0.00030853922362439334
-0.005506979301571846
-0.001909940387122333
0.010447741486132145
-0.014149428345263004
-0.002090920927003026
0.006812036968767643
0.002810469828546047
-0.004334065597504377
-0.022710807621479034
0.0020949123427271843
-0.003877707291394472
0.01294403150677681
-0.011551318690180779
0.004858461208641529
0.011503376066684723
0.0008891617180779576
-0.010775876231491566
0.0004826489312108606
-0.004361885134130716
-0.0016054183943197131
-0.001291715307161212
-0.01711677573621273
-0.009982780553400517
-0.015390265733003616
0.008454525843262672
0.03240561857819557
0.003418181324377656
-0.001686802483163774
0.0015088579384610057
0.00799344852566719
0.011584163643419743
-0.00040992480353452265
-0.007956115528941154
0.0023017446510493755
0.012457055039703846
-0.003106457181274891
0.00210542231798172
0.010011639446020126
0.010828372091054916
0.02249753102660179
-0.011177943088114262
0.012266947887837887
-0.008083915337920189
0.009537818841636181
0.005862443242222071
-0.006165977567434311
0.003706300863996148
-0.00981796346604824
0.00610871659591794
0.011557027697563171
-0.01036844588816166
-0.00701719569042325
-0.012324558570981026
0.008714882656931877
-0.002435691887512803
-0.010399877093732357
0.006467372644692659
-0.0068276990205049515
-0.014535811729729176
0.017174439504742622
0.004581604152917862
-0.0017482832772657275
0.004061869345605373
0.01502248179167509
0.0019872167613357306
0.0017869895091280341
-0.003809685818850994
0.010423574596643448
1.6215164578170516e-05
-0.0010008936515077949
0.0028629912994802
-0.0027606599032878876
0.015635287389159203
0.006210798863321543
-0.005591555964201689
0.00747539522126317
-0.0056415824219584465
0.0020855972543358803
-0.0033993693068623543
-0.004583045840263367
-0.004365548957139254
0.030634429305791855
-0.006108300760388374
0.0038060112856328487
-0.007714017294347286
0.005488681141287088
0.013550118543207645
-0.006435754708945751
-0.01507184561342001
-0.0011619982542470098
-0.014078185893595219
-0.013593107461929321
0.004331855569034815
0.017522217705845833
-0.012865593656897545
-0.003795208176597953
0.00030440694536082447
0.006318765692412853
-0.010269164107739925
0.0066825514659285545
0.03388291597366333
-0.0010409635724499822
-0.00788113009184599
0.007064737379550934
-0.0067734685726463795
0.028590727597475052
-0.0077779944986104965
0.012763632461428642
-0.010595327243208885
0.0033986393827944994
-0.010763118974864483
0.00814521498978138
0.02422301471233368
-0.0015433974331244826
-0.013975406996905804
-0.01166501920670271
-0.004594847559928894
-0.004666860215365887
0.0013144600670784712
0.0015780300600454211
-0.013609257526695728
-0.008605982176959515
0.011112610809504986
0.00029448381974361837
-0.009376385249197483
0.019206387922167778
0.0004559448570944369
0.0008388283895328641
-0.008106843568384647
0.006212516687810421
-0.006980941630899906
-0.007566106505692005
0.021297350525856018
-0.009753192774951458
-0.007872053422033787
-0.0032254387624561787
0.008316677063703537
0.003694382729008794
-0.0041860975325107574
0.0009983595227822661
0.00223937607370317
-0.0009026125189848244
-0.0018384442664682865
0.04523726552724838
0.012979770079255104
-0.0021769055165350437
-0.007907610386610031
-0.009336048737168312
-0.013717837631702423
-0.010251960717141628
0.002524921204894781
-0.0072446539998054504
-0.017978215590119362
0.009864614345133305
0.016169294714927673
0.0005968664772808552
0.009642352350056171
-0.0072206067852675915
0.00393816689029336
-0.00898033194243908
-0.0147169828414917
-0.0009431018843315542
-0.005965363699942827
0.016748782247304916
0.007802802603691816
0.012209968641400337
0.006234504748135805
0.0007421798072755337
-7.928456034278497e-05
0.011884131468832493
-0.015334589406847954
0.006934390868991613
-0.005704178009182215
0.002701247576624155
-0.0004351832903921604
-0.007668206933885813
-0.007629844360053539
-0.0007793434197083116
0.008005108684301376
-0.011192450299859047
-0.0012435427634045482
-0.00883276853710413
-0.0014686601934954524
-0.009651967324316502
-0.0046502333134412766
0.01113009825348854
-0.008408961817622185
0.007967183366417885
-0.015468897297978401
0.01384660042822361
0.007010257802903652
0.0032727643847465515
0.0048260740004479885
0.0037842998281121254
0.027108902111649513
-0.004263255279511213
0.007040597032755613
-0.0031928340904414654
0.0018567070364952087
0.02222161926329136
-0.01279284805059433
-0.020428741350769997
-0.00955074280500412
-0.012663500383496284
0.0003830065834335983
0.007311766501516104
0.003502980573102832
-0.003243338782340288
-0.006257273256778717
0.006904644425958395
0.017657915130257607
-0.006756994407624006
0.010757304728031158
-0.011598091572523117
0.007405352313071489
-0.001630111364647746
0.005296779330819845
0.009163893759250641
