-0.027850622311234474
-0.015095006674528122
0.01293411385267973
0.01314445212483406
-0.012635373510420322
-0.13185468316078186
0.1393142193555832
0.10338090360164642
-0.03578948229551315
-0.01990383118391037
0.016536787152290344
0.048906341195106506
-0.0865902453660965
-0.08289004117250443
0.007445545867085457
-0.08791123330593109
-0.06016252189874649
0.02118287794291973
-0.01965586096048355
-0.011009438894689083
-0.03846485912799835
0.030947959050536156
-0.0008485618163831532
0.027305003255605698
0.0012024311581626534
0.23343759775161743
-0.010572944767773151
-0.07593657821416855
0.012488549575209618
-0.028837472200393677
-0.03928808495402336
0.09197990596294403
0.021585779264569283
-0.02768702805042267
0.05899187549948692
0.03318077698349953
-0.015334117226302624
-0.10827172547578812
-0.027970798313617706
-0.07782389968633652
0.20094695687294006
0.24721115827560425
-0.15660013258457184
-0.16305632889270782
-0.05681386962532997
-0.14830204844474792
-0.019269436597824097
-0.02745889686048031
0.12176088243722916
-0.08251049369573593
-0.017665645107626915
-0.07501238584518433
0.04794318601489067
-0.05911552533507347
-0.17368966341018677
-0.08939439803361893
0.0022447456140071154
-0.13576798141002655
0.02341265045106411
-0.023161806166172028
-0.04030175134539604
-0.0747402012348175
0.06155739352107048
-0.016671713441610336
-0.01952384039759636
0.022175803780555725
-0.07035543024539948
0.034441493451595306
-0.02712893858551979
-0.014966663904488087
0.04191841185092926
-0.07784143090248108
-0.12661707401275635
0.445755273103714
-0.04795817285776138
0.2718549072742462
-0.10051199048757553
-0.05267544835805893
0.06486432254314423
-0.04815172776579857
0.01099162083119154
0.05685299634933472
-0.06043780967593193
-0.040855418890714645
0.05173055827617645
0.057680096477270126
-0.10116387903690338
0.11981921643018723
-0.06868480145931244
0.020486822351813316
-0.005618372466415167
0.04539194703102112
0.19117729365825653
0.026077106595039368
-0.07375944405794144
-0.060168083757162094
0.04995955526828766
-0.08766266703605652
-0.020636362954974174
0.1698581576347351
0.003250553272664547
